100 64
54 -0.6789565 -0.31941873 -0.7717439 0.6047905 0.49976245 -0.18133901 0.40568143 0.0823475 0.10388965 -0.45215666 -0.36523917 0.116156444 -0.09956459 0.6037183 0.68610674 -0.7155712 -0.6355161 0.5053176 0.06740679 -0.04662362 0.37825188 0.65410393 0.2895196 -0.5175546 -0.86193883 -0.6119865 0.33012465 0.2212095 0.74232584 0.021075387 0.9952087 -0.17720903 0.22249514 -0.03935496 0.099679016 -0.019053776 -0.11364912 0.71251684 -0.33184484 -0.1878055 -0.18749584 0.21721965 0.50869673 0.34790042 -0.0516639 0.10141842 0.17477521 0.09807071 0.34263295 0.5579106 0.069321655 -0.03708806 0.2737195 -0.1436449 0.12625611 0.21079582 -0.18793556 -0.16289933 -0.45052367 -0.2622704 -0.5035932 0.27058512 0.2741718 -0.28294635
34 -0.21111248 -0.20078543 0.2720387 0.32858446 -0.102540836 -0.50925916 0.01112782 -0.011664169 -0.10554323 -0.18661287 -0.86660767 -0.07732625 0.20842557 -0.0062023313 0.09538393 -0.20662165 0.06938236 -0.62463444 0.017105082 0.15490274 -0.38856357 0.17935774 0.093688846 0.0072491216 0.8319397 -0.08286695 0.08220105 0.37171552 0.69400305 -0.0038035235 -0.3634871 0.27159172 0.47942707 -0.32732278 0.35803378 -0.11186455 0.098708756 0.3325412 -0.48690692 -0.4489899 0.01094489 -0.3661696 0.06448741 0.38816798 0.11537339 -0.24549897 -0.1996351 0.06756996 -0.08718395 -0.41958338 0.38645566 -0.108088434 -0.12013833 0.45005995 -0.23943214 0.75624394 0.010888983 -0.12459145 0.064748265 0.14862795 -0.58497417 -0.44659793 -0.1929579 0.2832133
68 -0.46635595 -0.083434954 0.35603723 -0.23326832 0.27597904 0.012690959 -0.025220959 -0.20213065 -0.38713998 -0.29818407 -0.28998125 -0.27375543 0.12890081 -0.14017202 0.4416329 0.18739823 -0.3921928 -0.2847879 -0.14296424 -0.096764505 -0.00232601 0.19904996 -0.2518696 0.29797137 0.40154722 0.1649763 -0.12633117 0.15880626 0.36975947 -0.12516129 -0.024884216 -0.21418129 0.2251696 -0.29644498 0.0918429 -0.17941798 -0.0062911403 0.1760062 -0.056491252 -0.7205915 -0.010571515 0.15306672 0.258008 0.4754284 -0.20712444 -0.23233669 -0.032776516 0.4043706 -0.79849154 -0.4889202 0.13847777 -0.19748212 -0.21716602 0.020094115 -0.12530257 0.3072471 0.06996807 0.16724604 -0.13545279 0.45548543 -0.34538785 -0.3610807 -0.10078019 0.17485046
1 -0.059194677 -0.18362637 0.34865063 0.29710004 0.16089527 -0.6537345 -0.043581206 0.23804797 -0.30124292 -0.2585882 -0.339137 0.7295464 0.3086846 0.09470754 0.5584661 -0.332487 -0.35934687 -0.0535303 0.36988306 -0.7398982 0.51931345 0.7116987 -0.35991058 0.21566246 0.2816422 -0.5920814 1.001607 -0.6600525 1.1173294 -0.5656618 0.16913873 -0.16652316 0.1683261 0.7783849 0.5601605 -0.58809876 0.48686448 0.079263315 0.2535335 -0.042637296 0.17720507 -0.12954651 0.543999 0.19545239 -0.20841597 -0.042025637 -0.96658486 0.69966954 -0.5173411 -0.2141245 0.043253355 -0.51641345 -0.61502737 -0.24326628 0.401725 -0.39150798 0.15926659 0.028962532 -0.05299798 0.1713518 0.54497117 -0.048867263 -0.21430825 -0.044711657
56 -0.15170182 0.623277 0.0075952606 0.2154545 0.048951153 -0.94598603 -0.28353703 0.7468797 0.023123348 -0.6174409 -0.23372872 0.13670033 -0.6593585 0.25728765 -0.23729594 -0.42983896 -0.6338499 0.16929205 -0.23012565 0.26695037 0.47780463 -0.015393783 -0.4918052 0.095091015 0.61905575 -0.33075783 0.40134433 0.2659662 0.24269551 -0.07435821 -0.10192493 -0.14777996 0.8536335 -0.4445054 -0.069876835 -0.47492456 0.83871543 0.21756394 0.14213336 -0.5334115 0.19335209 -0.5902171 0.054369964 0.27449515 0.07172692 -0.23941807 -0.99534935 0.17996779 1.01625 -0.42395046 0.520063 0.07448882 0.44795865 0.103288226 -0.6915398 0.56858486 0.006365906 -0.25561148 0.14268722 0.16317147 -0.12724108 -0.13629885 -0.4720202 0.33074865
8 -0.7326969 -0.31881747 0.65925217 0.12687398 0.5126886 0.00029552315 0.72384775 0.6226566 -0.29557657 -0.1294594 -0.28928292 -0.4935302 0.17075658 -0.080225416 0.6427713 -0.16631679 -1.0314327 -0.2997546 -0.1892064 -0.0810418 0.13118142 0.022252353 -0.27939996 0.27327362 0.34155297 0.104646094 -0.43240276 -0.3102748 1.0367157 0.5308926 0.47741747 0.4425511 -0.20621514 -0.27180305 -0.14926697 0.101172335 0.0696189 0.5499358 -0.30237737 -0.648517 0.20807062 -0.22906896 -0.39363003 0.16614904 -0.0011638184 -0.18213445 0.27796856 0.59611446 -0.6700357 -0.7927056 -0.014727006 0.41114348 0.11104512 -0.06817199 -0.7893266 0.63357466 -0.21001114 0.41563144 0.08296754 0.42638898 0.1009418 -0.10007205 -0.44725853 -0.35067397
7 -0.24703443 -0.26729444 0.22429305 0.067097895 0.055606157 -0.3882036 -0.04659743 -0.060883053 -0.19566259 -0.16372678 -0.19319376 0.57035226 0.54185563 0.10316216 0.41550833 -0.19071108 -0.3887623 -0.2641259 0.16737784 -0.59723896 0.27641705 0.57728523 -0.4087113 0.050417896 0.28070286 -0.08940733 0.67723095 -0.3374796 0.5311726 -0.041812558 0.14460027 0.050997823 0.19623846 0.24105108 0.68257064 -0.19309849 0.080080435 0.11725926 0.57919884 -0.44240797 0.4384279 0.5481907 -0.038596738 0.17646575 -0.060762208 -0.42904285 -0.1766494 0.5662651 -0.95943826 -0.63843143 0.051845644 -0.060544707 -0.57445323 -0.3930106 0.15551436 -0.15399976 0.10137401 -0.0034840442 -0.12435464 0.28480676 0.022580976 -0.045791913 -0.54259956 -0.13067602
19 -0.40372622 -0.040834036 -0.64598894 0.11227146 0.4031635 0.017111555 -0.340368 0.54980695 -0.07547128 -0.46913853 0.26761392 -0.46488446 -0.89729846 0.54335433 -0.109341 -0.4901933 -0.48746386 -0.06334425 -0.023644445 -0.18387885 0.11236053 0.07686168 -0.26058435 0.020320822 0.651121 0.044236477 0.26789632 -0.05217844 0.42915168 -0.06630498 -0.2365931 0.03219137 0.5494369 -0.6745451 -0.11419713 -0.59908456 0.27527308 0.33363575 1.0049709 -0.51975125 -0.3486015 -0.4789012 0.35405186 0.6550714 0.068255216 -0.80313396 -0.30439985 -0.11996957 0.46538484 -0.022849558 0.17909797 0.20577954 0.63266087 -0.2331786 -0.43035266 0.31671885 0.58655745 -0.39189842 -0.33794558 0.60743314 -0.12721597 0.036949545 -1.0040855 -0.029033255
91 -0.56309015 -0.41984 -0.35891375 0.14301303 0.6250617 -0.048495725 0.101483 -0.5238103 -0.6294021 -0.23928465 -0.32946917 -0.30453068 -0.6542056 0.22681972 0.30116785 -0.29802108 -0.30435082 -0.4348143 -0.15979117 0.45135394 0.5244712 -0.20102753 0.051492948 0.23376139 0.5212373 0.22094887 0.056034457 -0.40706128 0.33622512 0.17639506 -0.6139532 -0.52776366 0.41134843 -0.22422217 0.32011345 -0.5866012 0.43113622 0.18133745 0.7706095 -0.039983436 -0.2746967 -0.6515718 -0.24755824 0.40984225 -0.24081206 -0.7268361 0.04727532 0.41616464 -0.34328192 -0.3457994 0.63870955 -0.4016139 0.7428436 0.074219786 -0.14573994 -0.303264 0.14478649 0.050067898 -0.22898158 0.27231264 -0.3208186 0.42635342 -0.6027321 -0.10043504
28 -0.50837284 -0.51847374 -0.16753702 0.6535866 0.19133414 -0.96786946 -0.123491526 -0.1321696 -0.31248817 -0.29695448 -0.15174823 0.3098005 0.6802989 0.07039486 0.26755825 -0.475046 -0.5454159 -0.17649223 0.1019101 -0.6168605 0.8896277 0.23689826 -0.3192148 0.23992294 0.6002293 0.09363517 0.9111674 -0.7040509 0.27416867 0.2164886 0.3146317 0.01953772 0.23476438 0.16623522 0.5442657 -0.33150595 0.018488713 0.3998187 0.7611394 -0.8544827 0.40270272 0.7998209 -0.32677972 0.042459667 -0.03557432 -0.51875156 -0.3240147 0.5630285 -1.0777587 -0.80445987 0.24123195 0.10340696 -0.70004773 -0.5632813 0.023917878 -0.3244971 -0.044439655 -0.25939047 -0.0021029375 0.3459663 0.4557559 0.27068752 -0.23889482 0.055061836
95 -0.7415028 -0.22166528 0.64331245 0.060186952 0.49544746 -0.22323883 0.77948296 0.6573442 -0.4300577 -0.35742107 -0.22839193 -0.77737075 0.22456135 0.20769767 0.78163046 0.0012754073 -0.9407734 -0.32844728 -0.33311757 -0.1706595 0.29539156 -0.08708624 -0.15369602 0.37915322 0.18608789 0.37679246 -0.44233105 -0.28418615 1.2228703 0.4444086 0.58841735 0.32052138 -0.14942853 -0.38043332 -0.46140513 0.182381 0.3317639 0.6894819 -0.44032586 -0.64784306 0.06754587 -0.5050141 -0.29317403 0.23065451 -0.10904714 -0.13673364 0.21376063 0.8279655 -0.48283508 -0.70831305 -0.14020762 0.26503947 0.21441002 0.16039826 -0.92564625 0.41968623 -0.29340932 0.7103933 0.22782926 0.052081257 0.068039246 -0.014439072 -0.431287 -0.48825875
80 -0.4256921 0.565881 -0.093920864 0.31476352 -0.02208097 -0.49920157 -0.632222 0.739184 -0.2254937 -0.404502 0.11248221 -0.42150775 -0.81534123 0.3578728 0.038645964 -0.5277175 -0.30358708 -0.087751664 -0.11943291 0.15201136 0.26502052 -0.029709818 -0.40577003 0.12807347 0.7724082 -0.2513171 0.2131407 -0.063550875 0.5890068 -0.020690108 -0.17373101 -0.05196982 0.8917016 -0.3815453 0.16588831 -0.29186037 0.5527102 0.26835215 0.54785824 -0.43193626 -0.51988095 -0.37809572 0.23159604 0.4619532 0.27464676 -0.46328026 -0.6883114 -0.30378073 0.98282427 -0.05069024 0.35375014 0.13960716 0.37939256 -0.04606942 -0.85348576 0.3283911 0.26104718 -0.18954685 0.17715353 0.5022024 -0.08178524 0.1284751 -0.74480563 0.24591766
49 -0.57676035 -0.40880072 -0.7047683 0.24992429 0.41128588 -0.11287354 -0.12400942 -0.083297916 -0.020485973 -0.2529498 0.21467534 -0.6386321 -0.73081344 0.5154655 0.085168175 -0.40241453 -0.24135771 -0.13157067 -0.37157017 -0.01815497 0.39385182 0.0053295586 0.114137694 0.16404223 0.6468504 0.28894582 0.36995688 -0.22066654 0.335763 -0.043490607 -0.30851743 -0.20286825 0.5564459 -0.46312645 -0.0064112046 -0.544497 0.29084447 0.391845 1.0307391 -0.31826845 -0.28639287 -0.5993092 0.075367816 0.48603296 -0.20236348 -0.9047027 0.089674786 -0.06230373 0.20344351 -0.23443776 0.19965371 -0.14546703 0.5450103 0.08098578 -0.43791506 0.22044739 0.35318097 -0.15761633 -0.1564576 0.5470865 -0.3852255 0.48042914 -0.98884976 0.05372293
57 0.26369637 -0.21119802 0.33947366 0.5695449 0.2879809 -0.6302132 0.21070836 0.6365833 -0.31512746 -0.43837106 -0.30871677 0.38450748 0.19377363 0.034480948 0.44743103 -0.36427554 -0.39666617 0.057824254 0.50993305 -0.97467434 0.5309785 0.5381774 -0.3598616 0.10713081 0.4744657 -0.5782864 0.8364593 -0.7208974 1.4495255 -0.5623894 0.31389683 -0.03713377 -0.22058249 0.65720075 0.2871611 -0.6283732 0.48295936 0.43783203 0.062125616 -0.16008312 -0.010579451 -0.44658163 0.8440258 0.22017477 -0.16786553 0.08324395 -1.0559369 0.9249642 -0.4997257 0.123037696 -0.058875892 -0.26899412 -0.48034635 -0.25291362 0.3773012 -0.04772944 0.0399898 -0.044703722 -0.30986533 0.00033843436 1.1000578 -0.026853213 0.04428684 -0.32569158
89 -0.32249594 -0.41140303 -0.79443383 0.5911591 0.7707872 -0.27904132 0.34976357 -0.28368965 0.07941659 -0.65116084 -0.6261391 -0.028744647 -0.0026016424 0.2071984 0.67486197 -0.7457595 -0.44279492 0.39627436 0.07063168 -0.0016059239 0.05039091 0.8105323 0.5476745 -0.4637335 -0.7127157 -0.60193944 0.27741173 -0.0008416652 0.85867566 -0.027839297 0.844641 -0.35996148 -0.030827962 -0.135726 0.18091579 -0.11603888 -0.049228445 0.8597826 -0.21760452 0.074835144 -0.36166787 0.09822424 0.7720419 0.20414446 0.11846889 0.11310217 0.10466522 0.1810551 0.50790817 0.7667948 -0.09374072 0.16490932 0.18316607 -0.072369345 0.046396572 0.22796744 -0.23959196 -0.002456844 -0.16673943 -0.1633532 -0.4480348 0.3330545 0.32346487 -0.19340797
63 0.0381558 -0.5719749 0.038296226 0.032043736 0.41280538 -1.0776075 -0.16012754 -0.0029727905 0.14955978 -0.36638725 -0.96946216 -0.2367908 0.27050585 0.15280749 -0.117722526 -0.30777648 -0.22567776 -0.7120658 -0.450719 -0.24127464 -0.1334118 0.54311186 0.053633645 0.36979872 0.5285228 -0.0103328 -0.10560952 0.5020772 0.34693787 0.17931351 -0.11522206 0.36888108 0.57929885 -0.74898815 0.3540772 -0.12183284 0.052823067 0.35597038 -0.6465666 -0.5584202 0.20953219 -0.29729682 -0.49009922 0.52213013 0.19717096 -0.1249737 -0.4394506 -0.09264022 0.029665617 -0.30086377 -0.045384884 0.0011109292 -0.44579074 0.32034996 -0.2831433 0.27678084 -0.030371465 0.18062538 0.65540487 0.36063904 -0.748046 -0.541394 -0.24496728 0.5166904
3 -0.527572 -0.34815997 0.5522266 -0.16355552 0.57690185 -0.5977934 0.603402 0.62649024 -0.35154384 -0.3418534 -0.020845717 -0.8280124 0.1382779 0.3798321 0.73049664 -0.045442283 -0.9196858 -0.5002301 -0.4608 -0.32680577 0.38631567 -0.03968396 -0.2746206 0.5080349 0.23853064 0.6058073 -0.4973452 -0.24857646 1.2045056 0.6976272 0.50284576 0.23852366 -0.05601527 -0.39347836 -0.4005778 0.3053869 0.5242078 0.777498 -0.037464567 -0.81304145 0.069366 -0.78398156 -0.35817954 0.18705687 -0.04956491 -0.20421596 0.17479347 0.7692401 -0.42245287 -0.7149148 -0.3101639 0.23226322 0.14890483 0.19025859 -0.9085347 0.15680596 -0.39175153 0.94319797 0.48464802 0.004983628 0.19429612 0.16449994 -0.8360557 -0.5000444
52 -0.6415867 -0.34454408 -0.7763993 0.6110946 0.522046 -0.3601298 0.049958225 0.0002928098 -0.29996812 -0.741115 -0.18327017 0.29924685 0.15181226 1.0568001 0.5948119 -0.48978686 -0.3424109 0.20205557 0.16731675 0.118074484 0.41545045 0.5499719 0.3027145 -0.16736737 -1.0606953 -0.27315125 0.467235 0.27770427 1.1371069 0.22333767 0.95814884 -0.13550012 0.22937934 -0.32719395 0.1588137 0.22069001 -0.10724604 0.86640906 -0.14619455 0.10635556 -0.088905945 0.28761208 0.4640844 0.12329865 -0.07858927 0.02512581 0.12831272 0.033537295 0.2195191 0.6471081 0.36562583 -0.0074756634 0.30761713 0.105391696 0.058508918 -0.52778995 -0.23467581 0.22576827 -0.30432376 -0.65327984 -0.5139023 0.20339003 0.2065208 -0.46496823
76 -0.5545992 -0.1992482 -0.29266122 0.12329365 0.47068205 -0.27225724 0.10072443 -0.64959705 -0.88913286 -0.3452827 -0.26989323 -0.19693975 -0.41858956 0.61449015 0.4934243 -0.19883022 -0.16263282 -0.30832756 -0.32939705 0.51160735 0.6488759 -0.18105462 0.20513712 0.1043197 0.32733908 0.6440808 0.38017637 -0.40113312 0.6393585 -0.06677348 -0.52072644 -0.57555157 0.56691 -0.5197271 0.3399662 -0.3423534 0.58868223 0.19277565 0.8361145 0.17525086 -0.32060444 -0.6177577 -0.3837711 0.54473615 -0.50798994 -1.0043542 0.11773141 0.6397581 -0.37789363 -0.47079328 0.7061187 -0.6120771 0.84498197 0.28093413 -0.22189401 -0.55152255 0.14598113 0.3247467 -0.16529077 -0.11879282 -0.6002728 0.5724258 -0.7892918 -0.31510556
27 -0.65682364 -0.10069629 0.53786135 -0.139603 0.4540126 0.043183252 0.253645 0.09344443 -0.44763273 -0.25618097 -0.34372523 -0.41596588 0.15658078 -0.24497044 0.6365265 -0.026391251 -0.7365893 -0.30793196 -0.1356346 -0.09071109 0.046770528 0.082204215 -0.20083916 0.29876223 0.32346773 0.12296359 -0.268292 -0.1983483 0.56685656 0.14154005 0.16202705 0.03329917 0.046865 -0.36575806 -0.11169909 -0.14327587 0.006955914 0.2293906 -0.29264814 -0.5068435 0.052480906 0.117923364 -0.101671666 0.28486878 -0.010103779 -0.16106476 0.045256965 0.592391 -0.653135 -0.62746024 0.016251365 0.18904778 -0.099028856 -0.05455356 -0.54686916 0.3528807 -0.029962566 0.27792725 0.02932857 0.46282214 -0.16341847 -0.31742626 -0.14024249 -0.057898737
64 -0.414144 -0.28133175 -0.6268015 0.5365462 0.65058386 -0.34074414 0.37743452 -0.08328934 -0.08135886 -0.51639426 -0.57943076 0.07872225 0.10959551 0.3261167 0.69899184 -0.8287789 -0.57704073 0.42729616 0.108257815 0.03270994 0.21478029 0.7212423 0.35909393 -0.53858125 -0.85994446 -0.6144124 0.26360533 -0.0138641605 0.8055306 0.035285804 0.8781969 -0.2258812 0.07859369 -0.17182383 0.17552009 0.03428038 -0.03762187 0.7505259 -0.29774573 -0.019539522 -0.3354663 0.21016273 0.50753385 0.29416144 0.15598589 0.077665925 0.06929426 0.24302912 0.5390973 0.6949214 -0.1304915 0.14450082 0.23889357 -0.24762808 -0.02685028 0.009754649 -0.16772872 0.06540072 -0.12293119 -0.2826732 -0.45321247 0.37635145 0.25851643 -0.23593247
12 -0.12598953 -0.38193822 0.20802432 0.22934632 0.14101724 -0.6030091 -0.09853841 -0.02528792 -0.28262827 -0.13108991 -0.22212934 0.5861373 0.5324307 0.17926422 0.5342837 -0.26884386 -0.2225377 -0.24546096 0.24132843 -0.74884284 0.4413954 0.6363133 -0.2759782 0.20471892 0.2180486 -0.24044514 0.8704733 -0.5837804 0.8349387 -0.2588246 0.13826229 0.042605773 0.2231014 0.49032634 0.646355 -0.33940688 0.21500821 0.080821775 0.4153222 -0.17979404 0.22674523 0.2326234 0.08493191 0.21322435 -0.13195148 -0.29028413 -0.54196095 0.52966756 -0.76214117 -0.35184196 -0.039263338 -0.32241318 -0.68052226 -0.32246727 0.31833118 -0.4813866 0.1559388 0.10553264 0.050466426 0.18286866 0.23997803 0.00066328025 -0.40380874 -0.065148726
13 -0.0050209714 0.5334813 0.06942194 0.1099874 -0.037221383 -0.6629932 -0.12700917 0.46231937 0.05206563 -0.5841776 -0.4740444 0.3085571 -0.39539668 0.13842103 -0.078101635 -0.16375574 -0.27776453 -0.037118815 -0.14869215 0.28773215 -0.06520472 0.009146365 -0.15567563 0.025341002 0.51483583 -0.16182153 0.42733115 0.32828778 0.42816523 -0.22038266 -0.18472716 0.010377496 0.69130945 -0.40287068 0.07624907 -0.49637908 0.70021033 0.11263785 -0.107533276 -0.16290325 0.186296 -0.5352053 0.11482039 0.2544422 -0.01587071 -0.22784849 -0.7163062 0.19704936 0.8773001 -0.5516346 0.42817044 0.027775692 0.35793468 0.2915827 -0.53029776 0.6838103 -0.08104375 -0.14661999 0.07231069 0.016967045 -0.45305228 -0.38776708 -0.35732037 0.18535411
67 0.059657242 0.2762677 0.07465649 0.11621975 -0.15957625 -0.6493314 -0.07995406 0.39442608 0.16001643 -0.42299664 -0.5358726 0.43360555 -0.23139136 0.21635497 -0.106692046 -0.10139275 -0.13368544 -0.237435 -0.05667656 0.20513475 -0.23255451 0.093883954 -0.22282521 0.0032671501 0.5748892 -0.1546806 0.29427668 0.47866973 0.49524087 -0.012624788 -0.29767814 0.2667651 0.5958838 -0.369783 0.2703673 -0.32504684 0.52074 0.121878415 -0.13031499 -0.30610806 0.32954678 -0.507733 0.07183914 0.2527469 -0.035279408 -0.2857606 -0.5016455 0.14242831 0.5161233 -0.5191508 0.49971452 0.11455695 0.2371892 0.28516334 -0.3735448 0.7381765 -0.07872882 -0.21936081 0.020602606 0.018401314 -0.5182774 -0.50919425 -0.43643364 0.089384675
58 -0.7577781 -0.24432807 0.051977824 -0.40124863 0.49926823 0.4225856 -0.10241821 -0.02249755 -0.46002808 -0.70501196 -0.48573235 -0.055558704 -0.091490686 0.1005414 0.16830717 0.3292279 -0.5468674 -0.75579524 0.0017689124 -0.06775369 -0.33441857 0.32066053 -0.06003865 0.65994084 0.28482953 0.08102207 -0.01585148 0.12657271 0.85509086 -0.042899933 -0.19427891 -0.033570595 -0.03508265 -0.23091215 0.20465615 -0.7172717 -0.022363314 0.29642254 -0.10510392 -0.3586217 0.14372164 0.22273807 0.36442673 0.1650372 0.14867736 -0.31759533 -0.12287052 0.38659042 -0.7935567 -0.935165 0.38185722 0.20833753 0.008408768 -0.035341784 -0.20977746 -0.03572735 0.056642402 0.19901016 -0.39713785 0.5813404 -0.574454 -0.77098435 -0.16616948 -0.05156812
36 -0.9504982 -0.15325841 -0.62338936 0.6908487 0.3017825 -0.12071243 0.012903007 0.13002972 -0.13321623 -0.38170925 -0.3589034 0.19619381 -0.30915058 0.70113266 0.7631604 -0.7987568 -0.44468123 0.18353836 0.2248508 0.2315609 0.3739224 0.6735988 0.14450966 -0.32722008 -0.7705353 -0.9339371 0.26782724 0.15261455 1.0330005 0.20246266 0.8136975 -0.14463314 0.48830724 0.3924751 0.43720382 -0.0055123493 -0.11953399 0.6076928 -0.38999945 -0.05492167 -0.45668787 0.3521098 0.53338385 0.2096894 0.27254692 0.2667309 0.009776271 -0.3259745 0.4379398 0.6125036 0.39139777 -0.12456367 0.1981491 -0.2028301 0.0010469685 -0.17144856 -0.24248081 -0.16399622 -0.31065544 -0.12366991 -0.57826763 0.20732816 0.32616574 -0.16922285
92 -0.68597 -0.25952986 -0.7575078 0.18971668 0.47451514 -0.4919055 0.3539491 0.031087864 -0.22061092 -0.29992744 -0.5597739 0.33860505 -0.11499147 0.42632648 0.733271 -0.88050514 -0.9392617 0.1936252 0.32079214 0.14588608 -0.02182169 0.51334685 -0.15616414 -0.71197087 -1.1129216 -0.58408445 -0.14637123 0.3747306 0.5500897 0.5173969 0.7509954 -0.17206576 0.276375 -0.042259283 0.09497879 0.2456256 -0.028386647 0.6685322 0.08005826 -0.74595594 -0.39326006 0.074987724 0.9040678 0.69022065 0.06820469 0.14582135 0.111399174 0.20675199 0.39386734 0.7202645 0.10599036 0.01833691 0.4567464 -0.6484823 0.31292403 -0.19818836 -0.18308862 -0.29370147 -0.17061245 -0.32908386 -0.35350445 0.14446375 0.044749822 -0.40276137
33 -0.011065755 -0.45521808 -0.92502373 0.057830546 0.7947389 -0.51701945 0.17283697 -0.78714776 0.51438004 -0.7386897 -0.5685647 -0.45304462 -0.10839764 -0.014341866 0.90261 -0.68999857 -0.1466871 -0.068031 -0.31377822 -0.28125283 -0.41629475 1.2455641 0.719486 -0.4330364 -0.4848787 -0.28603643 0.16212164 -0.027220497 0.70280457 0.055968452 0.57931125 -0.6968341 0.07637685 0.13919312 0.3313511 -0.058038924 0.40712038 1.0232345 0.58187604 -0.13405542 -0.7091082 -0.30445778 1.3555888 0.23549807 0.30325806 -0.037550937 0.32019383 0.2056457 0.92954016 0.721978 -0.6971653 0.16264185 -0.07493454 0.059348706 -0.1588287 0.34315178 -0.3816577 0.38906845 0.466405 0.009505947 -0.7808203 0.70916975 -0.47947824 -0.067044854
21 -0.0035999715 -0.49312693 -0.9025259 0.29741657 0.78456515 -0.4731682 0.32174245 -0.646871 0.5001358 -0.6794786 -0.6259383 -0.3820473 -0.10131701 0.044362355 0.841657 -0.7345596 -0.17973542 0.10114293 -0.24710639 -0.22205752 -0.27308127 1.1012344 0.76836354 -0.48427618 -0.5048861 -0.37379602 0.20733988 -0.05870251 0.754006 0.019504208 0.6690021 -0.57022136 0.019295588 0.09766564 0.2517144 -0.09153168 0.31691414 0.9816255 0.26137003 0.02747662 -0.6216024 -0.32359672 1.1123635 0.18577705 0.224683 0.036498096 0.2829398 0.21264721 0.8818715 0.7631959 -0.56218016 0.16922568 0.010145297 0.09171203 -0.10348819 0.41495556 -0.4002236 0.2635922 0.2903362 -0.074922636 -0.66476464 0.64545614 -0.2006928 -0.12771392
85 -0.484226 -0.11786426 -0.020729281 -0.04192863 0.36069483 0.074035056 0.092370294 -0.44291252 -0.5579301 -0.25581604 -0.3218556 -0.35588565 -0.2990711 -0.056057088 0.40723026 -0.041988377 -0.27882954 -0.26159886 -0.16752581 0.1413136 0.1539375 -0.10232557 0.08695172 0.14328964 0.47091544 0.31605223 0.07969907 -0.28885832 0.277993 -0.18001613 -0.38918775 -0.32105637 0.22643292 -0.33372942 0.07516513 -0.49770856 0.15619448 0.059486326 0.26049912 -0.15923822 -0.30200547 -0.17965858 0.01010333 0.46745855 -0.20280781 -0.5108862 0.015365683 0.53398186 -0.4585715 -0.4512095 0.33398288 -0.23277634 0.2642313 0.021460835 -0.25159886 0.049828902 0.13861914 0.0005040536 -0.1669095 0.3393499 -0.3873122 -0.038746037 -0.1922365 -0.016071245
88 -0.4609301 -0.24393578 0.01688919 -0.13539006 0.5417513 -0.2700499 0.2634576 -0.73872864 -0.46508503 -0.277086 -0.46572 -0.06269686 -0.015370632 -0.44076464 0.9258513 0.17023137 -0.48716074 -0.39047593 -0.12134998 -0.069907136 -0.2224614 0.0032772308 0.015774151 0.2864726 0.23230253 0.37816465 -0.10780466 -0.21874458 0.3366226 0.11050273 -0.35207945 0.006624348 0.102500856 -0.13033961 -0.000863365 -0.66356534 0.08511642 0.06185515 -0.0077222944 -0.62034076 -0.26083118 -0.017334206 0.35840723 0.56361127 -0.33439642 -0.3398259 -0.030282918 0.73467016 -0.5588617 -0.7047387 0.11824444 0.029933417 -0.17010036 -0.09678124 -0.27335104 0.15025985 -0.23024781 0.111361004 0.24191177 0.47793177 -0.6014802 -0.59331864 0.045518555 0.095071666
45 -0.46084574 -0.0936653 0.15501508 -0.04510484 -0.004047333 -0.303988 -0.12660533 -0.19643262 -0.40765128 -0.35268962 -0.12327124 0.1675143 0.4289605 0.13636038 0.41537368 0.06290324 -0.24436136 -0.33471313 0.0073467535 -0.39953125 0.17183681 0.2180386 -0.20738575 0.18693464 0.312202 0.2831455 0.4677836 -0.16372764 0.38808978 -0.08760417 0.06699264 -0.05244285 0.2092519 -0.062361978 0.34702814 -0.17918184 -0.01473673 0.15585119 0.30405876 -0.5173484 0.15863656 0.5830141 0.056068316 0.22666037 -0.07421818 -0.4198798 -0.06167028 0.52641934 -0.87689644 -0.6820356 0.15354893 -0.06559546 -0.46241322 -0.16065687 -0.070493795 -0.16691081 0.039548676 0.05844895 -0.1322888 0.18324189 -0.18213901 -0.19898486 -0.21804929 -0.074806005
70 -0.19569091 -0.19709201 -0.70282 0.27051196 0.663997 -0.32699272 0.26518682 -0.50317276 0.17220488 -0.66889876 -0.5345178 -0.28805724 -0.0635838 0.083907776 0.932176 -0.719493 -0.3495427 0.29746026 -0.13897263 -0.2159051 -0.128356 0.9410387 0.6266664 -0.59900504 -0.662494 -0.44308186 0.23201083 -0.06178337 0.7267254 -0.116564006 0.7758805 -0.5209172 0.04663516 -0.0377463 0.123996064 -0.073283434 0.16242649 0.77867615 -0.021365838 0.07886226 -0.65933526 0.024462663 0.95854115 0.24256197 0.26408997 0.06904767 0.17914306 0.333125 0.7598465 0.75452214 -0.4937458 0.21755448 0.049431976 -0.0963633 -0.14684771 0.2628044 -0.24942018 0.15506336 0.13686107 -0.10554708 -0.6116531 0.4321347 0.10285329 -0.23209877
10 0.08193073 -0.5099356 0.07246827 0.5040028 0.0021703886 -0.6102785 0.115469396 -0.043761842 0.1871863 -0.1553794 -1.189685 -0.11640667 0.054430734 -0.13693793 0.08632119 -0.15002087 0.1079517 -0.7359986 -0.07109788 0.0025288316 -0.25292084 0.21746984 0.18714109 0.31579056 0.942496 -0.15580878 0.19381672 0.4730379 0.69844997 -0.20751244 -0.54253286 0.052608136 0.5844276 -0.3489102 0.5146208 -0.32052842 0.37237653 0.22523977 -0.44783083 -0.36308867 0.26422894 -1.0254115 0.07361895 0.50538 -0.44729427 -0.32688034 -0.26560056 0.1824053 -0.31962577 -0.21208976 0.40459043 -0.48996028 -0.026604215 0.58119446 0.19953766 0.9423596 -0.06556768 -0.11867119 -0.052528087 0.18214989 -0.3833755 -0.45007792 -0.29321602 0.23780261
79 -0.70565766 -0.3237273 0.58135736 -0.13813888 0.6118218 -0.29361576 0.7612989 0.520812 -0.29037926 -0.25596467 -0.3109035 -0.675918 0.16788374 0.06588287 0.81716037 -0.049864244 -1.108751 -0.527793 -0.33681566 -0.1613862 0.12853786 0.023469966 -0.30391484 0.37163445 0.114578836 0.35382694 -0.6644399 -0.18907897 1.0520276 0.7813476 0.4897536 0.2746679 -0.13523117 -0.25044236 -0.3483376 0.21174523 0.38363472 0.69252634 -0.1527212 -0.8793186 0.09221061 -0.55191565 -0.20786935 0.24144334 -0.057063732 -0.12201674 0.29190904 0.77855307 -0.512073 -0.7870393 -0.16289419 0.36445716 0.21047226 -0.014685884 -0.8058315 0.3531019 -0.4238844 0.6873387 0.3322043 0.17263512 0.065353744 0.011299345 -0.66036767 -0.46549338
18 -0.5372591 -0.3382734 0.53063154 -0.12310233 0.51481014 -0.7258468 0.68045163 0.578 -0.43938956 -0.35058382 -0.04138563 -0.78165364 0.23860048 0.44942617 0.77922493 0.035059303 -0.89125913 -0.4754642 -0.4634372 -0.33184204 0.4873495 -0.1388561 -0.23915988 0.5169703 0.100168586 0.70816827 -0.4786263 -0.24581176 1.1604736 0.6974262 0.51601475 0.19933781 -0.01590334 -0.34412855 -0.48706448 0.33210692 0.6086098 0.7523005 -0.0936051 -0.84501827 0.07799301 -0.8362397 -0.36911345 0.23232561 -0.19346085 -0.17032482 0.14291154 0.9068385 -0.44686642 -0.68479127 -0.26231742 0.1029061 0.19108541 0.23701338 -0.8254063 -0.060637087 -0.4261591 0.96935505 0.5324321 -0.2004468 0.23158292 0.19307691 -0.75978005 -0.5397832
30 -0.6847848 -0.38338315 -0.34655848 0.17221497 0.51383114 -0.14271015 0.23069257 -0.698941 -0.92765474 -0.3141476 -0.25597107 -0.29474777 -0.39272335 0.6915229 0.5078594 -0.18785878 -0.18871756 -0.23165287 -0.35797414 0.4556164 0.7186436 -0.20932037 0.2799481 0.061271723 0.2906578 0.7301946 0.38410935 -0.43704826 0.66015804 -0.10518193 -0.40592635 -0.58480734 0.5197159 -0.64349157 0.3338904 -0.32581648 0.45289648 0.28300536 0.8183794 0.12668976 -0.3189434 -0.6056839 -0.46139005 0.63471717 -0.64440423 -1.0655795 0.3311573 0.6686422 -0.6160208 -0.4220469 0.7091357 -0.72626305 0.84270024 0.2640786 -0.2040782 -0.49110875 0.20100535 0.34152398 -0.28759086 -0.09212558 -0.6595808 0.6248072 -0.7762373 -0.38004947
86 -0.55109507 -0.6109161 -0.76026404 0.7059966 0.5066172 -0.31322116 0.21470053 0.07722483 -0.17376234 -0.5649552 -0.22757436 0.29200122 0.22277544 1.2326332 0.49816906 -0.56767404 -0.31759074 0.25122726 0.0889612 0.0027063447 0.44503918 0.6179091 0.3294289 -0.27857783 -1.0237656 -0.29389444 0.57529914 0.34633625 1.2328349 0.12069066 1.0400866 0.008953002 0.22682956 -0.487228 0.16896515 0.36648986 -0.17857544 0.81707156 -0.14368594 0.24633427 0.03323312 0.054154042 0.21798503 0.25737154 -0.24800074 -0.08927578 0.27437893 0.024784049 0.051987182 0.80582744 0.30348 -0.14705244 0.34792575 0.12305278 0.2140741 -0.33334646 -0.08806702 0.14193827 -0.4223533 -0.65811795 -0.5209146 0.2716475 0.0054915943 -0.59598845
99 -0.7053885 -0.15240952 0.6713946 -0.032721817 0.59233433 -0.0129506495 0.6257511 0.4962351 -0.3815202 -0.37265855 -0.45990485 -0.5423359 0.21904352 -0.04195468 0.53799164 -0.12726428 -1.0555184 -0.31805286 -0.21500242 -0.025743239 0.067451425 0.07422003 -0.25752792 0.22443947 0.2967084 0.1861867 -0.49757478 -0.25361055 0.99072486 0.44400135 0.49076393 0.2742544 -0.21728994 -0.4781165 -0.13535699 0.07931127 0.0718757 0.57952195 -0.37527683 -0.53580725 0.15897639 0.043197792 -0.37641016 0.14494169 0.11833564 -0.13837744 0.19525939 0.6725819 -0.60730714 -0.89274067 0.0023893814 0.48995662 0.11499506 -0.074912846 -0.8365645 0.5308932 -0.20921947 0.45507586 0.000863515 0.37942556 -0.060506698 -0.15501583 -0.26482755 -0.31508133
5 -0.39498085 -0.5444412 -0.22149685 0.65108323 0.27971575 -0.8688054 -0.2750346 -0.11490564 -0.36375603 -0.52710354 -0.22147115 0.35499787 0.6609502 0.14228842 0.1379823 -0.39158517 -0.42352238 -0.39968947 0.23447193 -0.57024926 0.7214095 0.30944455 -0.30610988 0.30853325 0.75494117 0.09545297 0.8357736 -0.6135756 0.52308065 0.36579537 0.23860252 0.0032074938 0.13838997 0.16928704 0.77098984 -0.3085054 0.015452149 0.6101926 0.88827646 -0.85031945 0.4134837 0.8875413 -0.18232572 -0.13278508 0.13970707 -0.5437134 -0.33176076 0.45509818 -1.1942554 -0.79619473 0.40109947 0.2756422 -0.61238825 -0.49938822 0.055859312 -0.3815118 -0.102346875 -0.21082062 -0.17838384 0.34212166 0.49601233 0.23758195 -0.3175464 -0.026607644
4 -0.59511334 -0.38316214 -0.76336193 0.6938704 0.620299 -0.27264002 0.22057153 0.06653492 -0.07487142 -0.5932565 -0.4142403 0.23345084 0.10310883 0.5887739 0.44067428 -0.72610193 -0.545798 0.433711 0.20108765 0.14324525 0.24273238 0.74021643 0.22102205 -0.41530436 -0.8597484 -0.6083661 0.3320009 0.2676395 0.87864375 0.040870808 0.9562226 -0.17873308 0.14347222 -0.23857774 0.23853715 0.11611236 -0.2721316 0.9322647 -0.15067324 -0.18788181 -0.14366849 0.38884026 0.738315 0.35328522 -0.0068867067 0.08986741 0.08864584 -0.05550481 0.34044096 0.7202878 0.22593229 -0.023034753 0.19700469 -0.0917866 0.12427423 0.039100286 -0.10375381 -0.04219074 -0.41059247 -0.28142735 -0.49955192 0.29954803 0.27765116 -0.13744265
15 -0.55208147 -0.16759767 0.20302974 -0.22045587 0.18336992 -0.13810529 -0.021453781 -0.18786168 -0.42885348 -0.3089975 -0.26724648 -0.28172052 0.10467183 0.00038487313 0.46862143 0.14469105 -0.2960738 -0.4870911 -0.098704986 -0.22683224 -0.07726957 0.06881367 -0.10445094 0.35718766 0.3775007 0.30559966 -0.026453407 0.021250818 0.38444862 -0.07124107 -0.13486736 -0.050724678 0.22185467 -0.23298049 0.031209424 -0.28990757 -0.027568182 0.14113876 -0.092622735 -0.5850142 -0.103603594 0.09776939 0.2183663 0.46139127 -0.11332613 -0.2594451 -0.041242607 0.4231017 -0.662164 -0.55165875 0.09571813 -0.15896648 -0.28647184 0.050263938 -0.210084 0.05381587 0.048718978 0.13538104 -0.00196879 0.3319043 -0.37156218 -0.4248874 -0.104605824 0.058016893
37 -0.6369913 -0.32390466 -0.75371635 0.7857657 0.57619023 -0.28097215 0.29400265 0.066440396 -0.024736153 -0.491261 -0.37117186 0.26974425 0.017285418 0.51647896 0.54920286 -0.7799675 -0.5782186 0.5223011 0.19444644 0.2051374 0.35872632 0.67421407 0.22431715 -0.43089744 -0.8572836 -0.67615736 0.3498534 0.14108011 0.8320528 0.1023446 0.9408499 -0.15018626 0.19698493 -0.05232207 0.23830451 0.046815682 -0.19060917 0.8620535 -0.1794201 -0.19022071 -0.15376723 0.3508979 0.6409878 0.29378083 -0.03049623 0.106956765 0.10055795 -0.06362847 0.41485322 0.637669 0.24188848 -0.034875784 0.22281815 -0.11931679 0.055003375 0.09159037 -0.18994828 -0.06526725 -0.36065137 -0.27023834 -0.45883423 0.37294614 0.28765044 -0.11938976
43 -0.5968064 -0.09586594 0.2558802 -0.24828143 0.13886847 -0.120150946 -0.0058332435 -0.16539048 -0.51658225 -0.38281825 -0.32480294 -0.295979 0.1397788 -0.015367415 0.40107733 0.11702643 -0.33166704 -0.47811747 -0.08990799 -0.23007631 -0.083730735 0.06362729 -0.13484116 0.2566908 0.46710843 0.34483704 0.012501406 -0.017683093 0.38181022 -0.15552926 -0.092383996 -0.12532699 0.15828113 -0.24683738 0.06922152 -0.26754117 -0.06651089 0.21122037 -0.077032425 -0.6223392 -0.14589237 0.23357405 0.26742834 0.47213987 -0.037416488 -0.2697214 -0.036762882 0.51512104 -0.7542016 -0.6363591 0.15967259 -0.15832964 -0.30914196 0.018534854 -0.21784364 0.0803073 0.06496032 0.06464354 -0.10430282 0.3237394 -0.32693332 -0.37437463 -0.029462792 0.02883165
23 -0.5900105 -0.24497578 -0.6999054 0.64297044 0.5065847 -0.28184664 0.19364588 0.027894609 0.0054679117 -0.5262987 -0.38757628 0.19347396 -0.023147594 0.47653356 0.5786255 -0.74159503 -0.5302401 0.34909728 0.17496985 0.1423451 0.23059525 0.67364603 0.20290348 -0.44092992 -0.7895808 -0.6421544 0.2616455 0.17334245 0.8038772 0.18795909 0.9132097 -0.21341717 0.18501037 0.026609624 0.2731049 0.096437596 -0.12607755 0.8171901 -0.117268845 -0.1792405 -0.24016923 0.35088816 0.67222595 0.19552404 0.12559947 0.15298611 0.112388715 -0.050761685 0.42712995 0.6079232 0.18029846 0.08047678 0.19689023 -0.15421638 0.04035502 0.06176755 -0.24727756 -0.084557116 -0.27963272 -0.23217478 -0.42478737 0.33950248 0.24465616 -0.19907802
51 -0.19068712 -0.12223662 0.1733981 0.2640987 -0.11185283 -0.6098679 0.018791988 0.038838618 -0.012838786 -0.23328654 -0.8443882 -0.05816146 0.006550049 0.04296507 0.05313763 -0.11638728 0.04032066 -0.65686774 -0.14149567 0.16972832 -0.37885576 0.14811604 -0.039035447 0.09748984 0.8147295 0.046393376 0.022114905 0.38735148 0.59783316 0.013814995 -0.32302317 0.24264836 0.51299673 -0.19363408 0.5306245 -0.14864048 0.13159592 0.29072073 -0.3649622 -0.5113694 -0.050437454 -0.29947346 0.07308937 0.47619393 -0.047359943 -0.18811771 -0.16949663 -0.024151 -0.12772214 -0.54617465 0.4601138 -0.26038754 -0.15330513 0.40306938 -0.22872934 0.71696895 -0.1381978 -0.16050856 0.104971536 0.22120471 -0.61796343 -0.40768293 -0.18008846 0.23927793
40 -0.66295266 -0.29450393 -0.7718776 0.7213569 0.5583501 -0.30519432 0.26503205 0.00090139743 -0.08893261 -0.52670366 -0.42190784 0.18566816 0.025551733 0.42734763 0.5970526 -0.7785831 -0.590235 0.4262754 0.23228113 0.1769452 0.30048144 0.6160119 0.22852978 -0.45394635 -0.8477185 -0.6471779 0.24634211 0.1553734 0.78127354 0.17974874 0.91602755 -0.21327357 0.15614635 -0.017637558 0.22219586 0.054827105 -0.1828245 0.8831271 -0.18494052 -0.2863192 -0.24893698 0.40981713 0.7251714 0.28274244 0.061407987 0.14468959 0.114775866 -0.0016109542 0.36712486 0.64409626 0.21429126 0.03668465 0.21600737 -0.2033756 0.07635213 0.031155035 -0.23415864 -0.09713147 -0.34911886 -0.2673612 -0.39356613 0.34109825 0.3678146 -0.16308565
41 0.34324878 -0.2599168 0.34776023 0.5938718 0.29742005 -0.8315187 0.12570985 0.68104476 -0.32215905 -0.5454994 -0.3318806 0.27115363 0.36916053 0.14020486 0.399322 -0.38829103 -0.28415397 -0.03872133 0.46875414 -1.0455098 0.5693503 0.54729205 -0.2685058 0.19122787 0.48312268 -0.47843447 0.8072 -0.79991966 1.496595 -0.45640016 0.43302554 -0.0063446285 -0.24683952 0.5854997 0.29019228 -0.48555776 0.53474915 0.5237321 0.035638597 -0.06733121 0.013398121 -0.36983678 0.63212824 0.05191129 -0.027769096 0.11054731 -1.0892158 0.86336535 -0.44734317 0.10942425 -0.18350169 -0.17050451 -0.57593334 -0.21021995 0.25432092 -0.23133507 0.008969774 0.119057134 -0.15468065 -0.09072395 1.1989176 0.07537684 0.014848474 -0.35265747
74 -0.08514861 0.6346719 -0.009424722 0.20147918 -0.0037933888 -0.94043183 -0.32018155 0.6739845 -0.086359754 -0.6598654 -0.24091741 0.0078493105 -0.51410496 0.30647135 -0.21928468 -0.40053475 -0.43488327 0.123621434 -0.24081391 0.22838357 0.42409873 -0.073602 -0.31966302 0.06591322 0.6308661 -0.19665858 0.44172215 0.14424276 0.3151672 -0.16097291 -0.08242202 -0.13183549 0.79989505 -0.5221368 -0.04354621 -0.42759064 0.8186922 0.22501759 0.100188784 -0.32216287 0.03753191 -0.5454334 -0.06286367 0.24186094 0.17905514 -0.29218572 -0.95013934 0.20419106 1.0740744 -0.37189153 0.38986304 0.10970958 0.4050911 0.18093775 -0.7649027 0.41553807 0.028489267 -0.12173786 0.19391428 0.05436103 -0.14141068 -0.025237828 -0.4105657 0.24182124
94 0.1024529 -0.24645461 0.22723998 0.25770122 0.12807126 -0.73483443 -0.04727647 0.13431549 -0.14244866 -0.22199972 -0.32049206 0.790006 0.30093944 0.06902096 0.5990229 -0.32489863 -0.2669962 -0.08931689 0.3589386 -0.8168329 0.4715481 0.7865319 -0.35390204 0.17742865 0.23972869 -0.56297404 1.0421836 -0.5927809 1.0329472 -0.52365094 0.11255218 -0.17142425 0.23054148 0.8153895 0.6022819 -0.5752575 0.573683 0.057593465 0.4122668 -0.073533624 0.21385768 -0.2424489 0.59082365 0.2334497 -0.27508786 -0.09705808 -0.9128906 0.7169878 -0.4636739 -0.14046384 -0.027277354 -0.5399173 -0.6204756 -0.25298735 0.51896954 -0.31535697 0.11635122 0.03585337 -0.014558257 0.10406025 0.48967564 -0.014476474 -0.3557942 -0.079022534
6 -0.6179438 -0.35736 -0.7767394 0.7098908 0.64670473 -0.2752412 0.26075834 -0.005885645 -0.1059906 -0.5643524 -0.4306431 0.19870912 0.07187349 0.46747175 0.4730807 -0.73241365 -0.5989001 0.45642433 0.19709371 0.20524983 0.28113705 0.6074371 0.23429647 -0.41456947 -0.8129541 -0.5773396 0.27800354 0.169622 0.77574277 0.13127692 0.91920507 -0.19776225 0.09942337 -0.19081292 0.17986295 0.047918808 -0.24428912 0.8866148 -0.16717029 -0.22495638 -0.17554535 0.4021369 0.65850055 0.2889199 0.015755616 0.10672976 0.09617379 -0.0064718737 0.3184894 0.62963164 0.25249916 0.0535401 0.24508648 -0.14643183 0.08596362 0.038445648 -0.16170247 -0.09634836 -0.36809647 -0.23949355 -0.41301143 0.29502288 0.36197716 -0.13488048
2 -0.74690944 -0.17451487 0.6629714 0.07137033 0.5668186 0.04440974 0.69087476 0.532271 -0.3319422 -0.24900033 -0.42286634 -0.59450406 0.1261645 -0.12880974 0.59015995 -0.18845777 -1.0925353 -0.2844333 -0.2060468 0.010831801 0.107747555 0.03439334 -0.26273417 0.20612971 0.34837168 0.106197216 -0.49623317 -0.35525405 0.98019356 0.47917432 0.44822228 0.3012942 -0.21382111 -0.34213743 -0.16069701 0.032010343 0.118789606 0.5462003 -0.3178323 -0.5503355 0.11306148 -0.07731285 -0.3804311 0.14144804 0.0883349 -0.1484268 0.20030671 0.6581338 -0.569249 -0.89239305 -0.0051103863 0.4956312 0.17350672 -0.12355455 -0.8570832 0.61276346 -0.22747813 0.3808693 0.02125852 0.46156055 0.013406902 -0.099551685 -0.29262593 -0.2996796
38 -0.60822207 -0.10194522 0.22595419 -0.3034179 0.22949035 -0.034759197 -0.048677556 -0.11118191 -0.48679835 -0.4091014 -0.2754622 -0.2715783 0.093385585 -0.015879806 0.4830354 0.1784688 -0.3704457 -0.5048927 -0.08592703 -0.2782834 -0.14843112 0.112789765 -0.12759513 0.3783116 0.36178678 0.32274637 -0.010854203 -0.0043159574 0.48088184 -0.103679396 -0.09379177 -0.034817684 0.16864622 -0.30452222 0.021996533 -0.3580989 -0.054440167 0.15883856 -0.13798933 -0.570056 -0.0941214 0.21449268 0.28555933 0.44807133 -0.06162157 -0.26422018 -0.055028696 0.49772805 -0.7061919 -0.62907344 0.09468484 -0.06287047 -0.284658 0.013444251 -0.2777261 0.07118825 0.0595218 0.14926967 -0.06875407 0.39115196 -0.38320103 -0.5399989 -0.081526324 0.0038299703
84 0.004971486 -0.18974859 0.103035115 0.33448482 -0.06767492 -0.76892114 0.030835936 0.0500973 0.054537714 -0.32820597 -0.9486413 -0.10820764 0.043878805 -0.01780699 -0.08262134 -0.15854241 0.065664545 -0.6530814 -0.1410745 0.08261601 -0.36375603 0.1245026 0.043072548 0.0977587 0.9295941 0.06286003 0.05576264 0.366539 0.5592929 -0.024819052 -0.34816 0.21266964 0.4443783 -0.29590538 0.49021196 -0.19026928 0.205561 0.35408717 -0.36545232 -0.5036253 -0.02672785 -0.44067428 0.08690181 0.44399557 -0.055068463 -0.18852052 -0.27871785 0.04876261 -0.06189919 -0.46502873 0.40696308 -0.1908399 -0.15175329 0.43987426 -0.17557019 0.7652935 -0.14076717 -0.18433537 0.12963553 0.18067959 -0.46805573 -0.379072 -0.13517246 0.24540102
20 -0.18771514 -0.18650986 0.17874885 0.3044997 -0.1093029 -0.732871 0.056100093 0.1133557 0.05578754 -0.28713194 -0.88177735 -0.080487385 0.011417122 0.043624345 -0.022141853 -0.11349497 0.00968689 -0.7372057 -0.115258746 0.17921932 -0.39295602 0.12489432 -0.062286172 0.12984765 0.86566466 0.045649935 -0.09015017 0.41879162 0.654868 0.15113783 -0.27320668 0.2404142 0.43076348 -0.10122189 0.5058399 -0.07862582 0.15355486 0.43762028 -0.38352287 -0.6370621 -0.02310263 -0.37735143 0.1940311 0.38304648 -0.021738842 -0.06591182 -0.19853237 -0.057192687 -0.14552 -0.5664357 0.51831746 -0.22966944 -0.18967985 0.4773751 -0.21804819 0.76029164 -0.2609504 -0.1530158 0.13613749 0.17834154 -0.4891145 -0.3825997 -0.13421087 0.23605415
24 -0.2641643 -0.24294764 0.16541317 0.06096264 0.12960668 -0.5910519 -0.20367552 -0.16473398 -0.37137303 -0.351658 -0.14485921 0.5876556 0.6192874 0.20068958 0.4893202 -0.07969896 -0.35369593 -0.37250414 0.14620784 -0.5843227 0.44323355 0.5017881 -0.38868502 0.2695022 0.25889897 0.092314675 0.7633209 -0.34811488 0.5987763 0.08774708 0.14725886 -0.07920198 0.2723225 0.15857773 0.6722848 -0.20296037 0.20356081 0.19432572 0.6621575 -0.49779212 0.4856124 0.5873093 -0.07300954 0.03364267 -0.07409771 -0.48527235 -0.26217464 0.6531006 -1.0496984 -0.71446 0.16461274 -0.016131826 -0.5529425 -0.32738155 0.12841111 -0.43263993 -0.024670824 0.17229253 -0.06482255 0.14492463 0.09308846 -0.040861957 -0.54603785 -0.15145871
11 -0.8560008 -0.2641341 0.09039494 -0.4367459 0.6865228 0.3952552 -0.07266201 -0.086950086 -0.42999694 -0.6801672 -0.49416092 0.042432975 -0.091883324 0.044352807 0.3024122 0.3475123 -0.72285324 -0.69494045 -0.08677184 -0.019739678 -0.23318022 0.37684146 -0.10959911 0.78847337 0.2493631 0.012481605 0.064547464 0.095039956 0.73712015 -0.011245139 -0.16871473 -0.030923393 0.06572707 -0.27345222 0.102999784 -0.8707451 0.016252378 0.15751104 -0.21838845 -0.38462064 0.3162643 0.22891395 0.20948392 0.17596945 0.09474598 -0.2649724 -0.23125947 0.44703534 -0.7737923 -1.0706447 0.3850113 0.22157234 -0.025704851 0.0044771354 -0.32317287 0.018894795 -0.0098283505 0.22525764 -0.26100048 0.7242544 -0.71491575 -0.88462466 -0.13045076 0.12627323
14 -0.70529145 -0.09112326 0.78502816 0.035797082 0.43279767 0.0112144975 0.72685355 0.50188684 -0.37834126 -0.19204496 -0.3990041 -0.56582844 0.21682967 -0.14911605 0.68640596 -0.1995316 -1.0571142 -0.22301908 -0.20632087 -0.1033076 0.119123414 0.021376152 -0.27702954 0.097111695 0.3735528 0.18400748 -0.36802727 -0.39116615 0.94402444 0.32319623 0.45674106 0.2784258 -0.16045748 -0.40023863 -0.15821066 0.09021016 0.120784245 0.45845622 -0.2903372 -0.517723 0.118015006 -0.06947373 -0.38318315 0.23338184 -0.02098751 -0.2148771 0.22558194 0.802344 -0.65616345 -0.88243717 -0.06963159 0.39902988 0.09432942 -0.13504244 -0.8200162 0.66014177 -0.14471512 0.35605013 -0.011729692 0.40286705 0.044766326 -0.07185899 -0.3434836 -0.37984434
22 -0.24530856 -0.15445937 0.17065309 0.24994582 -0.14851822 -0.6199895 0.10155859 0.040098708 0.01772416 -0.3581925 -0.90993965 -0.070087284 0.05843551 0.15195768 0.0018187338 -0.06804386 0.068255626 -0.679245 -0.1709629 0.15425213 -0.42680687 0.20445752 0.03558204 0.0824705 0.84967476 0.11752546 0.06932081 0.41131064 0.6840261 -0.07893985 -0.24349569 0.1867373 0.43674693 -0.18664071 0.5485983 -0.13861592 0.1153491 0.38776436 -0.41767865 -0.49323514 -0.0540289 -0.27401173 0.1581768 0.47719377 -0.07263787 -0.17493129 -0.13216726 0.025103273 -0.17552258 -0.6605922 0.49180052 -0.33371753 -0.20417416 0.51986915 -0.22986567 0.7661133 -0.13986151 -0.12465453 0.03606215 0.1731987 -0.7134783 -0.38344988 -0.12525089 0.21513578
69 -0.5102135 -0.08287164 0.33425242 -0.32065478 0.19982979 -0.02208243 -0.015271708 -0.16173537 -0.46212086 -0.34421456 -0.3758845 -0.18108478 0.12938674 -0.024430536 0.47133422 0.10298943 -0.32861537 -0.500116 -0.07118451 -0.21972466 -0.19904691 0.21061864 -0.119916 0.24975808 0.38595706 0.23106135 0.0050647873 -0.013569167 0.52493995 -0.15086213 -0.140143 -0.049898922 0.18780002 -0.31133166 0.15203285 -0.27274728 -0.022402428 0.11109766 -0.105809085 -0.4281344 -0.06609681 0.13678478 0.19557907 0.44991106 -0.03334208 -0.30586508 -0.047079775 0.48536512 -0.6726874 -0.58573717 0.10032966 -0.093010165 -0.2553783 0.026788123 -0.24704784 0.105477296 0.11519797 0.15892804 -0.045095537 0.38564816 -0.44715846 -0.47414055 -0.18983155 -0.015671337
55 -0.16859694 -0.23481376 0.1501081 0.17978439 -0.06318823 -0.6055966 0.11532068 0.13441308 0.0333933 -0.2739464 -0.89708275 -0.060184237 -0.020643719 0.124813095 -0.07117233 -0.07747962 -0.03147132 -0.6554217 -0.15767035 0.11785489 -0.38472602 0.15392199 -0.02326822 0.13728057 0.7414913 0.052071042 -0.02156452 0.45069787 0.6271707 -0.04619884 -0.27563208 0.21098813 0.4105642 -0.24036235 0.43612546 -0.1616804 0.14633332 0.323018 -0.44419804 -0.48231304 0.011763594 -0.47369716 0.13845958 0.5166409 -0.14860545 -0.116231866 -0.21389861 0.018713573 -0.15284011 -0.51454717 0.44421795 -0.35221353 -0.114747405 0.43797404 -0.096007265 0.681685 -0.1058323 -0.14958908 0.045690328 0.16768079 -0.5638578 -0.4383859 -0.14243847 0.1909684
98 -0.7624216 -0.22926289 -0.7141683 0.7298489 0.45042118 -0.35539994 0.26097974 0.072562024 -0.088920936 -0.505225 -0.28338975 0.25964227 0.07552796 0.58111626 0.62476534 -0.72385573 -0.5948538 0.5402432 0.18655385 0.19171037 0.37319276 0.6009448 0.17840268 -0.4418044 -0.9344782 -0.57949305 0.37922227 0.236516 0.7929135 0.06573369 0.9951233 -0.15367341 0.2817133 -0.11181476 0.1460879 0.13273233 -0.21089582 0.8487083 -0.19992526 -0.31039533 -0.16690099 0.41907704 0.71927357 0.37900096 -0.08972775 0.11608321 0.10913467 -0.010184454 0.40705425 0.60897666 0.25623664 -0.09616166 0.1734355 -0.11379964 0.009193135 0.052491583 -0.20247257 -0.055234853 -0.331528 -0.35261518 -0.5377303 0.30528653 0.33424488 -0.12549953
78 -0.06522495 -0.12465789 0.22766916 0.3061355 -0.12543933 -0.7512803 0.09054403 0.031688586 0.07373886 -0.28708792 -0.94765353 -0.08014722 0.09314344 -0.03833333 0.027220499 -0.1430421 0.04052524 -0.6485169 -0.18036565 0.08768899 -0.4113527 0.19154947 0.014455366 0.030013915 0.895145 0.0953604 0.021173302 0.28515127 0.61449355 -0.031769786 -0.25578323 0.23320791 0.42892638 -0.15605372 0.5998411 -0.11351724 0.17335309 0.3521047 -0.3356789 -0.4946812 -0.08430405 -0.28432837 0.0936446 0.46239948 -0.06473501 -0.16921735 -0.18188871 0.043900657 -0.11141299 -0.6118664 0.3743475 -0.23524088 -0.268131 0.40747142 -0.24637058 0.7856542 -0.19141822 -0.12948287 0.18438764 0.21844773 -0.5593861 -0.32991043 -0.14847322 0.22336747
44 -0.7641039 -0.28115815 -0.6844099 0.69512886 0.5346309 -0.217847 0.3323244 0.048691247 -0.13359681 -0.46600217 -0.33148855 0.22527412 0.021327589 0.5505207 0.60215527 -0.7242126 -0.614122 0.53061116 0.17687643 0.25394452 0.33211637 0.599701 0.19829586 -0.44076988 -0.91586494 -0.6035595 0.30536106 0.15103164 0.82928014 0.04184669 0.935722 -0.1768947 0.18629923 -0.09784675 0.140897 0.08292208 -0.23746799 0.8146864 -0.22204332 -0.20812814 -0.22453451 0.3591679 0.66990453 0.3741655 -0.069851495 0.112215735 0.12609722 -0.015336574 0.3767971 0.6048079 0.2557906 -0.10922129 0.25049168 -0.1234648 0.011183235 0.032717142 -0.13425012 -0.04886378 -0.34287608 -0.26719978 -0.5348885 0.31973234 0.3321864 -0.13662486
53 -0.7099406 -0.054774024 -0.6279086 0.28293425 0.19833495 -0.06943321 -0.17923497 0.54606694 -0.057498764 -0.26286578 0.38537624 -0.6891858 -0.8873966 0.46773756 0.0895815 -0.5886501 -0.5615329 0.1934622 -0.13017225 -0.29549235 0.32619765 -0.08183814 -0.20115289 -0.04054135 0.70718396 0.09368146 0.37969553 -0.23729013 0.29044965 -0.22976305 -0.16190325 0.03461509 0.65453786 -0.58721775 -0.3026419 -0.6414064 0.24006337 0.28169218 0.9276543 -0.7098473 -0.45509875 -0.4566265 0.3730454 0.8481566 -0.14234121 -0.85352045 -0.23692699 -0.031104581 0.43948263 -0.10893149 0.04839174 0.003890882 0.47478586 -0.28252885 -0.5305338 0.47736412 0.63951284 -0.5429376 -0.27870777 0.69413394 -0.09416472 0.15810058 -0.85901123 0.07111251
71 0.23144269 -0.10662026 0.45742097 0.5401932 0.20132825 -0.7599844 0.22292888 0.7628316 -0.36061755 -0.41557977 -0.2270341 0.24517944 0.27365097 0.10829845 0.52114075 -0.40624845 -0.41570577 0.13612726 0.44240847 -1.0616847 0.6551816 0.47270256 -0.36618987 0.09362764 0.40685642 -0.5184923 0.81078005 -0.8239683 1.4088506 -0.5869525 0.44791242 0.02686715 -0.18329675 0.5659879 0.13891704 -0.4988144 0.5322783 0.39121243 -0.056479394 -0.11254313 -0.06633579 -0.40696114 0.6291973 0.23938833 -0.10875224 0.10646128 -1.0993572 0.97584945 -0.36489832 0.12982273 -0.24016245 -0.24978466 -0.54413 -0.28835085 0.18386085 -0.12648605 0.0845271 0.064487636 -0.14984873 -0.06812748 1.1481854 0.046043094 0.050616305 -0.34282556
29 -0.6970627 -0.35895327 -0.7884505 0.7788171 0.52469295 -0.32457075 0.20308669 0.061916303 -0.13264121 -0.53045577 -0.38476974 0.10801287 0.0028719387 0.6020296 0.48477867 -0.78231066 -0.5275485 0.41577175 0.19138806 0.14992715 0.33922195 0.59051144 0.25032088 -0.40717766 -0.79211384 -0.603204 0.30907756 0.16937335 0.8302768 0.086602055 0.91834545 -0.1422988 0.18990405 -0.15193082 0.18305299 0.07811645 -0.27497128 0.87599057 -0.22973897 -0.21714857 -0.2994417 0.35216135 0.66859967 0.360597 0.03811761 0.13724653 0.061579704 -0.10124033 0.37505126 0.7213644 0.26443875 -0.03809963 0.19403788 -0.12755568 0.05826882 -0.025141187 -0.13507254 -0.14168763 -0.34608132 -0.27254868 -0.42275134 0.31029424 0.3999711 -0.13922046
97 -0.013753734 -0.2612966 0.29271954 0.28335232 0.10796366 -0.75330365 0.01871463 0.12975049 -0.18327558 -0.16715053 -0.3425141 0.62469923 0.28808996 -0.0015064366 0.6817857 -0.35849744 -0.32311657 -0.10954618 0.30011597 -0.87183034 0.5606693 0.7294909 -0.32302147 0.19986904 0.32964426 -0.55235654 1.0401235 -0.6994119 1.0125402 -0.5787073 0.10542408 -0.20206204 0.25724554 0.86855495 0.54251105 -0.628765 0.5930477 0.038392268 0.3361332 -0.1304608 0.13020708 -0.29630673 0.5505729 0.28591123 -0.27115217 -0.09363755 -0.91386735 0.8018865 -0.5191178 -0.20245148 -0.08113581 -0.5995083 -0.6655478 -0.27474865 0.451845 -0.2785654 0.11268227 0.023513142 0.026607094 0.17725633 0.5269408 0.026454799 -0.31895304 -0.056361377
65 -0.63672614 -0.32287148 -0.7276868 0.71380895 0.5430872 -0.38835302 0.29550874 0.029918218 -0.12099729 -0.53904516 -0.45217583 0.12797816 0.06700528 0.5045395 0.48733908 -0.781433 -0.57500374 0.4440638 0.17135023 0.19757116 0.32023805 0.59302145 0.23445345 -0.45742455 -0.80998677 -0.575679 0.25174513 0.16591989 0.7624534 0.09173933 0.9282063 -0.23123172 0.14214699 -0.13736498 0.1743617 0.12394322 -0.20255275 0.90648663 -0.2092728 -0.26508832 -0.26051417 0.31679636 0.7002925 0.35455868 0.02236476 0.1518319 0.07835676 0.0030443245 0.39303645 0.67299515 0.22288857 -0.062319987 0.21349162 -0.12189127 0.068210125 0.021032464 -0.17277275 -0.08486522 -0.30284292 -0.3169879 -0.39485413 0.38924295 0.3831965 -0.12710069
17 -0.29467314 -0.18461663 0.21150355 0.020747742 0.041305177 -0.45624763 -0.09311607 -0.15228029 -0.35514396 -0.26626673 -0.107841074 0.59702295 0.6272967 0.22332112 0.5805091 -0.067184396 -0.34127784 -0.2505006 0.13158046 -0.63947195 0.3310522 0.53884184 -0.3347811 0.12068436 0.13681698 0.08992637 0.8132269 -0.38667777 0.6482364 -0.11009368 0.18291171 0.01404661 0.22504088 0.1611517 0.61543137 -0.1905037 0.13595325 0.102306604 0.59447336 -0.38774702 0.36518517 0.61985517 -0.022922046 0.19119772 -0.14250506 -0.51236296 -0.20765659 0.6846253 -0.9564515 -0.68836814 0.039990414 -0.07676743 -0.5857871 -0.37894186 0.11215283 -0.38878754 0.09296175 0.1585782 -0.06863872 0.14255439 -0.047319014 -0.08736801 -0.5181381 -0.202277
61 -0.61666214 -0.3309243 -0.70423293 0.72242975 0.55791193 -0.31122673 0.35166463 -0.019876871 -0.072951585 -0.45963877 -0.394505 0.21955079 0.082103245 0.4409774 0.61720216 -0.7487931 -0.5774174 0.512634 0.18201382 0.16497591 0.34676743 0.61263233 0.25009 -0.44458926 -0.8888325 -0.59872544 0.3375063 0.12200211 0.773383 0.068043046 0.905075 -0.18264624 0.15861954 -0.11526543 0.14645271 0.06723315 -0.17523724 0.81111854 -0.20937738 -0.18020886 -0.1894597 0.2841873 0.64175653 0.33419588 -0.087456994 0.093672715 0.11730928 0.07582709 0.38246125 0.6672633 0.16460341 -0.058105007 0.23165575 -0.14881577 0.07906075 0.06421712 -0.18590789 -0.04179766 -0.3083664 -0.30888292 -0.43498734 0.3454502 0.32141018 -0.14992525
75 -0.6746246 -0.08804717 -0.5808991 0.2694957 0.26025835 -0.04494915 -0.16356309 0.51863456 -0.06694161 -0.28439385 0.34827197 -0.7523756 -0.8902602 0.4364236 0.005455622 -0.5373859 -0.55339384 0.19252902 -0.17555797 -0.25825348 0.36861336 -0.07803096 -0.16862734 0.011818118 0.73075944 0.08490295 0.33328423 -0.19413997 0.24720739 -0.27950034 -0.17707196 -0.0164497 0.61036044 -0.6189995 -0.32827443 -0.6446578 0.20934835 0.27889603 0.80999994 -0.6644586 -0.42766464 -0.5038321 0.32386577 0.8292818 -0.1527094 -0.79594153 -0.2518388 -0.029234959 0.40957838 -0.09173222 0.057815954 -0.041063607 0.459567 -0.21986772 -0.516736 0.49019888 0.6290928 -0.49309522 -0.28714883 0.71098745 -0.11123002 0.15204267 -0.77293116 0.13157238
42 0.039933853 -0.5003358 0.20688006 -0.02109347 0.4172014 -1.1485312 -0.10726508 0.009789713 0.05761178 -0.4531915 -1.093909 -0.33183017 0.3636421 0.22169593 -0.01481607 -0.2752373 -0.17804949 -0.69783705 -0.59829664 -0.28740108 -0.12985185 0.65039426 0.15532915 0.40861568 0.49844387 0.025612993 -0.048999503 0.3980396 0.528268 -0.07142433 0.0070212735 0.30746046 0.54136616 -0.80220836 0.3973451 -0.077190585 0.092929006 0.31766453 -0.9046092 -0.33199462 0.063806765 -0.31832564 -0.5715564 0.6034949 0.17559673 -0.04360759 -0.520913 0.007352697 0.10723704 -0.3277932 -0.16057421 -0.15229313 -0.57306165 0.46918884 -0.38824216 0.2023383 0.010971014 0.36962804 0.80075943 0.33837798 -0.8687529 -0.5117316 -0.12014673 0.5388005
16 -0.47011 -0.50857747 -0.17352 0.81096727 0.20335798 -0.8195972 -0.17901438 0.042336747 -0.3291025 -0.3892689 -0.14079303 0.31125394 0.6309992 0.08578803 0.1420639 -0.48003358 -0.47899887 -0.22604094 0.2649853 -0.58859354 0.80425847 0.21173905 -0.3354018 0.22827488 0.7822618 0.018284215 0.87690747 -0.7379267 0.49424264 0.26700038 0.3002956 0.09200997 0.10624959 0.22062208 0.65135354 -0.3274531 -0.05298952 0.5504155 0.8188381 -0.82813036 0.36064497 0.8928341 -0.20297164 -0.07941463 0.08581586 -0.5175867 -0.3545291 0.44104862 -1.1126411 -0.76911503 0.37481436 0.25409195 -0.6267246 -0.5600112 0.010188377 -0.2453664 -0.01931461 -0.34411275 -0.21692476 0.392934 0.62566227 0.2809543 -0.2149788 -0.005255614
46 -0.12563412 -0.12849802 0.1810278 0.3168121 -0.20723394 -0.58897257 0.06530151 0.1256675 0.09779677 -0.23227507 -0.80058324 -0.028207557 0.089159645 0.05858502 0.042459108 -0.13212296 0.07040859 -0.5719043 -0.10190755 0.085519195 -0.39996162 0.18810576 0.0034705668 0.010603471 0.80644286 0.029493855 0.12739646 0.40737095 0.6540494 -0.050223846 -0.21792097 0.2420221 0.46819827 -0.211912 0.48354113 -0.065754086 0.16074929 0.3409605 -0.33384052 -0.48769075 0.045940526 -0.33829382 0.1560318 0.41630593 -0.106934436 -0.20754294 -0.12562436 0.029683262 -0.112244695 -0.49979764 0.3959981 -0.22290437 -0.1587104 0.42421684 -0.18266916 0.86497456 -0.11403147 -0.18003353 0.024111908 0.13372695 -0.54429334 -0.37839943 -0.2339725 0.16736318
59 -0.11268642 0.6872795 0.046000767 0.14800724 -0.062685 -1.0385882 -0.3162455 0.81090784 -0.06922245 -0.75574607 -0.23341437 0.07502678 -0.4777553 0.51183736 -0.26887727 -0.3728042 -0.48518306 0.17315817 -0.32609153 0.13752536 0.49816808 -0.0068263314 -0.37134025 0.056673102 0.6075693 -0.1458095 0.574918 0.23236518 0.37884933 -0.31979683 0.028968832 -0.101701476 0.87793255 -0.64564043 -0.063566424 -0.40078294 0.8318489 0.20603189 0.0097888205 -0.3209628 0.11241685 -0.5157779 -0.16564013 0.35186908 0.11218254 -0.31026167 -1.0341821 0.25129473 1.0557443 -0.45905268 0.39277747 -3.2783395e-05 0.3452597 0.22960828 -0.7864244 0.41891322 0.08549248 -0.08863324 0.1744922 0.017311633 -0.25544074 -0.08704362 -0.42743084 0.23428565
60 -0.4196304 -0.5700859 -0.2914754 0.62330216 0.22297579 -0.8442653 -0.17849144 -0.11855108 -0.2879467 -0.47567126 -0.14973168 0.288958 0.6493214 0.17928527 0.056090094 -0.34228683 -0.42771885 -0.28832805 0.15720111 -0.56319004 0.773261 0.16110775 -0.24481817 0.28953755 0.75331074 0.23512731 0.8873009 -0.57344514 0.32447866 0.27058187 0.2440954 -0.02152647 0.13597614 0.048200596 0.54158586 -0.3152728 0.024647344 0.54471296 0.89224833 -0.8496709 0.47957528 0.7480075 -0.23550053 -0.087255254 -0.0054142647 -0.58664393 -0.2612384 0.5098575 -1.162783 -0.83454746 0.38432986 0.2026102 -0.5292184 -0.44472817 0.0736546 -0.28516775 -0.051184636 -0.28465906 -0.2109084 0.28051746 0.48884994 0.26314178 -0.29075316 -0.03648253
73 0.075567365 -0.2378965 0.31003293 0.27124548 0.08247656 -0.7637035 0.067259625 0.20169319 -0.111752406 -0.20703903 -0.31840003 0.74914217 0.36157566 0.07097029 0.68964934 -0.33408788 -0.33244652 -0.012431217 0.33184463 -0.956787 0.5415641 0.7989318 -0.34704685 0.12649928 0.2730228 -0.5436822 1.1518784 -0.64037025 1.0960283 -0.68338156 0.18566497 -0.16379936 0.24048235 0.8111449 0.5024712 -0.5965535 0.61907184 0.05259356 0.34126452 -0.12262415 0.21948838 -0.3401863 0.62865275 0.33297712 -0.36373785 -0.10123599 -0.94349194 0.872951 -0.50018907 -0.17986107 -0.12791473 -0.63419116 -0.6701521 -0.2426692 0.5130062 -0.1912471 0.14156689 0.033651344 -0.025875475 0.0946179 0.50859493 -0.018371794 -0.3570519 -0.10374479
72 -0.5272759 -0.3077803 -0.29970092 0.2099457 0.38192502 -0.113576725 0.1756947 -0.48071474 -0.5707341 -0.14701061 -0.19281219 -0.3862243 -0.5257532 0.35420385 0.36379 -0.3517957 -0.22741741 -0.2670969 -0.2590027 0.28862336 0.480674 -0.19223988 0.108477 0.017130474 0.63286024 0.4676507 0.32093668 -0.3994355 0.3966145 -0.10979466 -0.5866306 -0.3769636 0.49237147 -0.41147664 0.23139529 -0.45180824 0.37988743 0.14017193 0.8600688 -0.04556184 -0.3514857 -0.63166916 -0.31588998 0.63286155 -0.40074396 -0.9857116 0.14939773 0.5036926 -0.31484345 -0.43012425 0.5040033 -0.4779495 0.6889753 0.12401962 -0.22177397 -0.07511543 0.31892237 -0.03274299 -0.22807066 0.20327896 -0.4894901 0.46811274 -0.8039387 -0.16139
81 -0.068491615 0.6695992 -0.0052725268 0.14977723 -0.09012464 -0.8968342 -0.31492355 0.771344 -0.040571015 -0.73630154 -0.20369956 0.12138054 -0.47188187 0.4047766 -0.2704676 -0.31109428 -0.43917254 0.17580844 -0.22564477 0.10794248 0.41062495 -0.05055793 -0.35645384 0.06035807 0.6280313 -0.13027422 0.5990453 0.23741886 0.33233643 -0.34376326 -0.022338498 -0.11663794 0.80811334 -0.6047536 -0.07594195 -0.4743837 0.8020904 0.17225063 0.07236824 -0.3247129 0.16484751 -0.5005836 -0.035812348 0.29116586 0.049651675 -0.33116657 -0.972062 0.28000915 0.9495459 -0.45202056 0.40889865 0.033805326 0.36521414 0.19267721 -0.674085 0.48883602 0.08839009 -0.17588478 0.031502638 0.021261727 -0.17185208 -0.15924345 -0.40394723 0.18989293
77 0.06199039 -0.20378295 0.2715484 0.2713931 0.036687825 -0.7934938 -0.053781435 0.16983329 -0.19143896 -0.25568175 -0.3090257 0.6561979 0.33598194 0.12091141 0.61212265 -0.27024016 -0.18515018 -0.108059265 0.3274419 -0.8957401 0.4270758 0.6973892 -0.28490764 0.17408971 0.29627374 -0.44187742 1.0338377 -0.5597117 1.0488677 -0.64528006 0.12309035 -0.1075713 0.24752206 0.71498966 0.47825065 -0.55817217 0.51089597 0.06695819 0.23959738 -0.12195751 0.082810074 -0.22855468 0.64659244 0.35143274 -0.29711628 -0.06759367 -0.9507024 0.7099257 -0.4424452 -0.13230656 -0.0767291 -0.60531616 -0.7207348 -0.17683952 0.4360226 -0.2831688 0.15267247 0.022521442 0.035708066 0.07393759 0.43962494 -0.11590338 -0.23576522 -0.04793524
31 -0.10707862 -0.15943904 0.11894309 0.28748572 -0.10914925 -0.71759254 0.1584258 0.09140767 0.13255304 -0.32391202 -0.9062596 0.016172465 0.056656823 0.06737986 -0.051391497 -0.1098919 -0.008139234 -0.56324863 -0.16897756 0.13300261 -0.4026653 0.13013709 0.014728632 0.03085144 0.81671464 0.09535044 0.06702381 0.45222992 0.5569821 -0.025578957 -0.22245006 0.26117975 0.42132476 -0.2659156 0.43637666 -0.16758917 0.16613935 0.36563036 -0.42312738 -0.5416118 0.0758763 -0.3838111 0.11797639 0.45702645 -0.12936561 -0.14393958 -0.18580575 0.05988596 -0.06563446 -0.6077899 0.44842786 -0.23416606 -0.14533389 0.47961238 -0.20391709 0.88048327 -0.18877366 -0.21527897 0.06173703 0.13940276 -0.6192733 -0.43237868 -0.10589933 0.21044585
90 -0.9727911 -0.08996432 -0.70641 0.80958176 0.27214074 -0.24730983 0.089214556 0.03933438 -0.08514491 -0.38933063 -0.53697044 0.31109697 -0.39290375 0.5452852 0.6926477 -0.87239754 -0.5414156 0.17212607 0.25391582 0.39090535 0.42932427 0.57738143 0.111893736 -0.411847 -0.65828353 -1.0202149 0.22514115 0.12704387 0.8572101 0.4103055 0.7458066 -0.22378913 0.50056094 0.57980144 0.565983 -0.11377374 0.0060088616 0.634586 -0.3320835 -0.17479296 -0.37341443 0.3741505 0.48000708 0.04964533 0.3477295 0.27178413 -0.00060509023 -0.25969723 0.4170597 0.4114589 0.587406 -0.020574667 0.32935512 -0.24933974 0.029116053 -0.055206254 -0.43424037 -0.36689216 -0.368884 -0.11867072 -0.47733045 0.277268 0.38671082 -0.1522577
66 -0.32739034 0.42171392 -0.063459 0.30314976 0.10054537 -0.51742035 -0.42631125 0.8010818 -0.04746111 -0.2865165 0.09205744 -0.44376868 -0.90427995 0.3052294 0.026996654 -0.53477407 -0.4154618 -0.08989564 -0.15945224 0.12801948 0.290974 -0.010664558 -0.43853807 0.13683398 0.7501601 -0.27165377 0.091615595 -0.09118972 0.5883953 0.09873278 -0.1530434 0.012959943 0.8082979 -0.23283614 0.10741527 -0.2832061 0.5999584 0.29893282 0.5922775 -0.4671348 -0.462417 -0.6557733 0.21769702 0.48548856 0.18224546 -0.36572742 -0.6645704 -0.30804628 1.000196 -0.07023806 0.2766836 0.08852589 0.43421355 -0.05545118 -0.79075295 0.41928887 0.16518335 -0.16441406 0.24385238 0.53110254 -0.0072835595 0.22032675 -0.87176037 0.23379356
25 -0.07468952 0.6443369 -0.08704653 0.10868974 0.004464944 -0.85937184 -0.3283295 0.7277999 -0.1057119 -0.7780853 -0.17928404 0.032781415 -0.5928961 0.4494428 -0.26019335 -0.32363743 -0.44406292 0.10157072 -0.21582392 0.17498854 0.39278182 -0.083904915 -0.33679506 0.07191974 0.59294814 -0.10217393 0.5123371 0.24671754 0.37173256 -0.24054156 -0.10681879 -0.17989077 0.7973242 -0.6263662 -0.12406535 -0.48273382 0.86966246 0.23934022 0.20527564 -0.3154067 0.07189343 -0.64469934 0.05108716 0.29533285 0.08954422 -0.36199388 -0.94937354 0.27539533 1.0161725 -0.3618215 0.41850272 0.056142543 0.52244204 0.19552435 -0.6785871 0.39723048 0.07852788 -0.13566653 0.035233222 -0.023998033 -0.151308 -0.106270865 -0.4988565 0.1246495
47 -0.008381242 -0.3123587 0.21139638 0.31954932 0.099440575 -0.73093 -0.03361001 0.1408817 -0.16777055 -0.18275076 -0.2891694 0.64905745 0.3425846 0.10198271 0.6589622 -0.3256693 -0.24200134 -0.09545271 0.32838276 -0.89538133 0.5320821 0.7291761 -0.27729633 0.23046125 0.28638747 -0.49904025 1.0641378 -0.6520643 1.0437555 -0.5716615 0.14027706 -0.11174272 0.24853985 0.79200965 0.5280015 -0.5981352 0.5109538 0.0517602 0.315325 -0.10612024 0.1442939 -0.23188744 0.5548464 0.2802767 -0.30636787 -0.11217354 -0.8977048 0.70034444 -0.529157 -0.1518766 -0.08578617 -0.59018725 -0.6962658 -0.23564623 0.4776215 -0.34184355 0.15712667 0.029904034 0.01901601 0.13351116 0.49399614 -0.033126924 -0.29448292 -0.04306747
26 -0.16041717 -0.110909075 0.11281881 0.21288365 -0.13375105 -0.6556242 0.078595445 0.15363027 0.06260748 -0.34601298 -0.8137712 -0.0018354177 0.0049065277 0.14412588 -0.072477795 -0.06671162 -0.01926715 -0.52493185 -0.16108389 0.09895393 -0.38450396 0.11158712 -0.01462725 0.05300581 0.7773056 0.105361275 0.09516312 0.46419394 0.54539275 -0.11993255 -0.2405337 0.2355121 0.45645416 -0.32798553 0.38484913 -0.19598123 0.14305887 0.3120605 -0.39732856 -0.52114683 0.036408436 -0.36060417 0.15322268 0.5321332 -0.13529105 -0.1698976 -0.22555444 0.038093943 -0.03152548 -0.5822565 0.42978892 -0.28378752 -0.13846652 0.44749814 -0.20030002 0.7827865 -0.0816052 -0.19840091 0.02965094 0.14559415 -0.6188754 -0.47121727 -0.11823605 0.21460035
96 -0.41694704 0.49852878 -0.053362507 0.26327324 0.06459001 -0.4760429 -0.45310912 0.82244945 -0.04530584 -0.258594 0.089626014 -0.38513115 -0.94316095 0.30041707 0.16916326 -0.55526286 -0.47404528 -0.09476689 -0.17487362 0.1617951 0.25325933 0.029073868 -0.47142678 0.15485865 0.65102375 -0.33471817 0.12970096 -0.038173765 0.6238239 0.118964806 -0.1488045 0.023453776 0.9289029 -0.25755188 0.11444936 -0.30815578 0.6718664 0.25110486 0.5797334 -0.44950196 -0.42211905 -0.66202074 0.22497152 0.50160605 0.1645584 -0.42521238 -0.6429072 -0.28576976 1.0923069 -0.09093241 0.28671354 0.13208118 0.5026981 -0.08405885 -0.85944587 0.4681745 0.1614382 -0.14963995 0.2542056 0.54180133 -0.122240014 0.16168828 -0.95547056 0.21980372
62 -0.004601674 -0.43908334 0.13310146 -0.019359477 0.41765422 -1.2876662 -0.17044804 -0.027116274 0.010602237 -0.5805751 -1.0882657 -0.3906219 0.40155572 0.25206497 -0.06512915 -0.32402825 -0.2310588 -0.67960477 -0.6343694 -0.24359624 -0.094349094 0.61113656 0.16048896 0.34931064 0.54840016 0.09391733 -0.059600353 0.46239498 0.41722587 0.011520081 0.02951316 0.25035065 0.5930974 -0.95092535 0.34830275 -0.027761621 0.09532635 0.4283679 -0.833978 -0.49794582 0.057461523 -0.20726497 -0.5708317 0.57725525 0.29880083 -0.11665715 -0.51481646 0.047832727 0.19276094 -0.36500445 -0.13124306 -0.022419283 -0.551703 0.45343855 -0.52060795 0.20001183 -0.007083928 0.3508985 0.8259413 0.29862037 -0.91990626 -0.46206462 -0.14635867 0.575959
83 -0.17666362 -0.21726725 0.2594894 0.30614153 -0.01712086 -0.6505674 0.15333727 0.16035452 0.048469838 -0.15094714 -0.9545442 -0.096950404 0.034061134 -0.015989792 0.035621665 -0.21971641 -0.10634509 -0.59289706 -0.17655213 0.1627707 -0.33671385 0.17728257 -0.0481059 0.09305318 0.769138 -0.05635598 -0.08403938 0.31954432 0.6103218 0.02000586 -0.22052103 0.30894113 0.45877948 -0.24398477 0.48827216 -0.09868742 0.101335876 0.27094233 -0.52346355 -0.46624133 -0.018945448 -0.40333188 -0.059846696 0.51673865 -0.0962495 -0.093838505 -0.21151735 -0.03961018 -0.083679564 -0.5033238 0.39457232 -0.273666 -0.16169454 0.38809788 -0.22220926 0.76713955 -0.10943636 -0.14600344 0.18555988 0.27954665 -0.540414 -0.39398095 -0.12283825 0.2730755
32 -0.49758717 -0.47423705 -0.7983617 0.057057835 0.5824454 0.026207201 -0.109308355 -0.048577514 0.024913508 -0.49496397 0.12736647 -0.7177334 -0.8106709 0.6102916 -0.023331614 -0.37688738 -0.28403133 -0.19771026 -0.3167727 -0.13715923 0.36870706 0.13265654 0.2121024 0.20219165 0.7146715 0.32075638 0.3701223 -0.25932074 0.31330293 -0.1649409 -0.34267992 -0.33574846 0.4815821 -0.5944933 -0.05772375 -0.693374 0.3903327 0.36672541 1.0975735 -0.20837484 -0.21698375 -0.7504736 0.08949409 0.5754574 -0.13182113 -0.92698973 -0.018431686 0.12127628 0.20855866 -0.23018941 0.10687993 -0.16213413 0.54571897 0.14235298 -0.37219772 0.21694401 0.51726717 -0.04998663 -0.21639863 0.5131561 -0.48274285 0.4066665 -1.0737761 0.029389024
82 -0.058279976 -0.21695639 0.17071834 0.38624334 -0.09021034 -0.67703 0.035642 0.015798878 0.12927404 -0.18956716 -0.88423353 -0.14398134 0.12738985 -0.08490618 0.05023971 -0.1881564 0.046581667 -0.5969828 -0.17250022 0.05662533 -0.35582668 0.21510041 0.019975845 0.051020604 0.8661154 0.023031317 0.02110678 0.3491668 0.5581544 0.033018462 -0.22672841 0.26435378 0.4514971 -0.24397054 0.5554071 -0.055521958 0.09244705 0.34880057 -0.35465163 -0.5436376 -0.006667703 -0.26926982 0.025829788 0.42863667 -0.07257826 -0.20854047 -0.114575535 -0.03994702 -0.17585257 -0.4502525 0.33144093 -0.1598174 -0.25187212 0.36316946 -0.18422846 0.84567034 -0.15328251 -0.17324792 0.15655899 0.27707165 -0.5039333 -0.33634073 -0.16848435 0.26013967
48 -0.7174683 -0.38578907 -0.73215014 0.1693355 0.38966265 -0.7878873 0.45784274 0.24867621 -0.0102511505 -0.14605395 -0.5394481 0.37034595 -0.08407213 0.58464664 0.6817585 -0.91364413 -1.056678 0.086656615 0.24491112 0.12817569 0.0143546285 0.54634386 -0.34524277 -0.68764913 -1.2374636 -0.5759857 -0.34191504 0.5852095 0.49401647 0.7913234 0.8483543 -0.06610903 0.3465406 0.09619266 0.09186192 0.5107333 -0.028903766 0.7830983 0.08875857 -1.0951934 -0.30993378 -0.11575412 0.9415682 0.79144007 -0.035104208 0.3249671 0.1555888 0.03861388 0.4397252 0.72796535 0.06989362 -0.16396715 0.38444483 -0.61183864 0.40746233 -0.20827334 -0.33909863 -0.25022188 0.02866354 -0.41183606 -0.30777645 0.26951975 -0.09558947 -0.31880802
9 -0.69260705 0.058001466 -0.4678917 0.20084636 0.16587791 0.058678742 -0.29134837 0.56448805 -0.055283394 -0.30064976 0.36176854 -0.71071243 -0.8589204 0.42906097 0.06608397 -0.4805943 -0.4622716 0.0960777 -0.14553837 -0.21350522 0.2014753 0.01335173 -0.20207645 0.024657719 0.7176652 0.016372075 0.3041818 -0.14072885 0.38497522 -0.2729468 -0.12890255 -0.011092853 0.6360879 -0.5170536 -0.17883307 -0.5585939 0.19314492 0.2846657 0.8043661 -0.5926182 -0.48398602 -0.35260096 0.421826 0.751508 -0.025885154 -0.7334622 -0.23888563 -0.16205892 0.46130475 -0.0977769 0.06429043 0.02133149 0.40049055 -0.18958859 -0.57859194 0.5171991 0.58565634 -0.4322818 -0.26492375 0.7501218 -0.18980873 0.114488244 -0.8159873 0.13133949
35 0.007708963 -0.56385535 -1.0691609 0.19772816 0.8892397 -0.54250824 0.18139562 -0.6575913 0.6803303 -0.769508 -0.5233041 -0.58675826 -0.27964363 0.08339796 0.868971 -0.75000626 -0.15755244 -0.10130099 -0.36338058 -0.25732917 -0.4711719 1.2354914 0.7692057 -0.40023243 -0.4240526 -0.27189425 0.121005036 0.0645972 0.7910906 0.13304092 0.5898082 -0.61556107 0.13762678 0.043426655 0.23140083 -0.07335126 0.42604792 1.166975 0.63925225 -0.17443089 -0.7146155 -0.54830384 1.4550977 0.28609675 0.24435702 -0.07682751 0.35603112 0.054001577 1.1349853 0.8040027 -0.6677372 0.23239689 0.030915847 0.185371 -0.23740283 0.57714736 -0.4016336 0.36298144 0.46834123 0.0650091 -0.8295293 0.7033921 -0.5951239 -0.057494856
39 -0.5124664 -0.44243997 -0.7285965 0.09453858 0.56168747 0.016530039 -0.18499973 0.0005551749 -0.10658614 -0.4148476 0.1232972 -0.6577026 -0.8732034 0.6168367 0.014171428 -0.36798498 -0.2622395 -0.2525012 -0.27208385 -0.0566629 0.4116045 0.06973805 0.13656433 0.30131155 0.65718585 0.26514965 0.33134687 -0.2563895 0.4063315 -0.11455808 -0.40370768 -0.324356 0.5280808 -0.53476864 -0.0022643022 -0.6631719 0.39410016 0.31627724 1.0507617 -0.14626348 -0.25754708 -0.7932594 0.069043756 0.5781787 -0.16839647 -0.8765331 -0.098154366 0.0468247 0.16159081 -0.1632581 0.2420108 -0.22604775 0.5888846 0.123051934 -0.31472713 0.05139437 0.48370507 -0.03906277 -0.20647931 0.4866766 -0.38114437 0.3681812 -1.0341833 -0.0009370167
93 -0.12050135 -0.14680983 0.17386392 0.27564183 -0.13062222 -0.7144757 0.03544681 0.09484891 0.092250355 -0.32100895 -0.8401954 0.0046358807 0.11675538 0.10734029 -0.037105586 -0.11270208 0.032076474 -0.59803194 -0.1689505 0.08458589 -0.3734178 0.21207309 0.013304158 0.06819958 0.78039026 0.061122313 0.09290982 0.40634227 0.6132879 -0.022645753 -0.2097029 0.26941925 0.4488833 -0.249527 0.49337652 -0.11160584 0.14216326 0.35698277 -0.39437103 -0.48195225 0.058863245 -0.2639161 0.08149889 0.40674654 -0.04910441 -0.162528 -0.20886038 -0.0017696347 -0.07179742 -0.5794468 0.3985123 -0.19405757 -0.22582206 0.45388344 -0.23104401 0.7353092 -0.14807652 -0.12478349 0.13010451 0.1641413 -0.6031176 -0.4133315 -0.15664274 0.23879626
50 -0.6239009 -0.15157361 0.004473593 -0.22596602 0.41224357 -0.23630998 0.15710148 -0.7677363 -0.5476263 -0.22150463 -0.55254775 -0.14585103 -0.11937824 -0.50847983 1.1185865 0.10085093 -0.5350476 -0.59587795 -0.04870688 -0.082359605 -0.36046875 0.06355291 0.00886482 0.22585495 0.18584943 0.33921337 -0.21215427 -0.21570617 0.41293845 0.15739165 -0.4417033 0.0036792406 0.23126926 0.024391219 0.052173596 -0.65322274 0.13325952 0.06548282 0.021762682 -0.7830336 -0.5093061 0.012217452 0.6242647 0.6986288 -0.24420036 -0.31689543 0.03158415 0.77003866 -0.52739334 -0.653643 0.065216444 -0.02772826 -0.15671045 -0.25896427 -0.27848876 0.07543871 -0.21778713 0.061594374 0.32216123 0.50347245 -0.71479994 -0.6743477 -0.013347818 0.037921663
87 0.23094025 -0.7038224 0.1667414 0.41697913 -0.0048992005 -0.8168643 0.19352023 -0.059028756 0.19644773 -0.041294746 -1.2929871 -0.13016343 0.14910372 -0.1888109 0.17467555 -0.16983135 0.22532168 -0.9664076 -0.08569159 -0.23057316 -0.32098785 0.38519076 0.11314682 0.29218078 1.0335257 -0.087203264 0.29487917 0.4837931 0.89228857 -0.15727045 -0.5379545 0.14522918 0.60533476 -0.107337855 0.5944155 -0.32855374 0.45837718 0.34998107 -0.55614907 -0.50820154 0.31026614 -1.1816999 0.24066475 0.5121967 -0.4446718 -0.25373906 -0.26100764 0.32558027 -0.56232846 -0.2246822 0.341622 -0.63917315 -0.195938 0.6195944 0.3709091 1.0603745 -0.19131687 -0.13555531 -0.02120406 0.049734373 -0.28734964 -0.49480107 -0.44403583 0.12690106
0 -0.63501084 -0.33392075 -0.3563174 0.23293135 0.4479708 -0.1742593 0.21654247 -0.6028657 -0.6505906 -0.18782891 -0.27786824 -0.35727528 -0.57094824 0.33701548 0.4133717 -0.30746555 -0.27875495 -0.29602414 -0.29475075 0.44756404 0.5400204 -0.2772697 0.13785976 0.09332294 0.60304445 0.50179476 0.26864657 -0.37683094 0.37197283 -0.0493253 -0.6330826 -0.43709505 0.5038875 -0.36878476 0.22537792 -0.5185219 0.37590837 0.1621251 0.78634226 -0.08663375 -0.35725707 -0.64120704 -0.29436588 0.6502739 -0.4593613 -0.9345932 0.1393936 0.5323183 -0.34700057 -0.5238889 0.65122545 -0.5519375 0.7216032 0.18281193 -0.22841868 -0.13493896 0.21307793 -0.015504942 -0.2189907 0.18648158 -0.5944962 0.4510407 -0.6609401 -0.11755106
