200 64
30 -0.074001595 -0.25422508 0.063270465 -0.33018315 -0.70151854 -0.18060414 -0.1322962 -0.07282325 -0.031400125 -0.034356892 0.7036733 -0.33793885 -0.08275184 -0.3752122 0.55591464 -0.19928429 -0.24748805 0.39989957 0.21072932 -0.21391943 -0.0057160463 -0.3654836 -0.7404654 -0.23200083 -0.45254743 0.5469648 -0.5018366 -0.14487518 0.08981376 -0.32636717 -0.26447684 -0.13348348 -0.08330317 -0.5797296 -0.13635948 0.24903697 0.5271314 0.05536933 0.36783648 0.14207236 0.09180394 0.1876631 0.2271498 -0.033989683 -0.35118634 0.07226941 0.62876683 -0.38521668 0.16068453 0.41018748 0.0728149 0.24467586 -0.51993144 -0.13100977 -0.23465897 0.06131359 -0.10608972 -0.015277582 -0.043510076 -0.4615481 -0.52111846 0.20495117 0.029503679 0.018049736
95 0.26028588 0.03422548 -0.39560455 -0.4973578 0.46054974 -0.031143755 0.18120027 0.2158561 -0.17356049 0.14347789 -0.20374665 0.011116059 0.088272475 -0.22714122 0.32855242 -0.8935 0.16290022 -0.25192586 0.22935957 -0.25407073 0.4725051 -0.36821306 -0.028890979 -0.138554 -0.033001844 0.42875183 -0.47547066 -0.33229417 0.3373557 -0.08517175 -0.54075754 0.40804026 -0.29400092 -0.2572717 -0.23670676 0.66932875 0.18276295 -0.24227014 0.4285768 -0.04893679 -0.44888252 0.14299609 0.19081885 -0.55494165 -0.7505993 0.6502737 0.41585577 -0.53163123 -0.23251376 -0.24069944 -0.4659126 0.6115891 -0.2171115 -0.51811296 -0.048023548 -0.2006622 0.37811258 0.23093681 0.310737 -0.35401818 -0.3435751 -0.6813045 0.8115918 0.3765305
155 -0.327299 -0.45645562 0.22843164 -0.049793914 0.425113 -0.15113106 -0.49901637 -0.27576622 -0.7043884 0.40784633 0.14533977 -0.3369089 -0.5522968 -0.037959706 -0.4942048 0.140031 -0.2768095 -0.07165969 -0.19396134 -0.39920762 -0.18459216 0.16314328 -0.3106116 -0.061669014 -1.1195083 0.45799798 -0.22613414 -0.0047063995 -0.33178318 0.3593519 -0.0787474 -0.5954594 0.59050685 -0.56273633 0.33114338 0.3616876 -0.32079026 -0.51054424 0.091550544 0.1775308 0.21671732 -0.30708814 -0.42974916 0.35434207 -0.66603327 0.27870864 -0.2833675 -0.65506345 0.21654236 0.015955407 0.014475024 0.06778925 0.1296329 -0.64039874 -0.51594085 -0.1549694 0.3578155 -0.08155659 0.7981325 -0.040534765 -0.23342082 0.09950263 0.116243474 -0.018811801
145 0.68431157 -0.14885905 0.31014335 -0.032978646 -0.1386821 0.6297833 0.1795368 -0.33260116 -0.42303932 0.86760175 0.56934446 -0.0017031198 0.42690784 -0.12333177 0.48370805 -0.16679461 0.40352425 0.89171684 0.06801969 -0.056986082 -0.29220825 -0.6264846 -0.7312692 -0.34725398 -0.89886767 0.23730424 -0.53200585 -0.041112687 -0.17983745 -0.074017495 -0.5410184 -0.0902818 -0.16689545 0.14528266 -0.09276617 -0.027906999 0.5097232 0.30764204 0.092522874 -0.03990983 0.34833106 0.45715907 0.5500654 -0.2852685 -0.18517694 0.05468949 0.08962362 -0.9428994 -0.4453529 0.87623495 0.94592273 -0.10241771 -0.34434775 -0.25786623 -0.3895762 -0.6258742 -0.3023709 0.042447604 -0.43916228 -0.29208133 -0.19036935 -0.08456634 0.0143916095 0.39831334
149 -0.24417084 -0.5322002 -0.061953105 -0.13127378 -0.32162324 -0.42222586 -0.39015853 -0.4023641 0.37705854 0.7009756 0.043327797 -0.23427731 -0.049659397 0.6431938 0.3611227 -0.047307137 -0.39264166 -0.34422636 -0.36517784 -0.7090659 -0.33790216 -0.380332 -1.2574139 -0.18496984 -0.46798885 0.5489832 0.13913982 0.15438503 0.2200319 -0.41195872 -0.46436027 -0.81324196 -0.120601945 -0.37427768 -0.06943368 -0.6635164 0.34417117 0.14715867 0.41179016 0.47585872 -0.5398443 0.1033659 -0.1682636 -0.031101687 -0.8108872 0.09732593 0.41600326 -0.69421 -0.7861781 0.73993695 0.18232243 -0.2652965 -0.3100021 -0.43959504 0.2731214 0.03143906 -0.21289724 0.064927675 0.99276465 -0.13459903 -0.6252387 0.043188352 0.14177786 -0.11118413
18 0.075474575 0.07744594 -0.48375264 -0.779603 0.12581006 -0.20581886 0.28420517 0.052898396 0.0052374867 0.02470861 0.16487974 -0.27633935 0.056277238 -0.0604527 0.499169 -0.4628123 -0.3418418 0.24406601 0.44707268 -0.2555586 0.2082653 -0.39622664 -0.2866949 -0.4940171 -0.5415418 0.73592997 -0.75286055 -0.3178719 0.6603576 -0.4239791 -0.16622289 0.286085 -0.586329 -0.24434167 0.20805275 0.44558635 -0.063514784 -0.078816265 0.39294937 -0.0871729 -0.21001461 -0.17353217 0.013934511 0.09048729 -0.2590382 0.1552966 0.7978822 -0.34031895 -0.025658853 0.5050187 -0.090177976 0.23964946 -0.49625492 -0.45448732 -0.18707037 -0.26806408 0.32796228 -0.16886355 -0.015857587 -0.29176462 -0.24996686 -0.001515777 0.5857518 0.078408115
54 0.0757199 -0.6665379 0.24831273 -0.56119543 -0.2775218 -0.8956866 0.28832033 -0.16154523 0.065964535 0.05485568 0.60595435 -0.48388904 0.13114786 -0.69781125 0.58920467 0.36168966 -0.41888538 0.15457594 0.09011855 0.035434626 -0.23928864 0.15168627 -0.21479106 0.20840949 0.13839646 -0.07687599 -0.3642288 0.5385307 -0.0020744302 -0.46660432 0.3828054 -0.40674537 -0.30697545 -0.19204882 -0.24334992 0.41639146 0.12934703 0.20827898 0.7408583 0.006664617 -0.17826127 0.34186515 0.40904388 0.008594753 -0.21729593 0.7716932 0.20835736 -0.6038221 0.15471467 0.916191 0.4780148 -0.15632899 -0.40600643 -0.2745248 -0.06832209 0.09724454 -0.5001587 1.0350972 -0.100852996 -0.1052589 -0.6335639 -0.08182725 0.35901362 0.40297595
187 0.045267187 -0.1751213 -0.08478166 0.2711434 0.609127 0.036451865 -0.58189845 0.34667274 -0.98042786 0.2823721 -0.35633084 0.17387354 -0.47809333 0.045453522 -0.36840817 0.22374971 -0.020053811 0.31294188 -0.28874072 -0.5323889 -0.4537693 0.3057066 -0.400815 -0.24907698 -1.0713106 -0.07944634 -0.09650201 0.10744196 -0.18146627 0.27089283 -0.526695 -0.15438432 -0.49064404 -0.34025908 0.14025433 0.17955473 0.3622681 -0.63026774 0.23777305 0.46332866 -0.20554018 0.6082735 -0.19348995 -0.3089884 -0.36291552 0.46835786 -0.31053025 -0.34521914 0.23054728 -0.30984175 -0.22965164 -0.5697326 0.61521035 -1.1608547 -0.026738947 -0.76664823 0.13291492 0.9911515 0.52640975 0.2082109 -0.5828299 0.13479258 -0.07973857 0.041029785
159 -0.10539123 -0.092368916 1.4759094 0.13590403 0.6454056 0.040571578 -0.023205064 0.30759314 1.2325994 0.6340239 0.7008581 -0.983899 0.17785203 -0.065432176 0.12437623 1.1746418 -0.123319864 -0.05776532 0.038007006 0.93264645 0.11327291 0.05093859 0.21420747 -0.49866492 -1.03563 0.07328443 -0.6643987 0.7066162 -0.37601277 0.28914312 -0.5859365 0.6580278 -0.20248722 -0.591566 -0.78036433 0.09865546 -0.13362655 -0.22894053 -0.20087643 -0.24175173 -0.4868433 -0.3337169 0.5195529 -0.523549 -0.19582199 1.0115771 -0.1312853 0.39031428 0.25195652 0.55328345 0.55712014 0.047741275 -0.15727599 -1.166652 -0.94423974 -0.44944546 0.41298905 0.35130146 0.4648799 -0.47820434 -1.0096157 -1.0201029 0.35079142 0.7086384
115 0.21294454 0.1392127 -0.1472626 -0.98594385 0.743341 0.17009358 0.08431734 -0.50568026 0.6147544 0.24130711 0.3642816 0.28619096 0.38083017 -0.218098 0.65386605 0.27845746 0.07401651 0.08460616 0.13007826 0.8593105 -0.06281501 0.4315659 -0.21016966 -1.1032763 -1.0860027 0.84445596 -0.105952255 -0.45243573 0.30831406 0.17257926 0.059924018 -0.29158387 -1.093807 -0.6373872 0.09149851 0.78591543 -0.49778253 -0.39441457 0.699821 -0.0035203544 -0.58591 -0.014469979 0.104209736 -0.19695173 -0.14900161 0.2858131 0.64776266 -0.69646674 0.101102434 0.5291971 0.5520908 0.10656005 0.50248116 -0.252643 0.66891944 -0.6568786 0.7640078 -0.3043047 -0.90891397 0.2921235 -0.43828025 -0.7586657 0.49211526 0.35118002
175 0.50888586 -0.008404456 0.41783702 -0.81648844 0.9949164 0.7311378 0.42099804 -0.29695463 -0.64717835 0.23015366 -0.6013211 -0.21887462 0.63030344 -0.9484535 0.493205 -1.1984787 0.52434975 -0.13435726 0.09782014 -0.24375483 -0.12074647 -0.15110071 -0.42945382 -0.841558 -0.21145345 0.5418089 -0.6084186 -0.6702277 -0.28088096 0.57454556 -0.6516949 0.25524208 -0.42900774 -0.06994183 -0.07111896 0.45986077 0.17291775 -0.19320492 0.14251304 -0.4358241 -0.056183107 0.809558 -0.4225405 -0.08136948 -0.8295783 -0.09006761 -0.054592606 -0.80919385 -0.9757383 -0.10707894 -0.30239496 0.61374384 -0.6877771 -0.3781833 0.86423504 -0.31475952 -1.0555689 -0.105851784 -0.33666277 0.31278738 -0.94188803 -0.9216025 0.39274025 0.4813874
117 -0.6390808 -0.4903562 0.54218304 -0.006825174 0.09764092 -0.60017866 -0.29799917 0.054479238 -0.04468979 1.0347456 -0.5685424 0.15223947 0.5222334 -0.60262376 0.40170226 -0.26971903 -0.7473626 1.4437145 0.3442915 1.0120295 0.090582274 0.049279727 -0.3001987 -1.2545033 -0.41833714 0.22594984 -1.0039922 -0.4582398 -0.5019523 0.19163643 -0.37057683 -0.7941425 -0.28021127 0.05856673 -0.17186245 0.9117218 -0.030380983 -0.061078176 1.1378793 0.123280674 0.81194586 -0.18120243 -0.91589165 -0.0038996297 -1.0428538 -0.28587025 0.20033735 -0.3608738 0.37939817 0.25899446 -0.39670265 -0.31189853 -0.34298113 -0.2970226 0.5020449 0.8026173 0.30208477 0.346764 0.068021126 0.8401717 -0.90208447 -0.89510214 0.31241646 -0.3146763
171 0.45189545 -0.02271188 -0.69746923 -1.0216346 0.5867725 -0.06320188 0.13769178 -0.41624516 0.5437495 0.4517925 0.5294316 0.12538144 0.35159686 -0.09719212 0.52802885 -0.24703053 0.20276324 0.020756988 0.17103848 0.46091157 -0.0063028894 0.1901939 -0.4536375 -0.9720977 -0.92345625 0.89049184 -0.30400243 -0.49667257 0.53849506 -0.06053748 -0.13402297 -0.08387768 -0.7219415 -0.39084113 0.015317943 0.91395897 -0.3843933 -0.18211974 0.29237235 -0.13189994 -0.5970874 -0.10012845 0.02610754 -0.27951545 0.16973351 0.25666013 0.4996007 -0.630659 -0.039380662 0.43493298 0.24960206 -0.069318525 0.24112342 -0.22830543 0.1031318 -0.6337851 0.45295167 -0.5284784 -0.6241565 -0.2292099 -0.25036618 -0.19802333 0.563642 0.25026396
43 0.033923876 -0.06969841 -0.18304974 0.08421864 0.9862903 0.02392296 -0.6651746 0.4464144 -1.1464881 0.050639722 -0.2989774 0.33172017 -0.39452454 0.15193118 -0.6113083 0.4462929 0.15507743 0.6722977 -0.17455918 -0.4025901 -0.20413692 0.47079873 -0.4035174 -0.7607102 -1.3042194 -0.24402025 -0.47821376 0.0056281704 -0.06194741 0.40864974 -0.36877042 -0.013644084 -0.19050835 0.11087734 -0.0745601 -0.17879763 0.6324842 -0.47919753 -0.16078512 0.1687349 -0.38536048 0.53025794 -0.3674648 -0.63717556 -0.27150217 0.58884007 -0.25034794 -0.4790975 0.29232374 -0.005205628 -0.13854665 -0.81040174 0.17573962 -1.0244435 0.16467918 -0.7467455 -0.015392737 0.6153013 0.34517044 0.357477 -0.7771528 0.023057967 0.39250693 0.3184581
120 0.48638722 -0.098724596 0.15631196 -0.8146909 0.03718322 0.3047766 -0.52711 -0.01722924 0.43794623 1.0816616 -0.29053387 0.0328354 -0.2717181 -0.7432243 -0.40853542 -0.60146374 0.88651663 -0.61957765 0.31735775 0.04593821 -0.28515464 1.090275 -0.2993623 -0.46297657 -0.64530545 0.56384337 0.17422442 -0.317783 0.27023458 -0.024318349 -0.055693973 -0.0020796857 0.870673 0.024406113 0.22969025 0.5569845 -0.98170507 0.50508213 1.1088226 -0.41397774 -0.21943782 0.22790937 -1.273012 -0.17728531 -0.18817183 0.41434702 -0.54356635 -1.1426802 -0.46935305 0.23813117 0.1973351 -0.69092476 0.19879824 -0.73887914 -0.24572225 0.54592603 0.3735528 0.03817797 0.6871477 -0.16097723 -1.2591199 0.36960226 -0.33267134 0.3239676
80 1.0369643 -0.46032926 1.1203042 -0.5633802 0.53811806 -0.6615373 -0.037529115 0.8003969 -0.056321744 0.7452115 0.5509267 -0.2198888 0.18504916 -0.56608176 0.50694776 0.4559324 -0.1562183 -0.36821187 -0.13347287 -0.22014026 -0.37015638 0.55113655 0.18556574 -0.79619634 -0.33982933 -0.30055362 -0.29786915 0.72763544 -0.7069783 -0.13968666 0.28946045 0.7420365 -0.11552807 0.084516555 -0.37398311 -0.68668735 -0.48189795 1.1188653 0.08448291 -0.097622834 -0.19122484 0.41323343 -0.3002971 -0.025255302 -0.1301251 0.6267116 0.13693216 -0.20839466 -0.15303378 0.12569755 0.4962135 -0.34780234 -0.15950134 -0.2031166 -0.25744212 0.1042841 0.16597092 0.42120382 0.7439337 -0.23112139 -1.5754241 -0.67878324 0.23429234 0.6070583
68 0.5105302 0.021513918 0.18692492 -0.7951407 0.9307351 0.51265895 0.33662468 -0.08474025 -0.58705854 0.2600458 -0.4699258 -0.20929876 0.29508272 -0.84285146 0.54910123 -1.0288811 0.1360836 -0.22598937 0.4929447 -0.36646092 -0.24461208 -0.14039557 -0.4299915 -0.47466603 -0.09950706 0.5484569 -0.68611383 -0.47505125 -0.021758001 0.24122113 -0.3962919 0.34004888 -0.33721283 -0.22539721 0.046504997 0.5050379 0.16189577 -0.1471685 0.21447441 -0.42935935 -0.35701394 0.6056901 -0.40151536 -0.12729211 -0.9020829 0.17594661 -0.20004287 -0.5686621 -0.8290856 -0.42434716 -0.67699444 0.6697277 -0.47759575 -0.16915785 0.8380055 -0.19969097 -0.48086798 0.015606036 -0.11867108 0.1049316 -0.6795036 -0.9107906 0.8074598 0.2115975
125 -0.61912197 -0.08893018 0.39343122 -0.36196885 -0.04794296 -0.044021755 -0.14670429 -0.42129785 -0.043500446 0.45959708 -0.14042357 -0.46948498 -0.7241387 -0.7401034 -0.37278277 0.060691636 0.1298753 -0.20438197 0.33562732 -0.123059504 -0.36858374 0.6155803 -0.19693732 0.16256107 -1.1177912 0.40648168 0.29075947 0.09788847 -0.12793298 0.5214401 -0.13915914 -0.20642483 0.8942773 -0.70236206 0.11544389 0.32746667 -0.31546432 -0.43385863 0.38185805 -0.31375027 0.14177182 -0.3143506 -0.6594388 0.2649094 -0.5458567 0.16390872 -0.2685606 -0.9586778 -0.0032103434 -0.11766076 0.22581014 0.045574114 0.0051111495 -0.94950217 -0.19616942 0.16636609 0.08046845 -0.27062395 0.616728 0.08305329 -0.5840975 -0.057719868 -0.24053109 -0.08929448
71 0.30215338 0.061910916 0.19690609 0.14337537 0.30066538 -0.5370478 -0.68198293 -0.8048214 0.7708129 0.4134162 0.6431214 -0.20547841 0.4646094 0.63446033 0.23711152 -0.36538324 -0.40005443 -0.49948487 -0.70961803 -0.67582655 -0.63275445 -0.08220303 -0.9688584 -0.37921816 -0.7305819 1.0243273 -0.41437107 0.18753798 -0.097634144 -0.40275553 -0.40820637 -0.49578124 -0.48077533 -0.45770654 -0.04660405 -0.22291425 0.35383567 0.04576706 0.5011789 -0.7133625 -0.6683982 0.44292614 -1.2794728 -0.16581002 0.050821222 0.74613816 -0.41787794 -0.7880745 -0.68911254 0.58428884 0.10561581 -0.36049095 -0.7150968 -0.037824415 -0.07683045 0.4938326 -0.23035617 0.1685142 1.0040324 0.24582238 -0.44333988 0.085835524 -0.3900632 -0.06540847
10 -0.048917912 0.16813947 0.09909399 -0.69556785 -0.024938498 0.5515158 -0.42817023 -0.24291669 0.3879813 1.0655143 -0.085226476 -0.16203266 -0.408441 -0.77325517 -0.5062297 -0.27869514 0.7567217 -0.5159736 0.55285335 0.029582895 -0.423105 0.75208044 -0.24022102 0.16826348 -0.87886673 0.47015038 0.3033567 -0.05509543 0.305495 -0.0722629 0.028790452 -0.3393214 1.0277249 -0.21252398 0.34790382 0.27403492 -0.8298214 0.1758751 1.0020168 -0.34820378 -0.19653338 0.22539301 -1.0330621 -0.2963793 -0.39859304 0.28009525 -0.5296277 -1.0662869 -0.4372319 0.28994793 0.26338977 -0.30653712 0.16522416 -0.847441 -0.04790413 0.5870039 0.4311687 0.21308531 0.9339346 -0.1609706 -1.0484029 0.08309826 -0.42778936 0.30373138
160 -0.2773413 -0.1971303 0.1455886 -0.359414 -0.38465822 -0.28409898 -0.6096509 -0.40916517 0.07972128 0.2535221 0.26754546 -0.4796023 -0.19961457 0.15936074 0.11567627 0.17343485 -0.4473907 -0.0034921463 0.11913288 -0.5717463 -0.09758711 -0.17095163 -1.0977771 -0.28586632 -0.45176244 0.4689356 0.064697124 -0.06910203 0.15383223 -0.1364537 -0.39758357 -0.2896097 -0.03108777 -0.58056915 0.008749586 -0.33924064 0.2109541 0.35100996 0.1431816 0.17014416 0.084251165 -0.18307383 0.16698666 0.088095576 -0.7519044 -0.16506673 0.76675 -0.5183168 0.067192316 0.29543483 0.041788172 0.08158335 -0.22361419 -0.40492854 -0.15336962 -0.17297867 -0.25173992 -0.3617138 0.3191407 -0.34782025 -0.40347072 0.16694602 0.094935894 0.10738259
55 -0.31925914 -0.031643912 0.5046797 -0.6397111 -0.24456829 -0.095494255 -0.08686014 -0.29907292 0.24236749 0.64915705 -0.06416218 -0.55598336 -0.67074317 -0.6325641 -0.34941843 0.17225906 0.75905496 0.09442259 0.5821198 0.38653383 -0.41602278 0.9114782 0.076500535 -0.1104107 -1.2149795 0.44382375 0.29763526 0.1620163 -0.56174374 0.6516463 -0.2211294 -0.098075576 0.43467474 -1.0456767 0.3103047 0.3216927 -0.6644958 -0.9048712 0.56226283 -0.29206747 0.099669375 -0.22993048 -0.59079224 0.33767605 -0.5315543 0.18107091 -0.1745483 -0.9986452 0.14051026 0.006381136 0.07074839 0.026190527 0.07660283 -1.2153941 -0.49697596 -0.2356225 0.24894841 -0.43366775 0.7705146 0.4700016 -0.70453024 -0.0007791436 -0.54907405 0.050846726
28 0.10905725 -1.0665914 0.7854396 -0.20310062 -0.13078165 -0.7002115 0.21228535 0.4841401 0.30457893 0.27028713 0.4945844 -0.4808343 -0.10223532 -0.518942 0.74826515 0.46754006 0.046491664 -0.2484463 0.015326551 0.35424146 -0.21805038 0.5188685 -0.20379452 -0.23551215 -0.000336477 -0.27868763 -0.050568674 1.055145 -0.2829791 -0.54233474 0.20892824 0.6878406 -0.0011083069 -0.49029267 -0.62103605 -0.12805362 0.13210197 -0.00012639242 0.15454786 -0.27759838 -0.51685184 0.42338476 0.015136731 -0.3538364 -0.2826573 0.620205 0.0091377 -0.032938294 0.06851621 0.34406388 0.40697125 -0.281429 -0.2378399 -0.16546966 -0.3905852 0.02440193 0.33900413 0.5347269 -0.10488737 -0.3927963 -1.0960453 -1.1884408 0.21731733 0.7886668
82 0.4508109 -0.24774706 0.16370785 0.7622845 -0.6078485 0.42918426 0.7824836 -0.49407244 -0.7696709 1.4030155 0.23509389 0.16544092 -0.4889621 0.5586124 0.600746 -0.34272066 0.22177547 1.1842185 0.3062782 -0.15651613 -0.11113792 -0.6639812 -0.8432171 -0.23629156 -1.2770174 -0.5068579 -0.5915775 1.2157589 -0.6339356 -0.20292127 -0.61905473 0.39594102 -0.33188167 -0.23421983 -0.0603293 -0.27577162 -0.005919934 -0.17043057 0.55210584 0.07934217 0.31411126 -0.5129866 0.22412424 -0.7337971 -0.81523705 0.7438718 -0.03230321 -1.5664246 0.13769187 0.33221123 1.0174305 0.30858564 0.01857612 -0.43532884 -0.20343292 -0.68341595 0.83109784 0.0018200529 -0.1193624 -0.67343235 0.071553536 -0.44939327 -0.09913412 0.7018437
104 0.85384893 0.52140754 0.12707663 0.22216074 0.9266788 0.10377074 -0.72920513 -1.0810028 0.81233996 0.2537747 0.14420351 -0.08993076 0.52888966 0.8277749 -0.32037443 0.20415266 -0.35130993 -0.29063404 -0.41178912 -0.5202296 -0.6212593 0.11358126 -0.58030367 -0.66397613 -0.74922705 0.22644176 -0.78614277 0.42099985 -0.18177295 0.45458812 -0.6768168 0.23504724 -0.7363206 -0.1685953 -0.00941935 0.36755443 0.09028583 0.43020672 0.68820864 -1.1891152 -0.59981596 0.15990877 -1.5763043 -0.62305623 -0.3232182 1.2152086 -0.3266025 -0.9411994 -0.15727729 0.10273312 -0.1112813 -0.61983657 -0.43861142 0.37324783 0.74961096 0.47092852 -0.11696115 0.40102816 0.21018746 0.43783203 0.09755332 0.14490165 0.2674269 0.3570173
33 0.17615607 -0.26634458 -0.5126568 -0.09796589 0.9433853 -0.20112263 -0.57959074 0.43094763 -1.4401546 0.071845785 -0.5771952 0.46921122 -0.33189267 0.0837118 -0.6350232 0.46029687 -0.0058129025 0.7296464 -0.15379168 -0.45796105 0.0032501998 0.5732102 -0.31177044 -0.8412846 -1.2963679 -0.42069122 -0.40083024 0.06175136 0.25136963 0.1170555 -0.19322696 -0.01580195 -0.18219948 0.4381853 0.08831165 -0.30985883 0.6693841 -0.19130065 0.038751666 0.080778025 -0.37068614 0.5162219 -0.39488563 -0.8451507 -0.57014847 0.49310684 0.11627964 -0.9350983 0.3819918 0.314796 -0.014017165 -1.008864 -0.0029342528 -0.9543499 0.63120794 -0.5869241 0.06873566 0.67822593 0.15661514 0.5523629 -0.7790959 -0.30626822 0.6247694 0.60693914
186 0.062730365 0.13079569 -0.6641465 -0.06616467 0.5339338 0.09973237 -0.33240426 0.113556035 -0.4635465 0.110207535 -0.5025401 -0.027594939 -0.15769944 0.04778001 -0.38902164 0.28952876 -0.19545999 0.2894715 0.23353168 -0.5095261 -0.5135737 0.2635637 -0.68015474 0.15961258 -0.9809062 0.04886649 -0.2774051 0.07973377 -0.18409117 -0.1309772 -0.63425225 0.09429651 -0.75810844 -0.5480868 0.37684083 0.13801709 0.26704618 -0.69882095 0.0899225 -0.045273595 -0.32555607 0.8818681 -0.364403 -0.46878043 -0.5231483 0.51703304 -0.19816637 -0.1055792 0.4873553 -0.39056915 -0.579574 -0.39517856 0.17593242 -1.4461219 0.28962606 -0.9975669 0.18687998 1.0546151 0.5131178 0.19716756 -0.5655837 -0.1987059 -0.21090353 0.039011262
92 -0.22802702 -0.18815915 0.39991692 -0.09591328 -0.026346803 -0.4447174 -0.30488867 0.07754614 -0.027785685 1.0033741 -0.07087883 0.12672687 0.54098046 -0.48544708 0.43343604 -0.035008594 -0.7680193 1.4472938 0.5991966 0.6084865 -0.07052723 -0.03036769 -0.37344226 -1.1607155 -0.24068996 0.36702368 -1.0887284 -0.38332725 -0.6196995 0.06649216 -0.27348903 -0.6547226 -0.3745803 -0.050182063 -0.19204535 0.79066116 -0.24258684 0.3662253 1.0724099 0.3521636 0.9708139 -0.13398945 -0.85364884 -0.0636726 -0.7613567 -0.18319122 0.16567874 -0.28788808 0.44571844 0.27396703 -0.45269704 -0.19790766 -0.26379046 -0.26638368 0.46888468 0.8456599 0.32834023 0.39161792 0.076588124 0.30806813 -0.9944267 -0.16840741 0.22803006 -0.3407053
101 1.0483309 0.5045852 0.24678983 0.05964473 1.1041125 0.33853814 -0.4684815 -1.0517485 0.44584283 0.25615013 0.12566195 0.06405975 0.47212476 0.8359875 -0.25880772 0.14360662 -0.6966511 -0.5226985 -0.28329715 -0.37356853 -0.6332316 -0.14462543 -0.42003068 -0.56455976 -0.7426286 0.03251425 -0.877848 0.66250855 0.0924171 0.1785259 -0.3946481 0.19881588 -0.9067577 0.011483564 0.12407369 0.27794522 -0.04224751 0.3114063 1.0153395 -1.0695734 -0.7294203 0.26788887 -1.486545 -0.66139746 -0.43760604 1.2469965 -0.08200265 -1.1255424 -0.11209533 0.18997674 -0.10061184 -0.57846063 -0.2841568 0.6757761 1.121777 0.67461985 0.094996445 0.79127365 0.0023873828 0.35400426 0.078283146 -0.28343546 0.55312425 0.6033317
4 0.017077051 -0.06344501 0.116546504 -0.86192733 0.86978906 -0.046696927 -0.15359733 -0.5712727 0.4356886 0.17398903 0.40409836 0.4376166 0.466305 -0.08226795 0.66601855 0.31726357 -0.2199095 -0.18126494 -0.07690399 0.85047597 -0.11043976 0.43023401 -0.2505698 -1.3206887 -1.0625582 0.9824147 -0.28504902 -0.56464666 0.08943161 0.36303037 0.09949255 -0.34481373 -1.0954907 -0.8203304 0.045380488 0.84162605 -0.43132436 -0.5828235 0.63556385 -0.0594384 -0.71672684 0.019045476 -0.3732039 -0.096576765 -0.18916759 0.2492139 0.285926 -0.58797693 0.07791 0.2992527 0.31241027 0.11048646 0.4718852 -0.03252564 0.80799 -0.32874987 0.82050925 -0.5152573 -0.8703223 0.62747663 -0.5188651 -1.0622944 0.6463073 0.23812382
60 0.42035136 0.4221924 -0.16896875 -0.7871364 0.6980394 0.48795617 0.23165067 -0.17586498 -0.5143746 0.15338396 -0.14405416 -0.25891304 0.16748118 -0.8626137 0.44705728 -0.77866775 0.055002335 -0.33770606 0.3878606 -0.21408066 0.037070237 -0.36253634 -0.30751437 -0.13822846 -0.087796874 0.29738393 -0.5675169 -0.23898816 0.22079985 0.15033403 -0.32032517 0.09826689 -0.18058585 -0.38746303 -0.004485823 0.54124826 0.2888062 -0.016753655 0.3889663 -0.32408395 -0.5881782 0.38663572 -0.0014208121 -0.4724882 -0.9399262 0.43783915 0.13704892 -0.4536178 -0.66058534 -0.37249836 -0.85007656 0.73656434 -0.535542 -0.28304225 0.51070595 -0.14157954 -0.23242941 0.29542404 0.22851984 -0.3120169 -0.40628445 -0.81409764 0.767777 0.35745832
77 -0.7430356 -0.6718875 0.3128579 -0.64934266 -0.051398933 -0.05012513 0.15505779 -0.24317363 -0.2070355 0.718933 -0.13123164 -0.3176436 -0.73010916 -0.69968814 0.09548767 -0.023304814 0.02045773 -0.08864993 0.39794815 -0.38518387 -0.5935669 0.19965857 0.1739975 0.3055927 -1.1627707 0.43842113 0.6082995 0.32532486 0.11916272 0.85779697 -0.21392837 -0.34433737 0.39614618 -1.0254695 -0.6787707 0.66958934 -0.07848756 -0.77166706 0.35723674 -0.07038333 0.22250748 -0.24246073 -0.69578934 0.41002303 -0.22198145 0.12403345 -0.20411025 -1.2110085 -0.30484545 -0.46172723 0.4877286 -0.28305355 0.1736831 -0.82670546 -0.06206228 0.4613388 0.12286506 -0.018740559 0.67709833 0.046992354 -0.6591945 -0.3508468 -0.3312811 -0.66404104
23 -0.91134775 -0.82199126 0.5077084 0.05329912 0.67654455 0.27590352 -0.19691557 0.6073621 0.48489293 1.1451389 0.99037504 -1.0151076 0.23175882 -0.8654661 1.4912997 0.99417144 -0.02813776 0.7668291 0.20051017 0.22115077 -1.0063215 0.08867447 -0.23237593 -0.52247924 -0.8980395 -0.31282467 -0.26841462 0.8540473 -0.4543917 0.08338454 0.19453578 -0.29572538 -0.24163666 -1.005083 -0.3542435 0.1422374 -0.31291 0.3060694 -0.13573469 0.29193208 -0.7949105 0.02233385 -0.021823125 -0.5621595 -0.894723 -0.04926794 -0.68316245 0.9759283 -0.57737476 0.14744745 0.11664693 0.25437766 -0.10898089 -0.12835854 0.60888374 -0.069290414 0.50610554 0.7742319 0.6830318 -0.28835744 -0.9036551 -1.0828986 0.4453731 -0.11907609
139 -0.11902509 -0.84906507 -0.20849162 -0.49008715 -0.7873997 -0.6568291 -0.058264893 0.1131426 0.2917571 0.29296753 0.55225503 -0.702514 -0.03180745 -0.5946184 0.9689909 -0.73407257 0.32988253 0.71351475 -0.08864429 -0.3734976 0.06357444 -0.12746572 -1.2447709 -0.46397117 -0.24530652 0.5889776 -0.26805282 -0.08774952 0.053475197 -0.24817663 -0.6292463 -0.14215836 -0.37204456 -0.5388317 -0.19078377 0.5956042 0.19481331 -0.040516227 0.09902918 -0.08302155 -0.36386886 -0.0115497215 0.12651475 -0.14354716 -0.26332462 0.08761719 0.23394148 -0.5555047 0.20499128 0.03922487 0.047964625 0.41991034 -0.4793172 -0.014409531 -0.237877 -0.2287448 -0.33455548 -0.3490723 -0.19660304 -0.5449775 -0.5000035 0.3476177 -0.06571132 -0.2650645
168 0.027527384 0.114231884 0.42474377 -0.05236413 -0.4763611 -0.51902306 -0.34371042 0.07048191 0.07622272 0.9316921 0.4040798 0.14947213 0.29831976 -0.32249367 0.42416918 0.2551733 -0.4963897 1.2797546 0.74022216 0.37412322 0.114941 -0.18176758 -0.50722593 -1.0225992 0.07697114 0.4506859 -0.8899737 -0.25526977 -0.6288336 -0.22114846 -0.3091118 -0.5830442 -0.41354245 -0.28880894 -0.28001508 0.22662148 0.026675582 0.42600313 1.0566905 0.4736788 0.7983575 0.018037127 -0.5820244 -0.53810877 -0.61526835 -0.010627795 0.33008993 -0.38646406 0.5731819 0.27050838 -0.60025036 0.09602224 -0.2766031 -0.22623523 0.34660795 0.9578912 0.4308179 0.2524267 0.15617599 -0.091386735 -1.0962487 0.06457915 0.15653515 -0.061655063
126 -0.42611292 -0.409791 0.18631619 -0.8902 -0.17380847 -0.24797443 0.25439653 -0.32618186 0.1457611 0.7290891 -0.16202804 -0.014920143 -0.71767145 -0.3356596 0.3983397 0.74319166 -0.17787854 0.04274706 0.68850726 -0.77267224 -0.40661427 0.097328335 0.25376803 0.13326217 -0.82697165 0.21901956 0.6653526 0.6232145 0.109335475 1.2786489 -0.39932886 0.17442392 -0.25532767 -1.0413746 -1.2047375 0.20212686 -0.019866433 -0.19049165 0.4225396 -0.25086987 0.06022494 -0.40046775 -0.8995634 0.021386597 -0.2978447 0.6774315 -0.11116387 -1.238546 0.07653523 -0.71092963 0.7078775 -0.23401576 0.3901956 -0.71334386 0.72427195 0.68213826 0.32829675 -0.18640096 0.5613596 0.01566053 -0.8244032 -0.3491814 0.0543395 -0.9719005
146 0.10940788 -0.47423792 0.47216803 -0.26512706 -0.33517644 -0.8090214 0.41689155 0.104117244 0.22220476 0.0884871 0.5758239 -0.5106274 -0.097848795 -0.7006178 0.64564836 0.45001265 -0.090355225 0.16523571 0.34794012 0.2377277 -0.3434346 0.37343034 -0.2068611 0.16626501 -0.010520859 -0.21285968 -0.32978177 0.9372948 -0.18567492 -0.7341245 0.41708076 0.29384202 -0.08851728 -0.34170997 -0.24741776 -0.061076503 0.18560879 -0.025064074 0.5536766 -0.34696284 -0.42321283 0.4357244 -0.019503294 -0.2225566 -0.091558225 0.8226345 -0.01616513 -0.40240687 0.08077228 0.7279795 0.38389024 -0.06437 -0.5275049 -0.22476166 -0.1095655 0.12564391 0.026569864 0.81381226 -0.050426066 -0.17724596 -0.82503766 -0.6251133 0.1425075 0.57622004
46 -0.09899454 -0.25661343 0.03524418 -1.261966 -0.058716808 -0.1989092 0.25741228 -0.23952463 0.0049225967 0.7868492 -0.066273324 -0.059753712 -0.5374121 -0.27277502 0.3116831 1.0633048 -0.3096035 0.10467604 0.85884327 -1.0646391 -0.35283086 -0.0717147 0.30935237 0.021748029 -0.84953207 0.08084814 0.501423 0.45830685 0.4571875 1.0892787 -0.43694144 0.27588862 -0.41447043 -0.64406765 -1.1048094 0.008319288 -0.21123134 0.27178183 0.49323216 -0.19388533 -0.037405822 -0.414856 -1.0683025 -0.07387824 -0.14529699 0.5867881 0.14676832 -1.3435853 0.3064376 -0.6833178 0.64330435 -0.36318812 0.36959848 -0.4681962 1.1456194 0.8418019 0.3084064 -0.056221128 0.38090882 -0.051166993 -1.0030547 -0.08457419 0.3486359 -1.1452186
67 0.0056108693 -1.1228695 0.8413912 -0.3744657 0.13389269 0.5390484 -0.10628203 -0.45262066 -0.3500431 0.5919588 -0.46819985 -1.5106726 -0.48163077 0.20536186 -0.39578837 0.4770728 0.4873987 -0.21839388 -0.060735013 -1.0928686 0.046620984 -0.42706594 -0.79514676 -0.26397038 -0.15531555 -0.26528993 -0.6650091 0.71507204 -0.19730821 0.78907174 -0.85355 0.14898115 -0.49694335 -0.5718014 -0.12480631 0.85338134 -0.9214232 -0.71139914 0.46559554 0.27107626 -0.110777535 -0.45616084 -1.0832096 0.04999104 -0.6906487 0.47607973 -0.68508494 -0.63802195 0.28840524 -0.011781105 -0.15373299 0.15173651 -0.062170386 -0.15365866 0.26363984 0.54999316 -0.42556766 0.15486024 0.4719824 -0.5819807 -0.48261607 0.640457 0.24443956 -0.085001156
183 0.27018315 0.35482988 -0.68900394 -0.19890097 0.25622922 0.088960275 0.071555614 0.11017637 -0.38553408 -0.00031382634 -0.38044572 0.24258311 -0.15677042 0.0018033363 -0.34076503 0.13249958 -0.34239888 0.2782783 0.50384855 -0.647165 -0.30035207 0.01418731 -0.4301692 0.38087362 -0.91607827 0.254616 -0.5495308 -0.053229466 -0.3525591 -0.4375397 -0.51356655 0.34980428 -0.6279847 -0.3596407 0.5066138 0.13599992 0.08219624 -0.6372903 0.41778067 0.17203131 -0.3780378 0.8968035 -0.29382214 -0.515596 -0.5510213 0.90540445 0.102727965 -0.10181888 0.73832965 -0.387739 -0.5463936 0.30951363 0.16728592 -1.2015495 0.35799438 -0.7878539 0.5366258 0.98701626 0.536148 0.06554601 -0.6958116 -0.20398934 -0.11444171 0.13308054
173 -0.020945586 -1.3337063 0.32286265 -0.39337394 0.2798395 0.33894607 0.33531547 -0.56561834 0.074483864 0.6681097 -0.2943211 -1.4771554 -0.22647485 0.49038026 0.02448817 0.24203286 0.7792952 0.10578037 -0.13868053 -1.0466251 0.045128312 -0.5567123 -0.58710605 -0.13424943 -0.10524604 -0.18852158 -0.8358989 1.0026407 -0.51195145 0.9706517 -0.9463163 0.20674504 -0.9723579 -0.67760724 -0.12637827 0.97595704 -1.0274279 -1.1753664 0.10798681 -0.019004803 -0.3762576 -0.38042805 -1.1644535 -0.16421619 -0.73857826 0.7554986 -0.998967 -0.595795 0.15025634 0.049666747 0.027562862 0.4108936 -0.31059477 0.009850854 0.52757645 0.40029556 -0.3107936 -0.115547046 0.66648066 -0.33794582 -0.09641019 0.37529072 0.33594427 -0.15803733
196 -0.42137337 -0.99724483 0.33935592 -0.08736856 0.025434474 -0.82363844 -0.25241584 0.023624208 0.027448606 0.00935762 0.83962697 -0.66345996 0.04500571 -0.6242141 0.513977 0.27031395 0.71388876 0.8237187 -0.06345141 -0.67290074 -0.25347748 0.020388095 0.07524921 0.48846018 0.30150768 -0.24823652 -0.22379094 0.4099395 -0.0027163103 -0.15414484 0.14132863 -0.33901462 -0.3452421 -0.25314987 -0.04946414 0.7008931 0.0613478 0.14237794 0.9231816 -0.27345806 -0.26615027 0.299879 0.29795757 -0.4953671 -0.84683406 0.80474085 0.08426869 -1.3124112 0.34434187 0.7385905 0.93250227 0.36240807 -0.098771915 0.39176938 -0.13258341 0.39138907 0.036542498 1.2115018 0.2310488 0.46721938 -0.1664436 -0.27321237 0.6129957 0.4835926
164 0.46841654 -0.25731748 0.30625167 0.6069256 -0.3043363 0.6646103 0.36685774 -0.33931267 -0.76908463 1.0425264 0.27783233 -0.012034044 -0.36188203 0.29976824 0.43511844 -0.546848 0.5030955 1.0190997 0.07907168 -0.19902892 -0.07076301 -0.62767285 -1.0012354 -0.2270335 -1.1300768 -0.21633051 -0.45350292 0.8239433 -0.058071733 -0.21306062 -0.590489 0.3062097 0.003083676 0.07001866 -0.156168 -0.17614682 0.25653335 -0.05051647 0.32520342 -0.15408711 0.09946112 -0.182171 0.30455202 -0.7034053 -0.42726123 0.4162755 -0.07509164 -1.4491888 -0.1341437 0.49535483 1.1104289 0.15420288 -0.024787156 -0.113140695 -0.43979433 -0.61081535 0.49937817 -0.017931612 -0.42881632 -0.7012671 -0.048391014 -0.29056695 -0.06264264 0.6753346
191 -0.16394189 0.108782195 0.20096415 -0.007926853 0.6489702 0.013071468 -0.74765974 0.19120526 -1.0233496 0.39329672 0.16486384 -0.24321385 -0.47780025 -0.022193188 -0.6518773 0.38218 0.16865508 0.3598202 -0.026361175 -0.5041414 -0.28467736 0.1913572 -0.33937526 -0.05861977 -0.95968825 0.08616219 -0.16011745 0.10406798 -0.30729496 0.4216212 -0.2894532 -0.6364868 -0.069691025 -0.47594965 0.37003836 -0.07989441 -0.089790545 -0.5586973 -0.033650234 0.41757217 0.11109386 0.25144652 -0.21105155 -0.16992538 -0.417522 0.15930262 -0.36998862 -0.59659 0.31771928 -0.07401578 -0.2340212 -0.17341053 0.30071318 -1.1577867 -0.36381057 -0.43854627 0.1236217 0.3936964 1.0831017 0.011543455 -0.5899022 0.31494012 -0.09660833 0.18696865
47 -0.27927476 -0.6891465 0.95703477 0.16825134 -0.05003106 -0.20635767 0.10133108 0.37284204 0.7093211 0.4296661 0.6037601 -0.7065775 -0.16898744 -0.34869665 0.71650946 0.77086675 -0.31038496 -0.10488169 -0.04511355 0.56502783 -0.21823417 0.27118632 0.14887327 -0.26138508 -0.7885569 -0.37282893 -0.22455564 1.137384 -0.2210121 -0.14538103 0.07043213 0.6063225 0.06651223 -0.5697577 -0.61404306 -0.10890073 0.122270174 0.05499054 0.20251992 -0.20579295 -0.78649896 -0.13836789 0.07223074 -0.44068947 -0.4588309 0.70060134 -0.02333419 0.3166508 0.077358656 0.31788436 0.55238575 -0.10878767 -0.2939937 -0.16205925 -0.15635473 0.08444034 0.534667 0.60014516 0.18960702 -0.35760963 -0.8201525 -1.1854426 0.27036062 0.5260531
91 0.313138 0.26083294 -0.08673117 -1.0103432 0.64173067 -0.21358632 0.018757101 0.4906051 -0.1588973 0.09410785 -0.72980803 -0.27492946 -0.044042062 -0.74884343 0.24134952 -0.49290493 0.8010072 0.18890631 0.35816756 -0.2218798 0.9513959 -0.117157556 0.21086147 -0.5416124 -0.15819488 0.2417219 -0.38994843 -0.5901552 0.3237183 0.66060346 -0.85504216 0.50399107 -0.5915728 -0.4058011 -0.47713098 0.59490794 0.38089547 -0.17213872 0.35650343 -0.11715804 -0.5730097 -0.20887315 0.6211356 -0.50890344 -0.83410007 0.9032793 0.6919696 -0.65376735 0.003485653 -0.2151924 -0.32511628 0.6859601 -0.15117931 -1.2475274 -0.32028803 -0.6884165 0.14625551 0.062458232 0.832243 0.13584334 -0.6954867 -0.8750455 0.88916063 0.052163947
27 0.058348145 0.13584997 -0.09471274 -1.1338911 0.8930139 -0.07800748 0.37448817 -0.44218284 0.65843374 0.40852758 0.48896393 0.20780462 0.42261294 -0.36416572 0.5211378 0.5050375 0.16998437 0.45499456 0.4579073 1.1088624 -0.03331752 0.45979306 0.024461647 -0.8678507 -0.9917959 0.7011953 -0.24341005 -0.31325263 0.29055446 0.29579753 0.024306605 -0.28403398 -1.0139569 -0.4002016 0.14212632 0.8693769 -0.71627307 -0.6438669 0.48840362 -0.2002943 -0.5469792 -0.033006407 0.08880468 -0.17189804 -0.03819043 0.29831457 0.5714985 -0.7976402 0.24407567 0.49599114 0.69046825 0.043757837 0.4041016 -0.5627536 0.5864836 -0.6567493 0.747591 -0.23960367 -0.9808349 0.3289041 -0.5282812 -0.74245733 0.6016622 0.46144873
89 0.8622831 -0.25024128 0.38100132 0.11319235 -0.06598173 0.35521325 0.4224897 -0.36611205 -0.31833923 1.0957645 0.6471658 0.09857557 0.6234394 -0.022813056 0.6635779 -0.30543366 0.52707255 0.5535456 -0.2651713 -0.22564034 -0.23755993 -0.51849836 -0.30375996 -0.6688173 -0.9111197 -0.02967415 -0.6015793 -0.014951056 -0.38247636 -0.0187982 -0.80529344 0.26148385 -0.50390494 -0.055368096 -0.1400424 0.2798433 0.47366065 0.5219043 0.092042945 0.04624889 0.48301482 0.049401984 0.6655013 -0.21864854 -0.07675032 0.43174765 0.21138 -1.113479 -0.6084001 0.62607753 1.0331751 -0.15851796 -0.29369178 -0.47827917 -0.6207579 -0.7360223 -0.2990965 0.010610508 -0.5107292 -0.1564044 0.00016629847 -0.27377152 0.09914627 0.5659063
177 0.69496655 -0.25637236 0.62199724 -0.08294419 -0.03402444 0.5775862 0.27389604 0.063273765 -0.24439256 0.9917665 0.5152445 -0.005742446 0.39958927 -0.45855808 0.41866133 -0.54219484 0.2811057 1.2095927 0.013419205 0.056238502 -0.14501756 -0.66367507 -0.66052413 -0.19906497 -1.114034 0.20633319 -0.6116499 -0.07520787 -0.003925837 0.038393904 -0.97711617 -0.3500488 -0.09630422 0.41457385 -0.25354975 0.1058834 0.5757395 0.16646661 0.014633192 0.02561509 0.2930344 0.42703494 0.7183992 -0.43572727 0.1005993 0.1648665 0.17913495 -1.1231766 -0.16459423 0.5160851 0.9975747 -0.17232266 -0.29395062 -0.23089255 -0.48576987 -0.50442785 -0.36041546 0.12002036 -0.4807366 -0.22382088 -0.60033566 -0.076651484 -0.1815651 0.07018761
123 0.17809302 -0.0922837 -0.28325424 0.075374745 0.75700694 -0.19351672 -0.52257293 0.35786176 -1.1442425 0.2915499 -0.26854464 0.51344573 -0.04379149 0.12252225 -0.53952277 0.4837728 0.022409195 0.5050447 -0.14994417 -0.19407034 -0.5594841 0.46359155 -0.44346824 -0.44097885 -1.326007 -0.35387784 -0.4435386 0.014961517 -0.28486195 0.35786647 -0.5622107 0.2376813 -0.055074263 0.16379131 -0.34200415 -0.20732613 0.9126282 -0.23619272 -0.16213246 0.15842338 -0.40547392 0.73477405 -0.28889441 -0.58499795 -0.36409912 0.7278149 -0.120005794 -0.5547616 0.067643434 -0.044721182 -0.08525731 -0.9583257 0.065571725 -1.0854993 0.27185526 -0.99360985 -0.27678487 0.82673925 0.19586107 0.47396925 -0.60972726 -0.4046218 0.3769466 0.24019872
192 1.0493623 -0.32637596 0.6597674 -0.14356335 -0.0024817684 0.43967614 0.60211754 -0.27225274 -0.5358147 0.9820995 0.62760293 -0.11959869 0.7172826 -0.091445714 0.51676625 -0.15080187 0.8984288 0.41247702 -0.31332237 -0.2288085 -0.21521832 -0.42571628 -0.09839695 -0.7567873 -1.1149797 -0.18357274 -0.8281018 -0.07833731 -0.56881946 0.11808259 -0.95079315 0.6613233 -0.6801606 -0.043439962 -0.052631106 0.2695802 0.3596647 0.29941893 0.0100604845 0.14072198 0.28366935 0.0206111 0.71712524 -0.1346396 -0.056766916 0.5140985 0.35301057 -1.2893754 -0.54092515 0.72431684 1.1291654 -0.055588458 -0.4471481 -0.59553164 -0.62817836 -1.0436293 -0.49613386 -0.13493219 -0.64758056 0.028578725 -0.08965315 -0.34823456 0.17172988 0.686615
152 1.3672972 -0.27933916 0.9073085 -0.6300144 0.88212633 -0.5667205 0.012818564 0.90328085 -0.0071304077 0.7225145 0.41605642 -0.313047 0.21753345 -0.65572655 0.65998006 0.04570247 -0.458211 -0.35482574 -0.13404898 -0.33005944 -0.44355476 0.49684545 0.24612413 -0.9283941 -0.42041487 -0.34896857 -0.59851986 0.84301 -0.58736444 -0.16114207 0.37965888 0.80406475 -0.36941338 0.109026335 -0.18473217 -0.2648379 -0.6156005 1.3237029 0.19701807 -0.26302305 -0.1464165 0.38107935 -0.26662198 0.1661655 -0.07675185 0.90676385 0.19653435 -0.0014129485 -0.3383109 0.07385052 0.35021564 -0.47495762 -0.2861716 -0.29229644 -0.48189953 -0.041092824 0.17845626 0.7676808 0.900767 -0.40810958 -1.520819 -0.40104166 0.2785166 0.69711494
19 0.8034038 0.31996703 -0.061649498 0.27439153 0.7545405 -0.2380812 -0.77495617 -0.9827756 0.66788065 0.1463224 0.32989872 0.06189744 0.42285708 0.8062389 -0.2238454 0.124566704 -0.27237386 -0.39532596 -0.6591387 -0.58812726 -0.5500799 0.30708647 -0.5538887 -0.5757582 -0.8283505 0.44849792 -0.6434349 0.31426847 -0.16450362 0.18029107 -0.4791654 0.08964983 -0.67116755 -0.27991384 0.09406489 0.21650054 0.21021871 0.2982588 0.6063242 -1.1270539 -0.7038096 0.37405503 -1.5252527 -0.6689257 -0.09435783 1.1203144 -0.4764838 -0.93298626 -0.19932146 0.16581239 -0.013811636 -0.60153544 -0.42199448 0.26964 0.58975214 0.3333775 -0.026972147 0.31382668 0.251241 0.5635957 0.097333446 0.17764506 0.095777564 0.32205296
185 0.15193878 0.07408265 -0.26244324 0.10617461 1.4322506 -0.12587503 -0.71027625 0.38200238 -1.0444807 -0.15017357 -0.43482602 0.16026057 -0.43791008 -0.17095953 -0.47091392 0.37439597 -0.32466102 0.77098185 -0.26056376 -0.34761748 -0.20635971 0.52424395 -0.55689776 -0.78254086 -1.3256854 -0.3042417 -0.4975656 0.2626728 0.26124576 0.3515284 -0.20773052 -0.06803548 -0.06521654 0.102076635 0.020784762 -0.049592484 0.8509175 -0.11178157 -0.20618619 -0.2875257 -0.4421541 0.5194154 -0.09198552 -0.45694417 -0.3916843 0.86298454 -0.13941936 -0.38628975 0.1010786 0.15538403 -0.008577509 -0.89945155 0.14096318 -1.1036392 0.00258004 -0.9720653 0.013859422 0.96067476 0.26613185 0.30376974 -0.8047577 -0.18438323 0.6376841 0.42742273
85 0.12557206 -0.3554077 0.33913428 -0.789439 -0.19773394 -0.73873585 0.5725936 -0.20706484 0.39391285 -0.045454405 0.24114585 -0.5514836 0.63720816 -0.8252752 0.16218284 0.18192364 -0.12874447 0.5147837 0.30639824 0.3856075 -0.1442089 0.30203044 -0.08480839 0.29515028 -0.102274396 -0.28021786 -0.8302489 0.3527952 0.14669634 -0.13765466 0.09452286 -0.24383083 -0.19060242 0.20083 -0.45769256 0.50941116 -0.15904039 0.19677615 0.79989654 0.32197568 -0.25882176 0.06838624 0.47826612 0.18697074 -0.014262189 0.9039465 0.6071861 -0.9793773 -0.14097947 1.5400332 0.8337562 -0.29454705 -0.80551845 -0.4617395 0.35619238 0.29648787 -0.9331496 1.2769147 -0.070905484 0.4556563 -1.0434792 -0.25538725 0.12388011 0.11343067
72 0.35375723 -0.18890578 -0.61266327 -1.1583307 0.101205766 0.19693308 0.012472833 0.21219069 -0.21170993 -0.008752067 -0.08373792 -0.41503817 0.16290264 -0.30384317 0.3852612 -0.44467753 -0.43807417 0.31869718 0.21805991 0.042039778 0.35587564 -0.3173928 -0.42798236 -0.31690428 -0.77609766 0.38675776 -0.7923579 -0.3958615 0.87504035 -0.7047748 -0.09222176 0.16308221 -0.40186638 0.13943262 0.35328424 0.75113887 -0.2546425 0.123152204 0.72188437 -0.2787639 -0.34438196 -0.25906703 0.08487112 0.28751943 -0.56599176 0.44412667 0.72500366 -0.50467247 0.11892206 0.60664624 -0.03937959 0.035408985 -0.512557 -0.118059926 -0.092695795 -0.42907768 0.51667595 0.24945387 0.024291458 -0.45242026 -0.146362 0.04795836 0.5961383 -0.20452309
170 0.32878342 0.25138432 -0.06228591 -0.75447536 0.63075376 0.04217486 0.07401157 0.37498605 -0.08316492 0.13655938 -0.6885338 -0.23228425 -0.029183127 -0.5332204 0.30138463 -0.60324776 0.5446739 -0.018519217 0.3556936 -0.22895288 0.72409093 -0.2623042 0.07492604 -0.35989127 -0.066722095 0.30114034 -0.4346402 -0.4726839 0.3543346 0.3088726 -0.6966854 0.47683895 -0.6188252 -0.42088696 -0.23722121 0.6144428 0.2587072 -0.19544458 0.4348355 -0.09434724 -0.49100998 -0.09494345 0.5375092 -0.39844924 -0.7979896 0.8242542 0.5448411 -0.47787923 -0.10756104 -0.19758137 -0.29487675 0.7126985 -0.03565821 -0.97990966 -0.32543167 -0.6632407 0.30015954 0.16698281 0.6620808 -0.056826048 -0.4820919 -0.801094 0.83943003 0.12667812
97 1.2404823 -0.5967986 1.383696 -0.7139142 0.539733 -0.34151372 -0.020063477 0.7118141 -0.4759301 0.8915502 0.52107316 -0.10234017 0.13602051 -0.6227198 0.37322813 0.5367036 -0.4047322 -0.42964855 -0.08633062 -0.18581969 -0.49164718 0.44771442 0.060312755 -0.9046989 -0.54279906 -0.26476958 -0.51591486 0.64061284 -0.85868937 0.06279436 0.19934267 0.8463214 0.13925722 0.27721214 -0.5100306 -0.6017242 -0.3236115 1.1674515 0.0104994355 -0.012969621 0.015098373 0.53145856 -0.42223993 0.04367792 -0.1886914 0.49489027 0.10686381 -0.22841762 -0.18440717 0.021879874 0.37323573 -0.5282208 -0.19947119 -0.18903479 -0.1722094 0.11298695 -0.15483649 0.26567644 0.54355556 -0.42443898 -1.678288 -0.6072582 0.32734233 0.5089974
16 0.1784717 -0.0039371015 0.0045642755 0.17500049 0.30213165 -0.36506087 -0.71792233 -0.67569184 0.54291505 0.48052493 0.6794545 -0.26235166 0.32176623 0.6335436 0.36729094 -0.28629798 -0.34443775 -0.3604914 -0.6626894 -0.70122033 -0.7734437 -0.12985678 -1.0959907 -0.35216117 -0.77668625 0.8416313 -0.24035275 0.25975147 -0.06274672 -0.38815317 -0.22135927 -0.6744837 -0.3168304 -0.52555275 0.07139263 -0.3326174 0.26424953 0.22186573 0.35953438 -0.2859365 -0.69893616 0.3027278 -0.8418116 -0.092869684 -0.23549037 0.40722805 -0.15001123 -0.6608083 -0.92525643 0.6679 0.086620286 -0.27847806 -0.5973211 0.013066606 0.015806828 0.19724186 -0.16158853 0.13689342 1.0532118 0.060922347 -0.29133946 0.16339661 -0.2330369 0.008610531
74 0.73112565 0.23866715 -0.0051124822 0.30562988 0.634458 -0.41934854 -0.8250178 -0.83129704 0.85533714 0.1392912 0.45764416 0.025434392 0.5846765 0.70512056 -0.06815541 -0.085942715 -0.23654854 -0.20416884 -0.672766 -0.54670393 -0.6684744 0.25081414 -0.6997251 -0.62584305 -0.7693858 0.662834 -0.62499696 0.22410354 -0.28343838 0.27780852 -0.6053272 0.11039515 -0.50998145 -0.3178386 -0.25820473 0.19411422 0.38358885 0.38337335 0.24999987 -1.1203247 -0.5321206 0.36359757 -1.3597211 -0.42662024 0.12369617 1.0219882 -0.48322392 -0.79973304 -0.43021053 0.25420207 0.09051594 -0.646097 -0.5815034 0.1513987 0.16594246 0.32624045 -0.27458766 0.11811115 0.43905228 0.4582186 -0.06676812 0.24514244 -0.13147315 0.069559366
45 -0.00021025055 -0.5091841 0.26204512 -0.5814398 -0.15781094 -1.0725495 0.34562403 -0.25281 0.32261455 -0.2690475 0.5280062 -0.37628856 0.565461 -0.6954071 0.31791514 0.31620595 -0.30581808 0.4967086 0.27917877 0.05694531 -0.22336377 0.31865832 -0.26685047 0.2685737 0.089439005 0.0058710813 -0.7348621 0.35693738 -0.08949738 -0.15468797 0.29201996 -0.21074468 0.036600407 0.054522514 -0.6098921 0.45655447 -0.041735124 0.33234125 0.46740055 0.15878658 -0.15958104 0.24481682 0.38646805 0.14953363 -0.124319665 0.92815876 0.35072172 -0.8889876 -0.08171055 1.3520609 0.86724573 -0.10717199 -0.7228319 -0.32427529 0.19042401 0.37296578 -0.6745452 0.9724751 -0.06559031 0.28989384 -1.0467334 -0.32390478 0.32925862 0.26340753
31 0.5046821 -0.31784633 0.38827056 -0.668465 1.1145139 0.97816616 -0.014824554 0.054153867 -0.47575334 0.1700275 -0.43029368 -0.34828767 -0.07833144 -0.9964269 0.8466408 -1.276438 0.08267087 -0.40328828 0.27641204 -0.6608727 -0.7459504 0.02779216 -0.45465133 -0.8406274 -0.41060713 0.62955815 -0.47720823 -0.16421044 0.15005687 0.45551094 0.07478156 -0.005683402 -0.42483503 -0.5109364 0.04968997 0.8722641 0.06907553 -0.012482731 0.46952993 0.106537394 -0.60674685 0.655351 -0.47965208 0.08037949 -0.9537295 -0.067920595 0.026755575 -0.36391246 -1.3067122 -0.41258445 -0.6871812 0.42467377 -0.30559745 0.26329342 1.060136 0.18456152 -0.53453517 0.31629962 0.05375948 -0.037360992 -0.76822877 -0.5897764 0.62753904 0.31107736
93 0.23219392 -0.36005172 0.39591983 -0.84856576 0.76343584 0.1379482 -0.5815093 -0.34839976 0.14385983 0.22575638 0.45722497 0.64907813 0.17592569 0.0077331606 0.92075557 0.07011117 -0.2219738 -0.85682327 -0.5572746 0.4883284 -0.20009887 0.4800225 -0.3241236 -1.6819215 -1.2017256 1.0775452 -0.13341744 -0.56017333 -0.055416163 0.3981022 0.24609733 -0.40579665 -1.2501243 -1.1365767 0.12824829 0.64238733 -0.32968 -0.4456745 0.89428407 0.46746448 -1.0689434 0.28361025 -0.51176256 -0.05619933 -0.38005787 0.23303416 0.34732848 -0.41290414 -0.19374928 0.013658645 0.18854511 0.15959452 0.70470923 0.2863765 0.9682286 -0.096656434 0.939404 -0.45177877 -0.42792958 0.58183134 -0.74436253 -1.0728501 0.57710963 0.22156906
3 -0.04008687 -0.4275456 -0.039226774 -1.3579143 0.2163535 -0.27958304 0.2731437 -0.07121033 -0.17982833 0.60496575 -0.09013134 -0.19822356 -0.3637025 -0.3076884 0.21473779 1.1378529 -0.35834613 0.32343987 0.773584 -1.1741387 -0.33517247 -0.10325466 0.40732893 -0.08365695 -0.7666499 -0.07006777 0.22090848 0.47485048 0.6065156 1.1024125 -0.31261417 0.31353965 -0.3736164 -0.28398228 -1.2461398 0.11391651 -0.23851688 0.51387805 0.32696268 -0.20584421 -0.10223505 -0.45763394 -1.0193357 -0.04674059 -0.04883065 0.5678511 0.12867777 -1.2684622 0.31087625 -0.45059377 0.6909681 -0.53830606 0.21589842 -0.34471366 1.1058184 0.8639111 0.11904343 0.16051726 0.3280259 -0.0451304 -1.0603893 0.024681259 0.56934035 -1.1436516
140 0.5859863 0.03705034 -0.018232945 0.31456077 0.50623006 -0.48000982 -0.77819765 -0.8253105 0.8326408 0.25872886 0.6261662 -0.0037416718 0.61586046 0.67722917 0.0389762 -0.32829848 -0.15964033 -0.41298667 -0.8595463 -0.5933724 -0.7678934 0.21443453 -0.7511743 -0.48386118 -0.87866974 0.90522456 -0.5165585 0.08271457 -0.31333488 -0.0113382805 -0.5626188 -0.07065553 -0.4456485 -0.4357186 -0.0783669 0.17163825 0.29597253 0.20645349 0.2817584 -1.0174408 -0.5764572 0.5091787 -1.3220537 -0.32597646 0.09028561 0.8331066 -0.48377085 -0.8804641 -0.6425029 0.3438188 0.18689933 -0.54607475 -0.64317614 0.05372082 -0.012268001 0.23886088 -0.26872465 0.11679819 0.57469046 0.48391417 -0.06524021 0.1509312 -0.3127739 0.10177167
178 0.93079436 -0.60641694 1.0433886 -0.713806 0.42615876 -0.65086555 -0.332706 0.8297796 0.13444215 0.75253326 0.39436358 -0.20411834 0.26295832 -0.60396963 0.5553548 0.3511109 -0.08940948 -0.25831833 -0.14239258 -0.15224558 -0.36479014 0.82283306 0.26556033 -0.97662956 -0.22595385 -0.286891 -0.28164074 0.44079515 -0.6910604 0.009806966 0.2407672 0.8094936 -0.15929922 0.31244403 -0.38416767 -0.6637197 -0.42441845 1.3778646 0.21581918 -0.30984265 -0.533613 0.3637476 -0.6791919 0.2120689 -0.41961226 0.605594 0.1015073 -0.21942884 -0.19286335 0.12687004 0.6623108 -0.63283443 -0.24139646 -0.12728494 0.043687694 0.15006824 -0.08990731 0.4942375 0.79489064 -0.012275662 -1.7777722 -0.47178054 0.23069192 0.4121359
73 -0.11101651 -0.25973335 0.04296526 0.0390943 0.16297424 -0.29635775 -0.5815151 -0.52885425 0.39175388 0.6619354 0.5175309 -0.3011185 0.19118124 0.76710594 0.27948412 -0.28182113 -0.41497427 -0.41919014 -0.45125476 -0.57915896 -0.5566912 -0.3319408 -1.1386602 -0.30026904 -0.55588686 0.80517936 -0.121332414 0.20741059 0.23797588 -0.55478173 -0.286669 -0.92555153 -0.249078 -0.41711554 0.06499225 -0.65952194 0.23732454 0.050331812 0.29023293 -0.09498484 -0.5155837 0.14188737 -0.6159535 -0.11856357 -0.5538666 0.05891341 0.04696526 -0.84067684 -0.9672984 0.8077237 0.05028425 -0.36969528 -0.56389266 -0.2520535 0.15301472 0.30293134 -0.18742664 0.09565783 1.0793351 -0.092628606 -0.4367443 -0.021157917 -0.02611286 0.060373336
130 -0.14809924 -0.38865325 -0.019182045 0.41539565 0.53970623 0.17431834 -0.8412777 0.56163806 -0.99825084 -0.013407722 -0.4888992 0.0043491386 -0.44233 -0.24897057 -0.19120109 0.070651 0.18683778 0.61827856 -0.46452025 -0.61954397 -0.6320063 0.58265483 -0.3848629 -0.47813943 -1.3401417 0.07429246 0.015046838 0.07613961 -0.19694832 0.57627803 -0.4190291 -0.10800576 -0.6660181 -0.5574343 -0.04182228 0.26444316 0.5569719 -0.5778376 0.15593158 0.3883333 -0.28054374 0.6989519 -0.32865915 -0.3473683 -0.45242858 0.006141565 -0.28379986 -0.22743264 0.14242294 -0.29898283 -0.044667546 -0.5877355 0.38597912 -1.0647209 0.15203771 -0.6509509 0.07366208 0.9757559 0.5169263 0.4714773 -0.70388275 -0.08098082 -0.40965185 -0.004179308
51 0.09779946 -0.13633323 0.28402105 -0.9257901 0.758228 0.0071221422 -0.36053982 -0.49302787 0.35026842 0.18802331 0.5031072 0.6397489 0.24013172 0.09510533 0.7335104 0.3978193 -0.22957078 -0.553439 -0.19419938 0.59608364 -0.041371193 0.41256648 -0.2692541 -1.5308775 -1.1258595 0.9925217 -0.2113672 -0.5403392 0.05068934 0.363393 0.18473047 -0.31186536 -1.1599289 -0.9279477 0.07264278 0.50743 -0.39730826 -0.4661003 0.74206704 0.24901439 -0.9796897 0.12999773 -0.49784106 -0.16908687 -0.2614984 0.3193426 0.35019526 -0.528028 0.04897398 0.18823737 0.28746802 0.19939698 0.6109001 0.112699576 1.016965 -0.12691687 0.9572977 -0.6239061 -0.5941396 0.62399864 -0.7962197 -1.0384692 0.7093757 0.25609893
143 0.51460373 -0.19831674 0.35476828 -0.7424317 1.0896246 0.8081384 0.120281845 -0.012251531 -0.46881926 0.12936309 -0.39784274 -0.28794798 0.18139337 -0.95416236 0.7568608 -1.150761 0.087809615 -0.3709594 0.31032363 -0.54610264 -0.50204355 -0.075974226 -0.4074957 -0.68770695 -0.16856977 0.65689415 -0.5816252 -0.38991907 0.02277265 0.35686156 -0.04270315 0.05945573 -0.46197715 -0.3883241 0.0607301 0.81115717 0.009414722 -0.0078087198 0.37409127 0.027034331 -0.4269543 0.699779 -0.2899309 0.08862427 -0.9049912 0.05043989 -0.023751553 -0.36180407 -1.1184384 -0.29386014 -0.58977133 0.59180725 -0.33258885 0.06435773 0.893563 -0.013152202 -0.57455736 0.2466714 -0.0066637252 0.017366512 -0.7526108 -0.6670296 0.67214316 0.3052112
135 0.031147258 -1.4245062 0.87682277 -0.55460316 0.28877226 0.93229175 0.099471994 -0.47288108 -0.50414807 0.61557597 -0.84581405 -1.4710997 -0.374758 -0.05728222 -0.072147146 0.16611446 0.35523966 -0.5664381 -0.09369346 -1.4692893 -0.40571707 -0.31265917 -0.930791 -0.08770172 -0.07869049 -0.2827643 -0.5242827 0.80699855 -0.13088809 0.7424557 -0.711783 0.17967571 -0.6896873 -0.59703326 -0.074835345 0.91098714 -0.8870703 -0.5969583 0.69144773 0.24919042 -0.18360595 0.027766531 -1.3322132 0.1327887 -0.90666074 0.3921981 -0.8846028 -0.6904625 -0.20153558 -0.13076112 -0.16945176 -0.0833653 -0.10499014 0.029359616 0.9655322 0.61689705 -0.8603752 0.63895863 0.24889763 -0.4418701 -0.7070823 0.5449961 0.20619701 -0.12241665
162 0.20067698 0.12594879 -0.75252527 -0.9036073 0.38914654 -0.11231668 0.45452845 -0.3151046 0.096729375 0.31998974 0.5710558 -0.1298953 0.1703256 -0.12510185 0.47104603 -0.30872706 -0.09227166 -0.03338124 0.31854808 0.10562355 0.15272011 -0.21869858 -0.25903183 -0.72554874 -0.7568718 0.65623206 -0.4256937 -0.31166455 0.6438837 -0.43867 -0.019354725 -0.111056015 -0.5673595 -0.22895294 0.07354975 0.4492963 -0.22418863 -0.13324806 0.22785853 -0.08878512 -0.54296273 -0.16700889 -0.10127103 -0.414266 0.2231985 0.11411701 0.5354659 -0.51386493 0.108396895 0.41226715 -0.10050773 0.144418 -0.1552766 -0.3709415 0.17112605 -0.4097517 0.2134154 -0.38278928 -0.4161338 -0.46341282 -0.3847985 -0.07857865 0.50683427 0.35926586
134 0.43534294 -0.24262397 0.23448081 -0.19978574 -0.7441257 0.20031649 0.09296061 -0.28905013 -0.20817448 0.4511247 0.51914567 -0.037756998 0.12567438 -0.27327737 0.5137101 -0.12555793 0.086950324 0.42243963 -0.005261053 -0.038416494 0.013350555 -0.45501733 -0.6910404 -0.3294068 -0.6667286 0.30443457 -0.46977714 -0.21414895 -0.16429307 -0.20098723 -0.48402905 -0.047199316 -0.13149697 -0.24326123 -0.046665344 0.061256815 0.73720413 0.1781909 0.37266546 0.06679045 0.25917608 0.3124946 0.47063866 -0.17490968 -0.20829935 0.18352227 0.34468102 -0.6374901 -0.059150856 0.4763422 0.39003044 0.008531815 -0.49807787 -0.14046225 -0.31674594 -0.27075842 -0.35002556 -0.12641032 -0.42422026 -0.26953244 -0.21856639 0.112670146 0.0075461157 0.1725677
12 -0.25471443 -0.7559625 0.114480734 -0.25457907 0.017790569 -0.98818064 -0.045186605 -0.17610405 0.21196608 -0.07354856 0.6553576 -0.62591076 0.054105446 -0.6567728 0.47766876 0.5154055 0.13736188 0.75299746 0.19044712 -0.3404668 -0.35384518 0.30349332 -0.26830453 0.37516007 0.32629675 -0.13773341 -0.32643902 0.45802754 -0.16923253 -0.2480987 0.31516948 -0.2546014 -0.15454 -0.1688201 0.027681196 0.47843874 0.04325911 0.30553925 0.56716716 -0.32257706 -0.078109376 0.3527882 0.3847191 -0.13041396 -0.78976774 0.8051149 0.12212049 -0.81758827 0.24707198 0.95022976 0.7648212 0.17919436 -0.24635334 0.026826687 -0.023354487 0.049601287 -0.26135695 0.9747527 0.022636041 0.24634865 -0.27922475 -0.09652124 0.62936616 0.5399343
111 -0.62008524 -0.40706363 0.20267475 -0.8546832 -0.100428686 -0.12107656 0.16040866 -0.33025846 0.047315374 0.7193842 -0.13236122 -0.2908186 -0.7487022 -0.6761991 0.19252272 0.50063115 0.07138755 0.17050782 0.7864063 -0.559684 -0.5968965 0.26544604 0.094691865 0.24487251 -0.9529128 0.4027385 0.5879745 0.42092228 -0.055408265 1.2173263 -0.36922643 0.033518113 0.14518014 -1.1720089 -0.94817156 0.4817606 -0.016741179 -0.48342574 0.25561112 -0.2249643 0.2738682 -0.29259562 -0.7810954 0.26170677 -0.37870824 0.42627177 -0.24158333 -1.1863406 -0.10447516 -0.5661562 0.5683233 -0.1114818 0.23875402 -0.9268084 0.3592321 0.46988517 0.09425659 -0.2639953 0.6574027 0.013885417 -0.71623725 -0.27433234 -0.1434558 -0.86550784
158 0.0125698205 -1.205594 0.8643174 -0.5112942 0.21556461 0.75041085 0.060646348 -0.4907473 -0.40947852 0.55276364 -0.6536655 -1.5250797 -0.2878805 0.005700781 -0.30667078 0.42141667 0.3966025 -0.35611853 0.055501353 -1.309885 -0.31047103 -0.25635347 -0.77261806 -0.06762994 -0.17738917 -0.20657541 -0.6484429 0.6759217 -0.3535218 0.7124055 -0.8058722 0.40476498 -0.54830265 -0.6224993 -0.032806586 0.89556384 -0.9213149 -0.59274685 0.5267406 0.09455384 0.016191635 -0.13899998 -1.325231 0.097121015 -0.82637846 0.3888424 -0.84929466 -0.5941161 0.22093147 -0.16472691 -0.20292936 0.09018796 -0.15007254 -0.1390797 0.5965581 0.45466945 -0.6295276 0.35571414 0.24218406 -0.40112457 -0.59834534 0.53402925 0.15718664 -0.116748996
194 0.27171442 0.039864313 0.5350243 0.18047105 0.5154891 -0.61826545 -0.83930504 -0.7743738 0.8165227 0.5257139 1.0001482 -0.31979635 0.6784583 0.69145995 0.06718788 -0.4479594 -0.2998984 -0.766436 -1.0200626 -0.72145015 -0.42164496 -0.25881884 -0.75220037 -0.32039085 -0.66075546 1.2254503 -0.58449066 -0.033569433 -0.13286716 -0.52275103 -0.50154734 -0.7031802 -0.5747971 -0.44429156 -0.046652354 0.014010551 0.2131715 -0.13710704 0.6534133 -0.5524024 -0.68636006 0.42720145 -1.2030046 -0.24926122 0.23331583 0.9927835 -0.5847845 -0.9334154 -0.6514572 0.6941336 0.13777898 -0.19074135 -0.7225175 -0.15569115 -0.5754786 0.6402551 -0.18673731 0.32182002 1.317001 0.23459297 -0.5111121 0.06370258 -0.3906664 0.100834794
42 0.5073903 -0.12096272 0.28938517 0.63986564 -0.44768766 0.68458915 0.3965877 -0.35432917 -0.7176533 0.85659945 0.19646782 -0.1748857 -0.38517818 0.1743662 0.23704869 -0.36065477 0.77616507 1.3158832 0.43359765 -0.56463885 -0.19863741 -0.5944481 -1.1705426 -0.007872849 -1.1341451 -0.06200695 -0.45736998 0.8227522 0.049045734 -0.44777745 -0.8078869 0.70084685 -0.015888244 -0.01999336 -0.23736945 -0.0010349335 0.36969614 -0.19948259 0.38606855 -0.3555701 0.1307978 0.017790312 0.0012045098 -0.88433254 -0.13271798 0.45654598 -0.22682364 -1.5308425 0.20370132 0.33620018 1.045176 0.31253314 -0.016572244 -0.23251013 -0.5040868 -0.5019279 0.65938234 0.0409514 -0.7058711 -0.7130713 -0.23953764 -0.2843235 -0.29546908 0.5630497
190 -0.18141429 -0.3639539 1.0373077 0.091138475 0.30617 -0.06440257 -0.032975357 0.4158942 0.99000174 0.35825926 0.4801385 -0.76204705 -0.007974697 -0.37568778 0.4325941 0.9901835 -0.16684859 0.09958132 0.02562447 0.81785965 -0.081159525 0.41720724 0.17875804 -0.3682582 -0.96761405 -0.18851504 -0.33414677 0.9049219 -0.20148744 0.20785652 -0.1781111 0.74028176 0.069581956 -0.5013227 -0.82056004 0.039944015 0.0038839171 0.08356247 -0.059415493 -0.40352318 -0.73903644 -0.2353146 0.32261512 -0.49224263 -0.33143127 0.86591244 -0.110899046 0.3937144 0.16661957 0.40518266 0.68036735 -0.17685455 -0.21416837 -0.7189943 -0.5359482 -0.32398263 0.5206042 0.5046092 0.24928498 -0.3477088 -0.96341056 -1.117205 0.2660579 0.52641815
148 0.22036244 -0.567291 -0.045154866 -0.6936633 -0.50341874 -0.44527873 0.031159552 -0.09248744 0.07808991 -0.15225512 0.5715704 -0.32406563 -0.004941553 -0.48810035 0.51620257 0.25428435 -0.28663558 0.33790264 0.35014117 -0.0022546763 -0.16428638 -0.007641466 -0.3928394 0.07195881 0.07295817 0.3014905 -0.43316445 0.16665833 -0.067432664 -0.22219272 0.24136491 -0.14336768 -0.1993714 -0.51420003 -0.1987338 0.3798463 0.38066483 0.16648185 0.5075963 0.029162047 0.1844772 0.5237073 0.41447935 0.13163 -0.5097451 0.35591438 0.55245215 -0.31189778 0.10668276 0.6988206 0.23552808 -0.12546949 -0.4814527 -0.056599867 -0.176233 0.0035912748 -0.30819103 0.48090443 -0.0360453 -0.27631685 -0.440196 0.21550198 0.31290177 0.25845724
179 -0.19586869 -0.76863986 0.64243835 -0.46722645 0.16149543 0.319575 -0.48070228 -0.33159223 -0.64392704 0.45871663 0.042516097 -0.97258353 -0.38927615 0.24772416 -0.8607294 0.6789164 0.22112016 -0.53200567 -0.10886825 -0.85561913 0.331196 -0.42644912 -0.46779564 -0.072920375 -0.67059964 0.011321332 -0.46549731 0.06416335 0.11859925 0.40596357 -0.68248796 -0.13759783 0.094403066 -0.51553226 -0.008406614 0.7872709 -0.72612226 -0.6245791 0.4107827 0.36323404 -0.09418727 -0.41150746 -0.9018075 -0.23461385 -0.41213316 0.27274495 -0.40799603 -0.8722448 0.73600334 -0.23303236 -0.30682203 0.014493974 0.08916847 -0.34054813 -0.25013724 0.4929193 0.2162893 -0.019373557 0.5192284 -0.50498754 -0.540065 0.37644407 0.3822966 -0.036687836
21 -0.4858925 -0.8082459 0.32516938 0.25693926 -0.344393 -0.20266372 -0.7487515 0.15127681 0.5723994 0.704558 0.3031709 -0.2588468 -0.30908918 0.6992407 0.55587095 -0.40673822 -0.20609239 -0.41033867 -0.32905126 -0.60854894 -0.28590685 -0.21823908 -1.3934969 -0.41303295 -0.2965395 0.70288664 0.24808039 0.259655 0.5825519 -0.60687023 -0.50826705 -0.6151294 -0.4418029 -0.6971255 -0.21821961 -0.8120237 0.45484668 -0.13676593 0.21645302 0.28900445 -0.4299132 0.25482854 0.06140726 -0.45090204 -0.9487762 -0.02690202 0.28115717 -0.6978262 -0.89092374 0.6357547 0.17265199 -0.52280915 -0.10384997 -0.47188005 0.07975187 0.28055474 -0.11154873 0.5086772 0.86544234 -0.49243864 -0.62557447 -0.20527674 0.09426932 0.22388822
105 -0.6563512 -0.6759138 0.59208554 0.060383614 0.46737733 0.003959644 -0.10904568 0.5374676 0.6098975 0.9135375 0.8932546 -0.92502165 0.06069018 -0.7010387 1.3334936 1.083703 -0.17501214 0.5950497 0.09419215 0.4246288 -0.6665262 0.16869116 -0.10850137 -0.556161 -0.92452466 -0.36609203 -0.19526419 0.95552224 -0.28308493 0.16480647 0.04456824 0.03987512 -0.30288467 -0.88235855 -0.5088332 0.02414922 -0.012021507 0.27413344 -0.08574603 -0.014781471 -0.87675947 -0.16326833 0.1051235 -0.6250488 -0.720021 0.2242367 -0.433151 0.75491136 -0.21479379 0.062481184 0.196507 0.08690492 -0.11077193 -0.123555355 0.4141958 -0.17983755 0.51610285 0.6286135 0.35776192 -0.3068138 -0.7139283 -1.1191864 0.5443228 -0.042643324
79 0.66594034 -0.7261951 1.0699402 -0.29409754 0.029253287 -0.6304888 0.13017811 0.5217209 0.039723184 0.42231104 0.41251782 -0.37098902 -0.15291825 -0.5727052 0.6379566 0.35765678 -0.36655322 -0.3630847 -0.0048631607 0.1908761 -0.3815311 0.64668053 -0.09727503 -0.45524305 -0.26625746 -0.3330362 -0.20315571 1.0516006 -0.6237425 -0.36197662 0.45034108 0.76649606 0.02264556 -0.14694397 -0.47772235 -0.45171523 -0.1741057 0.5560307 0.20975813 -0.24225499 -0.5794875 0.32083002 -0.24764852 0.08373295 -0.27789167 0.6987008 0.05153848 -0.094416305 0.006251465 0.12328188 0.5016162 -0.33710748 -0.23016123 -0.102590226 -0.20919687 -0.03800872 0.16119817 0.5553301 0.27659598 -0.43776152 -1.4074509 -0.8444014 0.07293501 0.6726674
65 0.5539557 -0.32668594 0.016705735 0.23038156 -0.17824672 0.56168604 0.32655364 -0.41636983 -0.5843781 0.9621341 0.31687438 0.03712184 -0.022815466 0.08041172 0.5985733 -0.3370285 0.28306153 1.106914 0.07488927 -0.21799614 -0.15650703 -0.48678222 -0.8735016 -0.3565621 -0.93093914 0.087489896 -0.4259748 0.44054067 -0.076255254 -0.060593437 -0.5102848 0.16212983 -0.11729967 0.09574825 -0.13331804 -0.017032225 0.35981613 0.35048932 0.097559065 -0.16819075 0.4157305 0.07795421 0.4828867 -0.37619808 -0.39688507 0.20342249 -0.039941538 -0.98360115 -0.23826462 0.62268996 1.1437863 -0.029115709 -0.042437427 -0.2606572 -0.34903303 -0.7173836 0.12012374 -0.068654634 -0.550543 -0.5595893 -0.07307433 -0.083758324 0.027919602 0.50841755
11 -0.40503407 -1.156821 0.19240266 -0.005726078 0.42901757 -0.8313276 -0.36169413 0.012628052 -0.369978 0.030871255 0.90475595 -0.792134 0.044407718 -0.74042344 0.5267118 0.031879418 1.1153257 1.2227026 -0.04637503 -0.87258923 -0.45657453 0.18511194 -0.007178967 0.47592214 0.41422045 -0.18555206 -0.34048945 0.51019084 -0.27739158 0.037839234 0.3075546 -0.427439 -0.38255328 -0.36022687 -0.02787107 1.0475671 -0.14573348 -0.008081241 0.7703553 -0.33797017 -0.112763695 0.3311778 0.08822891 -0.4462682 -0.8587543 0.79258335 -0.33959815 -1.409214 0.26801008 0.74261963 0.9533312 0.46135914 0.0011925715 0.49709955 -0.33759645 0.2544599 0.02642083 1.2181724 0.37346795 0.46895033 -0.04632075 -0.13813788 0.5156866 0.5604763
127 -0.1315639 -0.1356074 0.15948026 -0.33576933 -0.63593024 -0.05780164 -0.3953505 0.014722709 0.14848886 -0.0535402 0.9961624 -0.3380375 0.094777375 -0.36522266 0.2596186 -0.14287181 0.3491429 0.54564244 0.34209645 -0.49593243 0.00671017 -0.1917464 -0.71722114 -0.26647452 -0.38635212 0.62685156 -0.5263125 -0.41308573 -0.21423149 -0.36254615 -0.30879363 0.049912676 -0.018341057 -0.6241549 0.013597847 0.15498024 0.36357927 0.28898567 0.40854096 0.48570463 0.12301717 0.44575715 0.3479926 -0.3641073 -0.68620324 -0.025842303 1.061423 -0.35308048 0.2698439 0.4351053 0.15437782 0.6678504 -0.47984964 -0.18281564 -0.2029187 0.13010308 -0.1791371 -0.014624701 0.21963908 -0.38270885 -0.77603424 0.09837136 -0.04048878 0.5173077
2 0.50606436 -0.3996851 0.34705603 0.65492415 -0.45133004 0.62267476 0.26459154 -0.3795339 -1.0643107 0.62856483 0.23356214 -0.08186583 -0.554519 0.27844167 0.23605815 -0.628878 0.80536026 1.0117728 0.21504983 -0.6985415 -0.21459548 -0.5703092 -1.3597143 -0.1252368 -1.1196233 0.028165732 -0.30156863 0.8878593 0.2897212 -0.53577244 -0.72542346 0.7307748 -0.1759686 -0.22380906 -0.48240572 0.3152565 0.47069114 -0.48852596 0.5205893 -0.2566052 -0.09142857 0.043319385 -0.09749845 -0.8465868 0.09619167 0.5012916 -0.16533028 -1.8568025 0.19691643 0.17783858 1.0287776 0.19785489 0.15826339 -0.14425804 -0.6949021 -0.50523776 0.7373471 0.091312595 -0.9716671 -0.8953342 -0.35015213 -0.31285736 -0.38802043 0.6899624
167 -0.20614545 0.01446602 0.04751585 -0.6706676 -0.17688838 0.3455681 -0.32217938 -0.32207134 0.020439258 0.7984653 -0.13293481 -0.27261037 -0.57018596 -0.71088266 -0.3755895 -0.12643206 0.5062636 -0.38293192 0.41966522 0.1460603 -0.38230133 0.7123609 -0.18731198 0.14640382 -0.85010695 0.29047978 0.37461874 0.12028918 0.16752015 0.31717625 -0.018779729 -0.43729126 0.7739482 -0.6295604 0.23771498 0.4426034 -0.61164254 -0.17922938 0.7925212 -0.21873584 -0.03011469 -0.1620915 -0.7232068 0.07032843 -0.4298966 0.2275511 -0.40401316 -1.0097511 -0.23051658 0.071694136 0.09115112 -0.35770494 0.16290113 -0.93109 -0.13912244 0.28792506 0.23015541 0.04692009 0.7268879 -0.07586781 -0.6140948 0.11027397 -0.46028936 0.02076358
75 -0.030990306 0.31186306 0.12328408 -0.073802896 -0.76782805 -0.5416926 -0.19619481 -0.06559485 0.08345151 0.51952535 0.5951821 -0.09748889 0.17526071 -0.5804347 0.6401272 0.14803387 -0.38282344 1.162832 0.5762859 0.2595077 0.22033454 -0.16584195 -0.68676025 -0.8579173 0.020683633 0.37956068 -0.9003225 -0.14855567 -0.47905633 -0.19055323 -0.22535926 -0.45702764 -0.47147202 -0.58456844 -0.37791955 0.42034146 0.13909253 0.532766 0.97832626 0.51053333 0.54821557 -0.08624475 -0.267768 -0.5181567 -0.49771369 0.06891429 0.38580853 -0.14985277 0.81927097 0.28320438 -0.49948242 0.33409342 -0.28236082 -0.4564308 0.0995278 0.5023273 0.16652156 0.30347916 0.21394256 -0.4569507 -0.8832465 0.36234447 -0.0020304276 -0.17639513
189 0.097126305 -0.20068584 -0.04354708 -0.3083998 -0.79357255 -0.58531713 -0.106311105 0.21321164 0.011853406 0.3145101 0.67960966 -0.26476333 0.04116689 -0.30870315 0.51089305 -0.04879324 -0.19060454 0.8116822 0.5340438 0.11799692 0.13846269 -0.184863 -0.43840754 -0.6868387 -0.17698292 0.45911667 -0.63453466 -0.23784298 -0.3798069 -0.45100468 -0.23864673 -0.25060222 -0.392942 -0.73849624 -0.39979982 0.22107111 0.39429092 -0.05666291 0.67792535 0.5663104 0.38188237 -0.09703427 -0.015488803 -0.32145303 -0.24532038 0.1069248 0.76662076 -0.45652485 0.3619153 0.27894157 -0.5939078 0.17697069 -0.6084996 -0.06261437 0.009718732 0.4446326 0.10534891 0.089392565 0.038001843 -0.3675453 -0.7676355 0.33227175 -0.026492914 -0.0818166
26 -0.14040034 -0.48894778 -0.04277911 -0.22348207 -0.06687134 -0.50269485 -0.42997733 -0.47940886 -0.18020786 0.34825942 0.023426006 -0.44255048 -0.11833024 -0.0381682 -0.26302782 0.42462125 -0.51901174 0.05435497 -0.13927831 -0.712839 -0.30740127 0.02024475 -0.82027376 0.066410296 -0.9912475 0.6791684 -0.018126898 -0.14409186 -0.13179258 -0.012547068 -0.35222477 -0.37774995 0.8537083 -0.28294536 0.13573602 0.042677272 -0.06324455 0.25646734 -0.087926775 0.24258435 0.04492641 -0.10146536 -0.2117586 0.18558821 -0.7538616 -0.109630466 0.3082264 -0.38082764 0.27307513 0.26356983 0.017396715 0.120760046 -0.078026794 -0.49062276 -0.5015196 -0.25607598 0.18778466 -0.28388897 0.5731438 -0.102648586 -0.32551885 0.041574623 0.16674836 -0.2937539
0 -0.095079355 -0.85623944 0.8494931 -0.47465366 0.2777541 0.51057523 -0.23389702 -0.37299743 -0.39337558 0.5666741 -0.16398016 -1.3903778 -0.30155465 0.11944582 -0.68447304 0.64887387 0.2913728 -0.42852104 0.00995217 -1.0298883 0.16210362 -0.54735947 -0.57242656 0.0350029 -0.3373939 -0.01772308 -0.6304258 0.32925463 -0.08166156 0.55397594 -0.8334717 0.00801841 -0.21798307 -0.6455953 -0.11461798 1.0075374 -0.8909212 -0.653199 0.42093286 0.3347867 0.10060783 -0.38053608 -0.88411623 -0.12699735 -0.49092415 0.4070439 -0.646492 -0.6930928 0.5868494 -0.1669299 -0.33922657 0.16348249 0.02585985 -0.44022232 -0.18859145 0.48274922 -0.11337506 0.21519732 0.56683916 -0.6622665 -0.5455781 0.55283 0.31402802 -0.12822981
102 -0.17915876 -0.58392924 0.37286466 -0.44135424 0.16681264 0.05202874 -0.44753096 -0.24773863 -0.7900094 0.39024973 0.20782071 -0.6313543 -0.30576098 0.011673421 -0.8137792 0.36767393 -0.12898518 -0.29652932 -0.20458907 -0.4816898 0.33297116 -0.410372 -0.26752582 0.14906426 -0.9401875 0.19012536 -0.55418557 -0.07537703 -0.068873994 0.42721105 -0.3712142 -0.6396195 0.4015949 -0.32959962 0.101307794 0.71249694 -0.4878192 -0.69093513 0.19668904 0.32473338 0.00020252101 -0.18319711 -0.6453555 -0.08428296 -0.34281763 0.23610726 -0.29590616 -0.7905124 0.68710065 -0.102221176 -0.2383525 -0.02833031 -0.18842539 -0.5008977 -0.45699587 0.4198003 0.1821222 -0.07339794 0.91343725 -0.36948612 -0.43270463 0.18288967 0.21664494 -0.10687019
5 -0.53968483 -0.73681426 0.8019693 0.041715417 0.14867093 -0.03671943 -0.10958669 0.6001718 0.67325336 0.6135101 0.72831786 -0.854345 -0.007910874 -0.6212821 0.9377912 1.0473181 0.053158466 0.36806938 0.06325622 0.5773622 -0.39078423 0.34482017 0.08115084 -0.39256147 -0.796141 -0.34054947 -0.23642343 0.8949021 -0.31597292 -0.035549954 0.11779332 0.3104904 -0.008945153 -0.72517014 -0.38561276 -0.14195664 -0.039981704 0.08497085 0.056094393 -0.16672504 -0.8016208 -0.0058711153 0.010559004 -0.64008474 -0.68434954 0.29666337 -0.28492668 0.63381183 0.022061838 0.3110659 0.35048133 0.011421808 -0.31727064 -0.16864184 0.10849952 -0.013960452 0.6028946 0.5696001 0.41399854 -0.19447704 -0.8327869 -1.1344327 0.3497237 0.28890666
36 -0.87856424 -0.78500676 0.35440186 0.22407779 -0.017253874 -0.7860433 -0.3026502 -0.29095846 -0.18064831 0.18255618 0.77921087 -0.75674605 -0.33813247 -0.2990471 0.20583324 0.6834783 0.6197068 1.014351 0.15449095 -1.0505586 -0.25609502 -0.16143666 -0.08792502 0.64979595 -0.021895641 -0.35566345 -0.25177735 0.46079963 0.25060627 -0.2108762 -0.17032349 -0.23429912 -0.21303628 -0.4535547 0.13753976 0.5772791 -0.06151452 0.10090957 1.4056667 -0.23678325 -0.07368384 -0.26498303 0.08342322 -0.67568487 -1.3359487 0.916001 0.13928398 -1.9946681 0.6275095 0.7325923 1.1043779 0.6481877 0.21808496 0.37987328 0.15052705 0.5218415 0.6169202 1.341548 0.12638497 0.5589747 0.0938948 -0.17644015 0.99948686 0.2978215
34 0.298688 0.039499816 -0.60736424 -0.31599644 0.2737478 0.3815653 -0.032298725 0.044927426 -0.112381436 0.05996552 -0.5194514 0.35489273 0.12139045 -0.109314285 -0.01458856 -0.43444842 -0.17784654 -0.18775114 0.38686475 -0.59639394 0.31502548 -0.37453222 -0.3488161 0.27622908 -0.24050158 0.56174475 -0.57877547 -0.56045145 0.097361036 -0.0558534 -0.71206397 0.4245678 -0.16366208 -0.29510042 -0.08618393 0.7200356 0.26598313 -0.048613764 0.38346997 -0.04635634 -0.31188998 0.6204894 0.10703337 -0.64079005 -0.860706 0.9656236 0.0072934553 -0.1596643 0.2420526 -0.5053743 -0.31342268 0.5508645 0.03959479 -0.861246 -0.002870445 -0.4262404 0.58183926 0.5028775 0.28310296 -0.24746037 -0.50059664 -0.59426624 0.542692 0.18485524
147 -0.7306327 -0.86507785 0.24991442 0.09502406 0.054370016 -0.9152061 -0.18976277 -0.13190024 0.03604034 0.04692654 0.7705661 -0.8296678 -0.18467598 -0.55796576 0.43535534 0.6236051 0.6944943 1.003344 0.031602323 -0.882133 -0.26551458 0.06042847 -0.16076888 0.5594699 0.15170807 -0.38326442 -0.17728001 0.4948562 0.1155853 -0.19970702 -0.11272416 -0.17151551 -0.1975516 -0.38419214 0.057020955 0.5513475 0.038773123 0.19486158 1.0047987 -0.35613686 -0.24719487 -0.0343624 0.30424666 -0.5256896 -1.0457199 0.92981344 -0.012620151 -1.4857819 0.45795 0.75098455 1.0410427 0.51525915 0.07786714 0.26108614 0.003862347 0.18509671 0.23699532 1.2717627 0.062073894 0.53150594 -0.03971465 -0.15343118 0.89050376 0.2998604
156 0.22424302 0.08470385 -0.44682413 -0.46113345 0.2986687 0.24362986 0.23346488 0.023654353 0.2953073 0.259425 -0.3208982 0.2957139 0.049227454 -0.048846826 0.41551736 -0.684542 0.0058423732 -0.15943268 0.20665137 -0.29574317 0.75696623 -0.74425554 -0.0869291 -0.33575588 -0.20834424 0.26982087 -0.52862895 -0.114510715 0.16198471 0.20512395 -0.56600606 0.42330936 -0.24121076 -0.18826534 -0.43631676 0.5501056 0.19832653 0.0070252353 0.42834717 -0.017111529 -0.707107 0.03625391 0.0049009365 -0.87639934 -1.0465499 0.95032865 0.7196316 -0.34899628 -0.19345863 -0.28395045 -0.39755705 0.73753405 -0.44195926 -0.3315055 0.19239612 0.17380099 0.61898905 -0.12331586 0.73504335 -0.56821036 -0.35310316 -0.9401905 0.7997455 0.4805688
198 0.13270761 0.2306805 -0.77134836 -0.22447997 0.37670502 0.020323798 0.23065211 0.1053137 -0.22851232 -0.09573138 -0.4333477 0.14846946 -0.07137486 0.00024546348 -0.17358708 -0.06882936 -0.3067797 0.028999083 0.55716115 -0.7955142 0.06039355 -0.20562464 -0.28170326 0.45445454 -0.415107 0.35348904 -0.5798155 -0.18455145 -0.009096535 -0.45806777 -0.48829687 0.5831186 -0.5633844 -0.28525406 0.18366002 0.37030792 0.09656747 -0.41460425 0.30887836 -0.042957127 -0.3313572 0.69983125 -0.17838721 -0.66375273 -0.587809 1.0128864 -0.09342016 -0.18443948 0.5164713 -0.34378088 -0.45709223 0.5137842 0.0793521 -1.0915356 0.34289825 -0.5840907 0.5514958 0.75442594 0.38410935 -0.13194114 -0.5439718 -0.3537021 0.3902414 0.20429134
66 -0.33060497 0.0022275504 0.5253045 -0.499554 -0.3410953 -0.32781076 0.058261182 -0.2374328 0.11400945 0.669724 0.016896516 -0.30312192 -0.66414887 -0.61340004 -0.30195773 0.053861227 0.6188013 -0.012006872 0.5086057 0.4109665 -0.4101911 0.93614393 0.17914726 -0.007467107 -1.2423353 0.3709541 0.27072158 0.2349879 -0.8064282 0.40423134 -0.10601447 -0.13833381 0.28337947 -1.0375699 0.41522402 0.25609162 -0.715512 -1.0591109 0.6360205 -0.127629 0.040147014 -0.12528372 -0.6165201 0.28914967 -0.37917984 0.3038692 -0.22446102 -1.0252683 0.29087555 -0.12770854 0.061475053 0.17607531 0.14908579 -1.3526877 -0.45911986 -0.23846558 0.39506704 -0.32468262 0.8840828 0.5316902 -0.8320166 -0.1901965 -0.7388449 0.1310332
138 0.17026241 0.16036569 0.014281704 -1.0345656 0.72928923 -0.22886062 0.087200515 0.5560381 -0.07837039 0.19556214 -0.88219756 -0.38921762 0.004569682 -0.84004414 0.22404572 -0.448665 0.91247165 0.24515362 0.35104436 -0.10288131 0.98978364 -0.07771364 0.2647764 -0.5384224 -0.18968873 0.24452578 -0.4339707 -0.6561917 0.3786973 0.64108217 -0.9345065 0.45738545 -0.60442764 -0.34357566 -0.47019106 0.68620914 0.33103642 -0.29925668 0.36819774 -0.09884447 -0.5404076 -0.19808434 0.69789255 -0.48510867 -0.8367918 0.96490055 0.55075026 -0.6663961 -0.00016801043 -0.04701494 -0.16764489 0.6676632 -0.106497705 -1.474199 -0.42489862 -0.8211886 0.08058981 0.13497923 0.804735 0.21505705 -0.765655 -0.92811406 0.9675656 0.01508009
39 -0.15692645 -0.10430064 1.3384593 0.17119916 0.7353634 -0.056596827 -0.028474668 0.30115443 1.180746 0.5871442 0.69869536 -0.9045882 0.1698957 -0.06715478 0.20822525 1.0892289 -0.2234799 0.13784197 -0.061149355 0.8659332 0.14657836 0.00053802406 0.22316645 -0.4282716 -1.1120105 0.090487555 -0.6618614 0.7130666 -0.2976858 0.35039797 -0.54623055 0.52250516 -0.19695508 -0.5182219 -0.9051236 0.19198251 -0.054608714 -0.20659117 -0.2078385 -0.32057968 -0.50307494 -0.4183212 0.67572045 -0.4509984 -0.1250128 1.228096 -0.19820476 0.28006506 0.1855627 0.6423225 0.821979 -0.033278894 -0.15407841 -1.2619334 -1.1922065 -0.54790324 0.4973932 0.49034134 0.56352746 -0.44054183 -0.93974054 -1.0525241 0.37773305 0.55824625
165 0.13975033 0.16182049 -0.117936805 -1.2421726 0.7788226 -0.12187351 0.4029782 -0.32534567 0.72096264 0.5388538 0.38686076 0.17427348 0.45275092 -0.49014506 0.57018006 0.5294125 0.5982497 0.5776049 0.554644 1.15136 0.06003199 0.57607216 0.031288624 -1.0131809 -0.8692949 0.6449302 -0.25632894 -0.3843165 0.20872012 0.45933753 -0.14436023 -0.1947929 -1.1941725 -0.44540754 0.00874695 0.89074916 -0.69294596 -0.6899263 0.5261045 -0.102217935 -0.60038406 0.003557688 0.09526143 -0.3709543 0.08561199 0.32582107 0.49435902 -0.83527035 0.37161937 0.44052622 0.6454877 0.074588 0.44838145 -0.6656462 0.6600533 -0.6352356 0.66476786 -0.31872004 -0.9819685 0.3873961 -0.64335716 -0.8173638 0.542927 0.34332737
166 -0.4023193 -0.1013692 0.51076967 -0.6519265 -0.3542721 -0.29960808 0.08065671 -0.21422496 0.26942518 0.8034504 0.05148774 -0.53008676 -0.7556213 -0.6386479 -0.26058578 0.12511426 0.5746949 0.08810693 0.6164103 0.59139055 -0.4022657 0.87734103 0.1835742 -0.07599097 -1.405685 0.39086863 0.24870037 0.27321944 -0.634316 0.45083758 -0.17608303 -0.15117033 0.29530713 -1.0868306 0.40039098 0.385504 -0.72937006 -1.163978 0.68888813 -0.21695675 0.009976386 -0.28460255 -0.6348077 0.2736288 -0.46650386 0.19155906 -0.09011136 -1.0222442 0.32244036 -0.117788605 -0.018970106 0.075794905 0.07159217 -1.237771 -0.4794511 -0.21132755 0.4610437 -0.39840055 0.8598101 0.426669 -0.69633114 -0.14289413 -0.5967774 0.027321838
56 -0.050658 -0.14111502 1.2914175 0.02386246 0.64674824 -0.094868414 0.09836351 0.34174272 1.1266711 0.6142469 0.83905905 -0.9175907 0.17074881 -0.1402139 0.3056059 1.1161501 -0.36801186 -0.03190049 0.023733186 0.8860816 0.058543574 0.021567758 0.23855081 -0.4524123 -1.1525197 0.0662022 -0.7161466 0.7679132 -0.32763088 0.20281333 -0.47870037 0.669879 -0.18193772 -0.6031832 -0.84426725 0.20569456 -0.06605055 -0.15553914 -0.24651518 -0.28844106 -0.5282586 -0.39704445 0.6052252 -0.38906455 -0.09395042 1.1775604 -0.057724185 0.38501254 0.20045598 0.5215838 0.6621612 -0.05680891 -0.24501947 -1.2119243 -1.117267 -0.5573966 0.5096284 0.4132847 0.4535118 -0.60192734 -0.9619701 -1.0594586 0.42564356 0.594717
32 0.17187111 0.10392726 -0.41156003 -0.98192024 0.13107762 -0.05091553 0.18952863 -0.029140923 -0.033591196 0.017685598 0.24792838 -0.37293124 0.122627765 0.011721017 0.32636473 -0.36714506 -0.21429454 0.23379873 0.47851557 -0.15077356 0.3578897 -0.49918917 -0.38663867 -0.362746 -0.656218 0.7476779 -0.79015446 -0.36415008 0.82036644 -0.47218624 -0.26935312 0.206699 -0.5064937 -0.18971607 0.16822852 0.33110157 -0.0027756346 -0.19905886 0.35832077 -0.19297715 -0.383882 -0.130744 0.015813 -0.02126008 -0.27352658 0.03250224 0.92469245 -0.42595568 0.13338186 0.46326497 -0.015303971 0.29243398 -0.55355054 -0.3832173 -0.13815719 -0.26190948 0.3891673 -0.16388908 -0.0051502124 -0.3955843 -0.3600035 -0.1874909 0.59487945 0.068420984
24 0.10961767 -0.46289337 0.25691158 -0.8385352 -0.10861346 -0.9111975 0.5718498 -0.16947362 0.3992778 -0.065383 0.2752828 -0.45280066 0.6500808 -0.8709721 0.17695935 0.20155506 -0.11698854 0.54784846 0.29567233 0.37343055 -0.14970836 0.3866213 -0.035397224 0.2352263 -0.19989093 -0.25902107 -0.7923683 0.372495 0.22051638 -0.060766075 0.11625148 -0.22809035 -0.013487803 0.24672928 -0.70755345 0.574744 -0.108199984 0.16956341 0.6614595 0.2334831 -0.33244544 -0.008906781 0.43188953 0.18781967 0.15405709 1.0557791 0.5057636 -1.1378409 -0.26413304 1.554301 0.9262485 -0.49769786 -0.8348417 -0.50679684 0.23386106 0.38395724 -0.9146464 1.1638722 -0.046162423 0.48494866 -1.1061568 -0.336921 0.19900204 0.03745393
15 -0.50370026 -0.3717291 0.40951884 -0.047114346 0.18933047 -0.60828936 -0.31619802 0.09219743 -0.19853587 1.0536942 -0.4825145 0.30350205 0.50793576 -0.6650761 0.43604058 -0.3345144 -0.7536211 1.3748058 0.3141546 0.89468175 0.10109898 0.07499008 -0.10274061 -1.3370112 -0.56421256 0.23329595 -0.9773523 -0.5225443 -0.461876 0.27820525 -0.36794776 -0.7763812 -0.19371417 0.047338165 -0.24790268 0.9601602 0.04083139 0.076488145 1.0886378 0.13919915 0.7614649 -0.26794836 -0.9389298 -0.05110304 -0.9152938 -0.1948106 0.21485563 -0.43475828 0.29029065 0.11735558 -0.42728838 -0.3767359 -0.33933768 -0.33713433 0.41532493 0.8391372 0.3844194 0.31554502 0.180263 0.82305026 -0.8807969 -0.8686976 0.33717272 -0.38378897
128 0.49394038 -0.11140328 0.34496248 -0.814132 0.93504614 0.607267 0.4454868 -0.2794952 -0.7725014 0.22655666 -0.553519 -0.09327673 0.6824033 -0.9071727 0.32342207 -1.1311896 0.5720747 -0.08894406 0.053645007 -0.24273829 -0.083469674 -0.06889826 -0.25769055 -0.9022625 -0.392324 0.52761626 -0.6930249 -0.7632788 -0.40769163 0.6555067 -0.67309284 0.34457746 -0.25571743 0.04686534 -0.1333526 0.49388802 0.1894891 -0.21209358 0.057196062 -0.349441 -0.021920241 0.78278476 -0.54125774 -0.14812125 -0.8118557 -0.0970056 0.006403878 -0.90209883 -0.86972183 -0.1057636 -0.28010446 0.5487499 -0.760395 -0.40006435 0.8591438 -0.23634289 -1.0328153 -0.24645674 -0.34881762 0.442797 -0.94054174 -0.9836594 0.405746 0.50398636
52 0.42688787 0.19550957 -0.19088973 0.018056555 0.8317241 -0.20865029 -0.6056662 0.3316927 -0.9839315 0.24589017 -0.29922798 0.6737926 -0.031080881 -0.115596056 -0.58159745 0.40169272 -0.09619681 0.833331 -0.07992002 -0.01270493 -0.496068 0.5001963 -0.5810354 -0.36178237 -1.3901178 -0.21231835 -0.3864846 -0.02109389 -0.285104 0.64251256 -0.6129642 0.090971716 0.14519289 0.27930307 -0.4872347 -0.259326 1.0632832 -0.087555185 -0.074854195 -0.055015557 -0.41458908 0.959716 -0.16788013 -0.755157 -0.28087354 0.91045076 -0.1903401 -0.66505194 0.21221825 -0.0933819 0.0066159284 -0.85508424 0.19777966 -0.884279 0.3330705 -0.9634191 -0.33851197 0.8751042 0.17429522 0.5988541 -0.8173816 -0.38896683 0.3009343 0.021997787
41 1.2194215 -0.67839205 1.3705648 -0.876735 0.7389997 -0.37991494 0.07123213 0.7689069 -0.67924374 1.0287168 0.5591376 1.4238578e-05 0.17582066 -0.60607404 0.246239 0.6865855 -0.40292895 -0.39267063 -0.13999422 0.012320761 -0.38781905 0.43068603 0.15431817 -1.0934416 -0.76510745 -0.29520863 -0.575395 0.5820567 -0.85258436 0.06938466 0.22254848 0.77873725 0.21909419 0.44395083 -0.43607366 -0.5751 -0.5480321 1.0246012 -0.11059656 0.08546993 0.105457455 0.41427842 -0.3470988 -0.024232546 -0.1048412 0.34472254 0.19889124 -0.32599348 -0.08491395 0.099304155 0.34159717 -0.58412325 -0.14309645 -0.28051248 -0.24037333 0.019589541 -0.002156517 0.028257236 0.47967255 -0.41594726 -1.6556178 -0.74721587 0.5011564 0.58137465
6 0.573891 -0.010032507 0.37807876 -0.8724006 0.9696586 0.6007739 0.46798962 -0.30886716 -0.7623761 0.13128951 -0.6096485 -0.05402359 0.61968815 -0.96580905 0.39139533 -1.1551052 0.56699646 -0.09026106 0.1528786 -0.18286233 -0.16344897 -0.01210282 -0.3519761 -0.8478346 -0.24609296 0.5810087 -0.60787565 -0.68554944 -0.33928102 0.6170865 -0.56032765 0.29823342 -0.4398775 -0.034442563 -0.17516875 0.5403887 0.1924568 -0.30813867 0.21110672 -0.36670482 -0.069339946 0.8921731 -0.49911416 -0.08052556 -0.7073098 -0.0061354293 -0.0024755339 -0.94009674 -0.8784257 -0.08343459 -0.29332364 0.56294376 -0.62384325 -0.393907 0.88379055 -0.29978174 -1.034752 -0.11033056 -0.44919494 0.43845543 -1.0038534 -0.9365613 0.3418895 0.48561594
9 1.1636063 -0.19742881 0.6405626 -0.13199407 0.053539105 0.31379718 0.6218784 -0.29240426 -0.37591243 0.9797152 0.73461735 -0.09000415 0.8565806 -0.28765017 0.70972353 -0.188646 0.85624355 0.55210775 -0.31928894 -0.09136167 -0.19011937 -0.3382774 -0.036818553 -0.8502105 -1.10914 -0.12737103 -0.8806243 -0.082700714 -0.5832614 0.1691709 -0.9656762 0.683006 -0.75600904 -0.14166987 -0.14050604 0.44784486 0.51503587 0.4021645 0.064684026 -0.09001144 0.3246972 0.07806136 0.76081663 -0.19062059 0.10223117 0.6791964 0.225057 -1.1975808 -0.52409315 0.6840139 1.1395754 -0.06892445 -0.5172601 -0.6101049 -0.75368625 -1.049538 -0.5051251 -0.06890501 -0.7411875 0.07940298 -0.083645895 -0.4130007 0.16099142 0.67675036
90 0.6248041 -0.29579142 0.729697 0.00023026281 -0.08581271 0.539159 0.28017133 -0.045376327 -0.006673416 1.0748255 0.21955606 -0.16377068 0.39204723 -0.34756342 0.41303527 -0.43768668 0.42769364 1.3151981 0.11181562 0.083878145 -0.05636635 -0.54919624 -0.8103412 -0.43689764 -0.9941323 0.3809909 -0.45389053 -0.15738414 0.055847622 0.055895645 -1.0819032 -0.22477871 -0.3067238 0.37699857 -0.23439218 0.04810902 0.4867676 0.122326426 0.041164182 -0.1356084 0.54644597 0.45171994 0.6429823 -0.35914794 0.048672583 -0.05509919 0.073198356 -1.1410239 -0.13928528 0.6687158 1.0997447 -0.21940006 -0.1646885 -0.5373217 -0.4514074 -0.55497205 -0.45065865 0.10454176 -0.7373724 -0.1345066 -0.72363997 -0.07794905 -0.25065902 0.17970271
70 -0.1947462 -0.09257633 1.3688536 0.18947934 0.7743245 0.03188026 -0.038261563 0.37757683 1.1226186 0.70503086 0.72640324 -1.0078291 0.23383063 -0.17747499 0.24204485 1.0986364 -0.21788183 0.26355448 -0.023184218 0.9458051 0.09787728 -0.027762948 0.28262678 -0.58447117 -1.2824475 0.019111596 -0.7999488 0.67610943 -0.41737035 0.40539354 -0.5685257 0.5498409 -0.111811034 -0.5485276 -0.83461666 0.24352531 -0.075794205 -0.14762361 -0.26658145 -0.26947117 -0.42425373 -0.5006117 0.6113603 -0.46148658 -0.21219288 1.0380886 -0.14891237 0.4459454 0.1655889 0.60066164 0.65474683 0.0047910297 -0.27442127 -1.2026 -1.1676583 -0.54352474 0.512964 0.38499528 0.6146517 -0.42310956 -0.90108454 -1.0852927 0.40524176 0.52743655
108 0.51148427 0.0771979 -0.8298835 -0.9261761 0.72411984 -0.03694418 0.171064 -0.38659298 0.3072734 0.48990268 0.57092595 0.23259108 0.30062118 -0.13761215 0.56230116 -0.4965229 0.093154706 -0.006341675 0.12685534 0.5741887 -0.036012992 0.23379722 -0.42487127 -1.0556235 -0.8863337 0.8266898 -0.24837376 -0.3600979 0.55670124 -0.19514823 0.029732702 -0.3548537 -0.7524566 -0.339729 0.009944107 0.8304454 -0.38174415 -0.21338508 0.31019852 -0.07591659 -0.59816295 -0.0036653543 -0.10952645 -0.41721952 0.25847697 0.18421525 0.44088987 -0.68730855 -0.12537447 0.36724415 0.036359068 -0.14509663 0.24171802 -0.2659506 0.29823858 -0.55240256 0.41411808 -0.35139075 -0.6358736 -0.39455602 -0.34812352 -0.19857593 0.42984384 0.4442768
199 0.6444837 -0.48894462 0.24805765 0.06404998 -0.13984373 0.41863218 0.34123582 -0.21744984 -0.33414525 1.0361853 0.5331776 0.16326058 0.34497398 -0.021913521 0.5606072 -0.45056328 0.38100636 0.77825904 -0.15964544 -0.06649809 -0.18284106 -0.54056126 -0.6777387 -0.43230957 -0.8039567 0.17828616 -0.48851225 -0.04610908 -0.24221036 -0.11052138 -0.6443277 -0.20250165 -0.2567099 0.17904578 -0.020595325 0.009761691 0.38904077 0.20581293 0.054928295 0.18584369 0.46561283 0.41409498 0.68066925 -0.27494204 -0.24972257 0.18341914 0.123061605 -1.0460867 -0.48608428 0.7174714 0.9758977 -0.21099387 -0.18218297 -0.31704557 -0.3208281 -0.62154317 -0.34432834 0.13548148 -0.45253378 -0.28536853 -0.2686339 -0.039052702 0.024632985 0.51350456
109 -0.06755655 0.15324758 -0.43582675 0.20078488 1.3723111 -0.013546472 -0.76096517 0.35800886 -0.9588165 -0.20752394 -0.41862944 0.2394699 -0.31623426 -0.0012808035 -0.37333333 0.43838656 -0.13378496 0.9673399 -0.17186716 -0.6023721 -0.25531322 0.47475556 -0.3777195 -0.8729889 -1.4731823 -0.2966195 -0.60809976 0.017485708 0.30448508 0.5587056 -0.34460887 -0.03237284 -0.14446777 0.16118553 -0.24910735 -0.049928643 0.90803474 0.0859984 -0.3164681 -0.22678222 -0.4361027 0.19062237 -0.09642127 -0.50053316 -0.44080657 0.78150976 -0.053059462 -0.39567828 -0.02363171 0.15466279 0.113144316 -0.9745907 -0.115874745 -1.322325 -0.04087884 -0.8788663 0.013951418 0.8435353 0.46309403 0.40571195 -0.7109086 -0.05138318 0.6953575 0.28298637
107 1.5700629 -0.27320617 0.8932498 -0.6064854 0.90475935 -0.7744049 -0.04274874 0.7777044 0.10569194 0.75964266 0.39980105 -0.35530466 0.41128424 -0.62431496 0.57674146 0.13315558 -0.39366186 -0.30227116 -0.22940907 -0.39965957 -0.35627416 0.5857726 0.26293033 -1.037072 -0.41802597 -0.3412787 -0.70050794 0.78222513 -0.64301294 -0.12865192 0.2437468 0.8167234 -0.43495274 0.06600562 -0.14134285 -0.17121422 -0.5782468 1.4477973 0.21376012 -0.3461802 -0.039000988 0.33512172 -0.38021326 0.15564084 0.029777804 1.0065036 0.17451014 -0.05997696 -0.19676611 0.13367124 0.3676273 -0.53416204 -0.35248065 -0.21641001 -0.56422746 0.010221308 0.19158176 0.6451683 0.7892482 -0.18253528 -1.4137124 -0.3750648 0.32592267 0.7119659
20 -0.035338957 -0.47026545 -0.16989316 -1.4120678 0.35461837 -0.15181853 0.28293127 -0.013384099 -0.11463748 0.733766 -0.08913627 -0.21337935 -0.30796176 -0.26142815 0.41853705 1.0568254 -0.38349542 0.311702 0.7005587 -1.1218001 -0.50274825 -0.03045421 0.34630108 -0.16380537 -0.7792863 -0.063329965 0.3308398 0.59012896 0.73654586 0.9929716 -0.18632525 0.10338148 -0.64534724 -0.26397392 -1.086877 -0.037171803 -0.37628722 0.5383388 0.3346985 -0.18262652 -0.2395959 -0.38627604 -1.0676206 0.02597133 -0.059673168 0.41588315 0.026732637 -1.1759934 0.08146241 -0.33948177 0.75012475 -0.6689307 0.26940694 -0.29888657 1.4120296 0.8219694 0.11488949 0.33364642 0.36831477 -0.010804922 -1.0700393 0.042373583 0.47509444 -1.1766028
1 0.12484508 -0.1358879 -0.27342123 0.02839574 0.8844628 -0.30624145 -0.6308086 0.30504993 -1.5363003 0.029337376 -0.5695927 0.5945376 -0.4735275 0.19721128 -0.701777 0.5686696 -0.0731644 0.6452463 -0.17532182 -0.55353117 0.044160053 0.5272957 -0.2591711 -0.8644602 -1.3522972 -0.42697147 -0.40714833 0.012400705 0.23494475 0.067032 -0.22952604 0.073715895 -0.1594009 0.4589384 0.17035097 -0.5384845 0.8216854 -0.15108904 0.25532562 0.0056671216 -0.35634196 0.446403 -0.44538346 -0.86866766 -0.75331175 0.535855 0.3048623 -1.202147 0.5112012 0.2808488 0.09549561 -0.87679994 0.07564741 -0.90039694 0.6519924 -0.54288167 0.24546309 0.6683046 0.087320216 0.7052911 -0.72979736 -0.4669123 0.8175052 0.6813175
76 0.5416813 -0.4040121 0.22985539 0.11760421 -0.28517574 0.3518011 0.24677047 -0.29772118 -0.31935212 0.992148 0.63661164 0.14209339 0.34572732 -0.15580128 0.61221045 -0.34097418 0.31279558 0.7670655 -0.16698773 -0.017535698 -0.15546831 -0.4961603 -0.68008757 -0.53168863 -0.90592945 0.22591086 -0.5052286 -0.114142075 -0.21164483 -0.093133286 -0.64150727 -0.118367 -0.09948279 0.03998586 -0.120311104 0.1249994 0.6427127 0.32636717 0.076962 0.110323355 0.5015252 0.32337686 0.72899586 -0.29540226 -0.23404314 0.22434594 0.123245694 -0.97748363 -0.5125519 0.74935293 0.9581892 -0.2199871 -0.3001349 -0.40674263 -0.4792783 -0.5903777 -0.37037057 0.055475924 -0.56109875 -0.3116976 -0.207795 -0.08016884 0.084766515 0.5235806
64 0.4151005 -0.28006268 0.22087589 -0.8601678 0.04780056 0.3965041 -0.54399973 0.081369855 0.5698175 1.061617 -0.26380655 0.01781523 -0.3688768 -0.7592155 -0.27306637 -0.66372186 0.79154253 -0.79931134 0.18071257 0.015808117 -0.2940323 1.0885206 -0.39071247 -0.5087128 -0.7586086 0.59123534 0.30754665 -0.19093901 0.45621848 -0.13908565 0.069340855 -0.006892906 0.84340674 0.072442815 0.20150934 0.45315593 -1.0270386 0.5827628 1.1095498 -0.35159805 -0.4362676 0.23481877 -1.1625487 -0.13981444 -0.2649828 0.36891568 -0.40598726 -1.0341388 -0.57651365 0.26711833 0.33499062 -0.7242946 0.28236994 -0.5820796 -0.14259851 0.5458661 0.48337042 0.12426454 0.64600366 -0.31763974 -1.400831 0.2940243 -0.30114 0.40053403
142 0.8613249 -0.6365299 1.1091858 -0.7758647 0.56512874 -0.5446279 -0.32575485 0.8653757 0.05774437 0.8779136 0.36807194 -0.13508813 0.30906066 -0.626124 0.7919348 0.36757764 -0.3109467 -0.38871863 -0.21281649 -0.20444137 -0.4658813 0.66770965 0.3192347 -1.0909138 -0.28908026 -0.20529406 -0.2192249 0.3901239 -0.51403385 -0.076464124 0.3188374 0.6497461 -0.38972858 0.30932462 -0.35903728 -0.7331428 -0.36191484 1.4769562 0.3460169 -0.24119028 -0.55023074 0.37164757 -0.6346522 0.3566664 -0.470492 0.48659614 0.20580626 -0.18945383 -0.44245678 0.15987715 0.744036 -0.7297798 -0.13092612 -0.14148305 0.1946649 0.16769098 -0.03668193 0.6967508 0.8154501 0.0017275395 -1.80604 -0.65180284 0.28848106 0.28270242
99 0.5114476 -0.07852545 0.48934746 -0.92678446 0.9438783 0.57971954 0.44226146 -0.41768518 -0.62473404 0.16224444 -0.56237066 -0.13248271 0.6538349 -0.9153639 0.3983042 -1.0190867 0.4645915 -0.14667858 0.1619567 -0.1556709 -0.18228498 -0.025110137 -0.48323122 -0.92185295 -0.32544827 0.6120267 -0.62235194 -0.69138044 -0.3178935 0.72254264 -0.61368024 0.29257467 -0.23888792 -0.052329894 -0.25877476 0.4357064 0.26219428 -0.23441167 0.0013007062 -0.42152593 -0.07396012 0.7741329 -0.5507246 -0.009705742 -0.67634 -0.107597135 -0.032399874 -0.8749098 -1.0061969 -0.052564546 -0.27757078 0.47326624 -0.76475394 -0.32416517 0.9313493 -0.1822561 -1.1697831 -0.3753632 -0.5068571 0.4492059 -1.0227151 -0.99040514 0.42968616 0.37286
131 0.1268407 -0.088376716 -0.2815334 0.020177087 0.9192055 -0.18437158 -0.6675744 0.23553653 -1.4716619 0.022504732 -0.5771319 0.39616555 -0.35110292 0.20521905 -0.81371224 0.6081263 -0.10674888 0.6925083 -0.15554132 -0.5401176 0.07567088 0.48653427 -0.33641627 -0.85570925 -1.3697362 -0.36621293 -0.5447564 0.01009339 0.2176583 0.04596896 -0.236058 0.06240194 -0.09882536 0.5179835 0.21180393 -0.48516616 0.67769545 -0.108329676 0.16010024 -0.0014062952 -0.31229123 0.38029212 -0.535764 -0.86954707 -0.7212009 0.41944847 0.19313146 -1.0746928 0.53818566 0.41574752 0.0019809094 -0.8277193 -0.06881867 -0.8448394 0.6871914 -0.46440515 0.16531712 0.5601399 0.1173833 0.6508997 -0.71002305 -0.36616445 0.75024796 0.658617
49 0.48122153 0.03339267 -0.73790675 -1.0203407 0.67187047 -0.060236935 0.082000636 -0.4574992 0.42031857 0.3483869 0.49774468 0.08778945 0.33515283 -0.10530194 0.49633 -0.22120441 0.14612712 0.107886866 0.04046095 0.5847344 -0.0052319956 0.33742598 -0.5595482 -1.0863087 -1.0541553 0.8016421 -0.24945183 -0.3470773 0.53846085 -0.09473091 -0.031925242 -0.22846085 -0.7465683 -0.365707 0.07362339 0.8199473 -0.45370394 -0.18644933 0.29407856 -0.085995995 -0.64944947 -0.16139816 0.038867064 -0.24199001 0.118641615 0.23800324 0.61369723 -0.74769014 -0.07640004 0.5979881 0.25781986 -0.10097033 0.21033138 -0.29502398 0.26541272 -0.7466326 0.42897815 -0.5002344 -0.6878333 -0.23982623 -0.2643702 -0.18844716 0.4407264 0.37244034
133 0.65263116 -0.42632955 0.32661027 0.15036532 -0.18065728 0.38897046 0.3279707 -0.24376984 -0.24796307 1.0674585 0.58837754 0.15743923 0.3689833 -0.11462811 0.59591204 -0.39139882 0.37052736 0.8124756 -0.08804403 0.022933008 -0.23148598 -0.5364298 -0.5956906 -0.4326015 -0.8139929 0.29105577 -0.4716605 -0.04310795 -0.2300147 -0.11232486 -0.58507705 -0.14794633 -0.20509425 0.09551961 -0.14801356 0.10990185 0.53360397 0.24109474 0.15887624 0.09578419 0.5551894 0.47894382 0.71337146 -0.33424357 -0.14662457 0.19580792 0.06976184 -1.0152706 -0.4890012 0.78204036 1.0077543 -0.23589493 -0.17039254 -0.37126663 -0.49943197 -0.5714677 -0.3099426 0.2342625 -0.5287499 -0.2634805 -0.27462906 -0.108760536 -0.0009885224 0.54187584
136 0.50249416 -0.32078817 -0.8156982 -1.3778486 0.15239863 -0.06307545 0.07304494 0.09708115 -0.23966245 -0.093075015 -0.078510426 -0.22119585 0.31030464 -0.41863337 0.2526083 -0.27120662 -0.5665621 0.22639202 0.20716012 -0.014739132 0.3398779 -0.14855304 -0.468307 -0.27471435 -0.8456301 0.42650384 -0.89415836 -0.48404533 0.5935036 -0.527722 -0.11074899 0.32350585 -0.027257642 0.20614381 0.22857551 0.8779913 -0.3309868 0.27859607 0.5337778 -0.26114658 -0.31971338 -0.123920485 0.08874708 0.34486508 -0.6199431 0.65960294 0.79961455 -0.52567333 0.23918255 0.58508104 0.060212 -0.020908158 -0.6014994 -0.20848957 -0.18854444 -0.48578757 0.50266206 0.060775183 0.0046066744 -0.42011663 -0.28389797 -0.04802311 0.7626691 -0.16588295
48 0.17678857 0.01281034 -0.33821747 -1.0578899 0.79627615 -0.1082068 0.012546167 -0.40226725 0.537498 0.21388595 0.3155266 0.45574734 0.41188192 -0.16900392 0.52542514 0.28697574 0.20602135 0.13390489 0.07911233 0.82295775 0.11091217 0.6171183 -0.2042041 -1.3033688 -0.9803616 0.7497061 -0.20150033 -0.57433146 0.2401215 0.34065098 0.06795747 -0.11876319 -0.9061178 -0.44235072 -0.024965487 0.77209157 -0.6207417 -0.2518904 0.53371143 0.00872763 -0.6593779 -0.09874531 -0.029873488 -0.26250917 -0.15869658 0.39977983 0.55458874 -0.71201974 0.16101097 0.5506959 0.5895126 0.022023583 0.5008099 -0.31994858 0.6690958 -0.60813403 0.75459695 -0.4963507 -0.8192123 0.37303662 -0.5950741 -0.6723578 0.6970719 0.4122911
78 -0.5464574 -0.3968316 0.48523718 -0.099358134 0.19058488 -0.646408 -0.28464237 0.10358652 -0.13804331 1.0247726 -0.5448745 0.18447708 0.6036095 -0.62990785 0.38192883 -0.30515453 -0.6685439 1.4310237 0.34696174 0.9610253 0.25864175 0.09208789 -0.22912554 -1.4535613 -0.43614832 0.21557492 -1.118361 -0.5735525 -0.51899904 0.26722327 -0.43928617 -0.6925895 -0.26989263 0.08522913 -0.24880785 0.9300825 -0.09527736 -0.013162397 1.0098965 0.10769453 0.79895115 -0.31672278 -0.9893584 -0.047435205 -0.8950986 -0.18671066 0.12624854 -0.39384758 0.35763383 0.20856488 -0.46577793 -0.3218174 -0.4450472 -0.40717116 0.41197103 0.83898634 0.28721163 0.22615537 0.12743609 0.8069856 -1.010212 -0.85624707 0.34682527 -0.33572972
106 0.07556969 0.050383568 -0.51293725 -0.80184036 0.11102375 -0.18743138 0.17773649 -0.06493107 -0.09904887 0.017096652 0.2839823 -0.34749016 0.13556823 0.013985714 0.36504298 -0.31428057 -0.32187012 0.11154932 0.3574981 -0.24210128 0.25610945 -0.48961696 -0.38362953 -0.39344183 -0.5811482 0.6384667 -0.6741712 -0.4332088 0.7030784 -0.5231487 -0.27519104 0.10251615 -0.5238432 -0.33990538 0.13675113 0.37609425 0.06991518 -0.1217267 0.36172095 -0.13148713 -0.24362335 -0.24172795 0.060986135 -0.02937617 -0.3362258 0.11515283 0.79798883 -0.58076596 0.090854086 0.37074655 -0.21016552 0.27907798 -0.50464714 -0.4015326 -0.11907369 -0.30472258 0.33662498 -0.13131876 -0.06886244 -0.33936426 -0.2604309 -0.06986968 0.6471254 0.05163687
116 0.3547258 -0.20928425 0.18297921 -0.8488979 -0.0010843972 0.34072125 -0.6252385 0.046853554 0.63066757 1.0205729 -0.35881606 0.011175283 -0.27099115 -0.7548783 -0.3971319 -0.5748499 0.842813 -0.69735205 0.22534777 0.057424173 -0.26014376 1.1770381 -0.46778086 -0.53138477 -0.71299124 0.65398175 0.24523136 -0.3440365 0.35505977 0.00013517855 -0.07297379 0.04689365 0.86256397 0.05003669 0.10810951 0.50604427 -1.0226989 0.5903063 1.0448854 -0.3360647 -0.29242024 0.18656503 -1.1837602 -0.08719605 -0.26457167 0.38197762 -0.45835555 -1.0172427 -0.514627 0.29905093 0.35514337 -0.73411417 0.2750887 -0.76963985 -0.13358091 0.4705594 0.35808477 0.09006901 0.5894161 -0.23811963 -1.4153994 0.396184 -0.36311215 0.29609463
195 0.46458134 0.038567595 0.2843941 -0.75701576 0.994641 0.6613482 0.24509314 -0.15734513 -0.8787103 0.10010032 -0.3501247 -0.2329997 0.33304992 -1.0156609 0.6133943 -1.0510541 0.07377357 -0.3259812 0.32336256 -0.46037716 -0.28032306 -0.1706887 -0.37684193 -0.46554 -0.18167266 0.65932745 -0.7617162 -0.5812333 -0.080167584 0.24903777 -0.28070465 0.27861288 -0.36504486 -0.43694773 0.042657528 0.7331015 0.26403025 -0.17083459 0.36789873 -0.3994557 -0.24259426 0.60536224 -0.39907664 0.02025069 -0.9116474 0.21913724 -0.32105222 -0.5821258 -0.941996 -0.40722242 -0.6509444 0.8038488 -0.4974913 -0.12467697 0.6501245 -0.15414922 -0.38959172 0.119246244 -0.1224149 0.12900412 -0.65240645 -0.9618098 0.7160321 0.2025301
151 0.12279119 0.14788881 0.2114097 -0.71140856 0.9411805 -0.08071234 -0.24056625 -0.565197 0.31879306 0.15358879 0.4638033 0.586653 0.3520155 -0.028203331 0.542309 0.49720988 -0.20558992 -0.13850048 -0.035920154 0.8079744 0.014757436 0.4657281 -0.22568442 -1.409673 -1.1189606 1.0368389 -0.28683585 -0.53885716 -0.041195743 0.39341566 0.11659733 -0.35649085 -1.1174616 -0.84460944 0.018532485 0.754477 -0.41468608 -0.6403113 0.7797836 0.10100865 -0.71565783 0.0944319 -0.4750428 -0.44165412 -0.18158974 0.3131358 0.3878624 -0.671556 0.45894977 0.12653422 0.20669731 0.30367005 0.60458297 0.044189513 0.8845839 -0.20894328 1.1377212 -0.5621796 -0.87978566 0.52696943 -0.6290459 -1.168566 0.68314916 0.41763943
182 0.28879824 0.5614086 -0.27632305 -0.66927826 0.94950974 0.34865955 0.30966377 -0.28112498 -0.39796022 0.0063068676 -0.20053306 -0.34201768 -0.0106489835 -0.8371723 0.5278008 -0.64849555 0.09775572 -0.018643204 0.8969335 -0.41821775 -0.1651835 -0.18674928 -0.51210064 -0.30586466 0.22850241 0.30143803 -0.7246929 -0.09135293 0.21027483 0.16258366 -0.20633648 0.37626022 -0.27955186 -0.56621575 -0.120598614 0.75467455 0.37897542 -0.035068054 0.2194332 -0.43101418 -0.36651236 0.28996477 -0.06338972 -0.364132 -0.96854407 0.5980437 0.00430136 -0.4972581 -0.89064294 -0.26975366 -0.9834881 0.774356 -0.54431045 -0.49858612 0.60093635 -0.14615788 -0.27524585 0.19612762 0.05159421 -0.3779103 -0.42457378 -0.62549555 1.0509834 0.4887524
